GIS
1
0.0
27
11d
61b
61a
64
61c
71a
1c
28x
58c
60e
67h
61d
74a
54c
26d
56c
71c
59a
51c
71d
81a
53f
86a
67a
1a
5c
63a
26
2 0 1 2 3 4 5 6 7 8 9 10 11 12 13 14 15 16 17 18 19 20 21 22 23 24 25 26
2 0 5 9 10 17 22 24 25 26
2 1
2 1 2 3 4 9 11 23
2 1 2 4 5 6 11 16 18 19 20 24
4 2
2 2 3 11 17 20 22 23
2 2 5 12 17 20 23 24
4 2 23
2 3 8
2 3 12 13
2 4
2 4 6 8 13 15 16 18
2 4 23
2 5 12 16 19
2 7
2 7 8 9
2 7 14
2 8 13 15 17 18 21
2 11 14 19
2 14 15 22
2 17
2 20 22
4 21
2 23
6 25
62
w2=<s>
w1=<s>
w1=yeah
w2=yeah
w2=b
w1=b
w1=sixty
w2=sixty
w1=one
w2=one
w1=okay
w1=previous
w2=previous
w2=okay
w2=the
w1=the
w2=a
w1=a
w2=is
w1=when
w2=when
w1=is
w1=no
w2=no
w1=four
w2=four
w1=yes
w2=yes
w2=c
w1=c
w1=right
w2=right
w2=seventy
w1=seventy
w2=x
w1=x
w1=eight
w2=eight
w2=twenty
w1=twenty
w2=fifty
w1=fifty
w2=d
w1=d
w2=six
w1=six
w1=nine
w2=nine
w2=eighty
w1=eighty
w2=three
w2=f
w1=f
w1=three
w1=seven
w2=seven
w2=im
w2=here
w2=hello
w1=im
w1=hello
w1=here
-0.6172332810041681
0.2187513750858634
0.6613087629059825
1.2113855312145307
1.7866962532393749
0.1390645673865638
-0.38518562533739753
-1.8888860926615596
-3.384546598106259
-2.1324222075936103
-0.6172332810041681
-1.3209339318073
-2.617365873521705
-1.0453720129376476
-1.3209339318073
-1.0375017854892423
-1.0375017854892423
-0.11624789385721795
-1.0375017854892423
-0.6479274714108205
-0.5055789394938793
-1.3353868876415877
-0.6172332810041681
0.5516753166280888
-0.11624789385721795
-1.9348476040376112
-0.6172332810041681
-0.9767134375621412
0.5034387862002128
0.020186691243897048
0.5363353995069573
1.4545379731714485
-0.2206231830371207
1.6323405027953295
-1.298987972520929
-2.540530265252465
-2.9248545035108395
-0.9767134375621412
-1.3840272602599715
-1.285648569842138
0.5600994041680705
-1.298987972520929
-0.6132418569958576
-1.3598477815989027
-1.3372900875507931
-0.8682221482680197
-0.7418938140661844
-0.15901837983956735
-0.6132418569958576
-1.711380861864659
0.8299967761752005
1.298206566194836
-2.035987395878282
-0.9767134375621412
5.4695830387154185
4.727495434573056
5.123937569476625
5.4695830387154185
4.979123736049577
5.4695830387154185
4.979123736049577
2.873490203687989
5.4695830387154185
5.808095259796057
5.055454459297686
7.691654142598891
5.808095259796057
6.156191084759272
3.931124232634121
3.549295403607
3.189192982021015
5.808095259796057
6.4955841422655896
6.7097874662551735
4.215289517639916
4.167595362823653
3.5301257647387327
5.107514423944827
2.54753123345879
2.995593732973668
2.7215846065218128
4.323343735812477
3.2275798024035156
4.301527421862805
4.662037272634998
3.9179420706185786
2.0354295071277275
3.514255490851058
2.5329553500407234
3.3621560752593784
4.0316444747358835
2.626307312333489
2.6502156399067465
1.552590773490595
2.234662080507579
2.234662080507579
2.0601465149104627
2.626307312333489
2.2443753437707934
2.990073658595827
3.3797642488397335
3.3807943948637043
2.0452538246680834
4.547753924234505
2.599349724354889
1.729307029409576
2.8833532956725474
2.1289089768750804
2.0999530059458302
4.108760127525885
6.2787181698665275
6.559017073037367
5.288799548667866
7.027419869822596
4.487855041885778
1.4971584961395872
5.802308587704207
5.757447175808369
4.626815075743374
6.107926358440796
3.669717081786648
4.862368541989696
3.1001460976683255
5.296664855262701
4.966928675221177
1.574683366054703
3.480301173362964
4.568096888471091
4.9031618059185105
4.377032340932067
3.863132261038711
1.9542450867602728
4.377032340932067
3.403555677529519
4.057540949193824
5.004877599033644
4.274665409846173
6.322410302494561
3.837173388528982
4.918131315880481
4.7779842056866295
3.837173388528982
3.675544817795709
4.036188709225909
3.8445169338720495
2.0870749190219464
6.572070989643566
4.361313952801899
5.989580935774603
5.4179009057859675
8.585085113958986
6.9613826812053965
5.618089221079465
8.68197320563051
6.124430671719018
5.094333691413625
5.029136519729011
6.152991339282583
4.869020652239863
5.061191072042522
4.63439134853879
4.9488265995791005
4.981448093720044
4.155649494978776
3.550629754045799
4.59077036181892
3.037788916199301
3.871786375267906
3.871786375267906
4.357200396392435
4.329322423786024
6.6087053117609456
5.893118825422247
4.288097665707542
4.288097665707542
4.288097665707542
4.623450735346424
5.163046195180642
5.072767145822055
5.007994456343665
6.108529073793602
6.481378062698339
6.554460522312092
6.62949748035564
6.45167368781573
5.189290726132944
6.071209033197179
6.369673041597268
7.484599137704256
8.61205467147016
4.062915984587612
6.73380975595775
7.989377943194859
4.72607304169783
5.771552863712703
6.723156318618003
7.651144606077398
7.651144606077398
5.955202497597691
5.686294897487057
4.48657778050884
6.182797076005601
5.729558399022311
4.439291236287654
5.974192990507919
5.729558399022311
4.40468124499792
5.305331828108268
4.024136678428812
3.056734516076194
5.688711865714333
3.056734516076194
6.543280078585036
4.836827318224975
6.732609462297644
6.825704040845828
6.825704040845828
6.846086017370869
4.871957818713107
6.051756070282315
5.685750859131591
6.3565420937536565
7.278341166036749
7.111855202654429
7.7841306953023075
7.12835618015993
7.59071847882174
5.650368762054453
7.19453492978277
4.964792146517253
7.1283561801599316
3.9318256327243275
8.24200264756965
3.9318256327243275
6.367784640440319
6.846517979403485
7.9387044091044405
3.9318256327243266
8.898939449985493
3.9318256327243266
8.33250140112517
8.708999804999266
