GIS
1
0.0
11
curry
reis
scharf
thai
vegetarisch
indisch
franzözisch
käse
mexican
mexicanisch
tortilla
5
3 0 1 2 3 4
9 0 1 2 3 4 5 6 7 8 9 10
2 0 1 2 4 5
2 2 8 9 10
2 6 7
18
w3=thai
w1=thai
w2=thai
w3=möchte
w2=ich
w2=<s>
w1=ich
w3=ich
w3=<s>
w1=<s>
w1=möchte
w2=möchte
w3=indian
w2=indian
w2=mexicanisch
w3=mexicanisch
w3=franzözisch
w2=franzözisch
2.123350139388313
2.123350139388313
1.187960203672004
3.1691424875074157
2.123350139388313
2.6271531269916863
2.6271531269916863
2.439552332775281
2.9014539922805374
2.6271531269916863
2.1233501393883127
2.1233501393883127
1.187960203672004
3.169142487507415
2.1233501393883127
0.2936531741908874
0.2936531741908874
0.32982853571403986
0.2966744178007352
0.2936531741908874
-0.5736072036715333
-0.5736072036715333
-0.5736072036715333
-0.5736072036715333
-0.5736072036715333
-0.5736072036715333
0.2936531741908874
0.2936531741908874
0.32982853571403986
0.2966744178007352
0.2936531741908874
-0.5736072036715333
-0.5736072036715333
-0.5736072036715333
-0.5736072036715333
-0.5736072036715333
-0.5736072036715333
0.24116379299462187
0.24116379299462187
0.33464373264608094
0.10463631402699981
0.24116379299462187
-0.4378989107921379
-0.4378989107921379
-0.4378989107921379
-0.4378989107921379
-0.4378989107921379
-0.4378989107921379
0.3180792670122927
0.3180792670122927
0.7894021533146687
-0.20842870317450599
0.3180792670122927
-0.7481118853135813
-0.729828853435408
-0.729828853435408
-0.7307863223469484
-0.7307863223469484
-0.7307863223469484
0.24116379299462187
0.24116379299462187
0.33464373264608094
0.10463631402699981
0.24116379299462187
-0.4378989107921379
-0.4378989107921379
-0.4378989107921379
-0.4378989107921379
-0.4378989107921379
-0.4378989107921379
0.31807926701229233
0.31807926701229233
0.7894021533146681
-0.2084287031745063
0.31807926701229233
-0.7481118853135816
-0.7298288534354085
-0.7298288534354085
-0.7307863223469488
-0.7307863223469488
-0.7307863223469488
-0.1688305333112952
-0.1688305333112952
0.04686049801213005
-0.5810763544853949
-0.1688305333112952
0.47160998715363744
0.47160998715363744
0.47160998715363744
0.47160998715363744
0.47160998715363744
0.47160998715363744
0.31807926701229233
0.31807926701229233
0.7894021533146681
-0.2084287031745063
0.31807926701229233
-0.7481118853135816
-0.7298288534354085
-0.7298288534354085
-0.7307863223469488
-0.7307863223469488
-0.7307863223469488
0.3180792670122927
0.3180792670122927
0.7894021533146687
-0.20842870317450599
0.3180792670122927
-0.7481118853135813
-0.729828853435408
-0.729828853435408
-0.7307863223469484
-0.7307863223469484
-0.7307863223469484
2.2579874699157285
2.2579874699157285
1.3225975341994194
2.2579874699157285
4.379435226789739
2.2579874699157276
2.2579874699157276
1.322597534199419
2.2579874699157276
4.379435226789738
2.3402661702493273
5.361833692668911
5.361833692668911
5.361833692668911
2.3402661702493273
5.361833692668911
5.361833692668911
5.361833692668911
6.390036042225483
6.390036042225483
6.390036042225482
6.390036042225482
