GIS
1
0.0
10
curry
reis
scharf
thai
vegetarisch
indian
franzözisch
käse
mexican
tortilla
5
3 0 1 2 3 4
9 0 1 2 3 4 5 6 7 8 9
2 0 1 2 4 5
2 2 8 9
2 6 7
18
w3=thai
w1=thai
w2=thai
w3=möchte
w2=ich
w2=<s>
w1=ich
w3=ich
w3=<s>
w1=<s>
w1=möchte
w2=möchte
w3=indian
w2=indian
w2=mexicanisch
w3=mexicanisch
w3=franzözisch
w2=franzözisch
1.85570118506246
1.85570118506246
1.031064298283741
3.021972432813057
1.85570118506246
2.427051311856369
2.427051311856369
2.2353635183628238
2.7094272625331595
2.427051311856369
1.855701185062461
1.855701185062461
1.0310642982837408
3.0219724328130577
1.855701185062461
0.26744861198915293
0.26744861198915293
0.3056155132509779
0.26658249295031766
0.26744861198915293
-0.6290220281618452
-0.6290220281618452
-0.6290220281618452
-0.6290220281618452
-0.6290220281618452
0.26744861198915293
0.26744861198915293
0.3056155132509779
0.26658249295031766
0.26744861198915293
-0.6290220281618452
-0.6290220281618452
-0.6290220281618452
-0.6290220281618452
-0.6290220281618452
0.22217910962770965
0.22217910962770965
0.3177155810676894
0.0815887983116877
0.22217910962770965
-0.48728632287101004
-0.48728632287101004
-0.48728632287101004
-0.48728632287101004
-0.48728632287101004
0.31680182979714544
0.31680182979714544
0.7321197987361103
-0.2708287524787729
0.31680182979714544
-0.8348302849656046
-0.8170298120521334
-0.8170298120521334
-0.830480406928193
-0.830480406928193
0.22217910962770965
0.22217910962770965
0.3177155810676894
0.0815887983116877
0.22217910962770965
-0.48728632287101004
-0.48728632287101004
-0.48728632287101004
-0.48728632287101004
-0.48728632287101004
0.316801829797145
0.316801829797145
0.7321197987361104
-0.27082875247877325
0.316801829797145
-0.8348302849656057
-0.8170298120521339
-0.8170298120521339
-0.8304804069281927
-0.8304804069281927
-0.16214520868555501
-0.16214520868555501
0.0495479208178703
-0.5665857758583916
-0.16214520868555501
0.5371265292665556
0.5371265292665556
0.5371265292665556
0.5371265292665556
0.5371265292665556
0.316801829797145
0.316801829797145
0.7321197987361104
-0.27082875247877325
0.316801829797145
-0.8348302849656057
-0.8170298120521339
-0.8170298120521339
-0.8304804069281927
-0.8304804069281927
0.31680182979714544
0.31680182979714544
0.7321197987361103
-0.2708287524787729
0.31680182979714544
-0.8348302849656046
-0.8170298120521334
-0.8170298120521334
-0.830480406928193
-0.830480406928193
2.019413829141281
2.019413829141281
1.194776942362562
2.019413829141281
4.309518430708206
2.019413829141281
2.019413829141281
1.194776942362561
2.019413829141281
4.3095184307082075
2.7105112081755576
5.8160514411885025
5.8160514411885025
2.710511208175557
5.8160514411885025
5.8160514411885025
6.444604330596472
6.444604330596472
6.444604330596473
6.444604330596473
