GIS
1
0.0
16
curry
nudeln
reis
scharf
thai
vegetarisch
indisch
italienisch
pasta
fisch
fleisch
franzözisch
käse
mexican
mexicanisch
tortilla
6
3 0 1 2 3 4 5
9 0 1 2 3 4 5 6 7 8 9 10 11 12 13 14 15
2 0 2 3 5 6
2 1 7 8
2 3 10 13 14 15
2 9 10 11 12
20
w3=thai
w1=thai
w2=thai
w3=möchte
w2=ich
w2=<s>
w1=ich
w3=ich
w3=<s>
w1=<s>
w1=möchte
w2=möchte
w3=indian
w2=indian
w2=italienisch
w3=italienisch
w2=mexicanisch
w3=mexicanisch
w3=franzözisch
w2=franzözisch
2.703374853110771
2.8366802709504975
2.703374853110771
2.004578291759071
3.438757476188194
2.703374853110771
3.0588902856892504
3.0588902856892504
3.0588902856892504
2.8797990642946223
3.316377398818595
3.0588902856892504
2.7033748531107724
2.8366802709504984
2.7033748531107724
2.0045782917590715
3.4387574761881954
2.7033748531107724
0.3351513586369103
0.3351513586369103
0.3351513586369103
0.3671706756022274
0.3462941900422023
0.3351513586369103
-0.4782620294087381
-0.4782620294087381
-0.4782620294087381
-0.4782620294087381
-0.2080186389952143
-0.4782620294087381
-0.4782620294087381
-0.4782620294087381
-0.4782620294087381
-0.4782620294087381
0.3351513586369103
0.3351513586369103
0.3351513586369103
0.3671706756022274
0.3462941900422023
0.3351513586369103
-0.4782620294087381
-0.4782620294087381
-0.4782620294087381
-0.4782620294087381
-0.2080186389952143
-0.4782620294087381
-0.4782620294087381
-0.4782620294087381
-0.4782620294087381
-0.4782620294087381
0.263424088819593
0.263424088819593
0.263424088819593
0.35262450774587134
0.135351482801999
0.263424088819593
-0.3596362087620613
-0.3596362087620613
-0.3596362087620613
-0.3596362087620613
-0.0884464912476095
-0.3596362087620613
-0.3596362087620613
-0.3596362087620613
-0.3596362087620613
-0.3596362087620613
0.33670395201980907
0.26906820673305926
0.33670395201980907
0.6879567283077924
-0.032450476675668964
0.33670395201980907
-0.5497799833409058
-0.5361316519877147
-0.5361316519877147
-0.5222411586250973
-0.11789595823704044
-0.5222411586250973
-0.5222411586250973
-0.5241318717372836
-0.5241318717372836
-0.5241318717372836
0.263424088819593
0.263424088819593
0.263424088819593
0.35262450774587134
0.135351482801999
0.263424088819593
-0.3596362087620613
-0.3596362087620613
-0.3596362087620613
-0.3596362087620613
-0.0884464912476095
-0.3596362087620613
-0.3596362087620613
-0.3596362087620613
-0.3596362087620613
-0.3596362087620613
0.3367039520198092
0.26906820673305953
0.3367039520198092
0.6879567283077931
-0.032450476675668714
0.3367039520198092
-0.5497799833409053
-0.536131651987714
-0.536131651987714
-0.5222411586250976
-0.11789595823703933
-0.5222411586250976
-0.5222411586250976
-0.5241318717372835
-0.5241318717372835
-0.5241318717372835
-0.19958626587274753
-0.19958626587274753
-0.19958626587274753
0.024445015390982705
-0.6281332815252758
-0.19958626587274753
0.3324149178254674
0.3324149178254674
0.3324149178254674
0.3324149178254674
0.4847582305286445
0.3324149178254674
0.3324149178254674
0.3324149178254674
0.3324149178254674
0.3324149178254674
0.3367039520198092
0.26906820673305953
0.3367039520198092
0.6879567283077931
-0.032450476675668714
0.3367039520198092
-0.5497799833409053
-0.536131651987714
-0.536131651987714
-0.5222411586250976
-0.11789595823703933
-0.5222411586250976
-0.5222411586250976
-0.5241318717372835
-0.5241318717372835
-0.5241318717372835
0.33670395201980907
0.26906820673305926
0.33670395201980907
0.6879567283077924
-0.032450476675668964
0.33670395201980907
-0.5497799833409058
-0.5361316519877147
-0.5361316519877147
-0.5222411586250973
-0.11789595823704044
-0.5222411586250973
-0.5222411586250973
-0.5241318717372836
-0.5241318717372836
-0.5241318717372836
3.212580820039021
3.212580820039021
2.513784258687321
3.212580820039021
4.978688439287423
3.212580820039021
3.212580820039021
2.5137842586873202
3.212580820039021
4.978688439287422
4.337971417987085
5.9432498719856515
5.9432498719856515
4.3379714179870845
5.943249871985652
5.943249871985652
2.7843744073352124
4.385607201824791
5.197899353966272
5.197899353966272
5.197899353966272
2.784374407335211
4.385607201824791
5.19789935396627
5.19789935396627
5.19789935396627
5.615531945269745
4.80709341001132
5.615531945269745
5.615531945269745
5.615531945269747
4.807093410011319
5.615531945269747
5.615531945269747
