GIS
1
0.0
16
curry
rice
spicy
thai
vegeterian
indian
cheese
french
mexican
tortilla
downtown
uni
university
park
here
nearby
13
3 0 1 2 3 4
6 0 1 2 3 4 5
8 0 1 2 3 4 5 6 7 8 9
3 0 1 2 3 4 5 6 7 8 9 10 11 12 13 14 15
3 0 1 2 4 5
3 2 8 9
3 6 7
2 10
3 10 11 12 13 14 15
2 11 12
3 11 12 13
2 13
2 14 15
43
w1=thai
w3=thai
w2=thai
w3=some
w3=curry
w2=some
w2=curry
w1=some
w1=food
w2=food
w1=want
w1=i
w2=i
w3=i
w3=food
w3=want
w2=want
w2=<s>
w3=<s>
w1=<s>
w3=indian
w2=indian
w1=indian
w2=mexican
w1=mexican
w3=mexican
w1=french
w2=french
w3=french
w3=downtown
w2=downtown
w3=around
w2=around
w1=around
w2=uni
w3=uni
w2=the
w3=the
w1=the
w2=park
w3=park
w3=here
w2=here
2.27836361167077
2.27836361167077
1.7168701729014473
3.8224522902420106
2.27836361167077
2.256053126975796
2.256053126975796
1.8541779291134572
3.5917046760314766
2.256053126975796
2.3607587610654455
2.3607587610654455
1.831036362683594
3.853034259543123
2.3607587610654455
2.1834337776824055
2.1834337776824055
1.7760804187611536
2.8129646359715776
2.1834337776824055
2.8129646359715776
1.6359407793723855
1.6359407793723855
1.8997032526308257
0.8818699623860431
1.6359407793723855
0.8818699623860431
1.7277665864431715
1.7277665864431715
1.9067886743625284
1.0841540942990875
1.7277665864431715
1.0841540942990875
1.5770287327433792
1.5770287327433792
1.8615924980806453
0.8388112437261828
1.5770287327433792
0.8388112437261828
1.6359407793723855
1.6359407793723855
1.8997032526308257
0.8818699623860431
1.6359407793723855
0.8818699623860431
2.6977925985693347
2.6977925985693347
2.519298455997766
2.387736955570799
2.6977925985693347
2.387736955570799
1.050501595338054
1.050501595338054
1.3490076999328062
0.32335310528986105
1.050501595338054
0.32335310528986116
0.9791994600531809
0.9791994600531809
0.9700973152354109
0.9700973152354109
1.4595892787130595
1.4595892787130595
1.6807023624489723
0.744861513074683
1.4595892787130595
0.7448615130746828
-0.2406968255746201
-0.2406968255746201
-0.24281067255546585
-0.24281067255546585
1.4358227279463223
1.4358227279463223
1.641177405053558
0.7693076162833566
1.4358227279463223
0.7693076162833566
0.22296681376528935
0.22296681376528935
0.2140079737529571
0.2140079737529571
1.6332366517345447
1.6332366517345447
1.6325587556923684
1.4428275765469158
1.6332366517345447
1.4428275765469158
0.6418797773715378
0.6418797773715378
0.6418797773715378
0.6418797773715378
1.498568118914245
1.498568118914245
1.6093132035496442
1.3869563633359652
1.498568118914245
1.3869563633359652
1.3233742983410566
1.3233742983410566
1.3233742983410566
1.3233742983410566
1.2140735624052308
1.2140735624052308
1.5336093037982546
0.4311205233106
1.2140735624052308
0.4311205233105999
1.093858396776087
1.093858396776087
1.0863701409079305
1.0863701409079305
1.6332366517345447
1.6332366517345447
1.6325587556923684
1.4428275765469158
1.6332366517345447
1.4428275765469158
0.6418797773715378
0.6418797773715378
0.6418797773715378
0.6418797773715378
1.4358227279463223
1.4358227279463223
1.641177405053558
0.7693076162833566
1.4358227279463223
0.7693076162833566
0.22296681376528935
0.22296681376528935
0.2140079737529571
0.2140079737529571
0.4729562324346179
0.4729562324346179
0.5402310008558584
0.20198224916831625
0.4729562324346179
0.20198224916831625
-0.6918659964813558
-0.6918659964813558
-0.6918659964813558
-0.6918659964813558
-0.638590908767133
-0.660592680752201
-0.660592680752201
-0.660592680752201
-0.6485644142080165
-0.6485644142080165
0.7522030289211933
0.7522030289211933
1.0266014049758965
-0.06995142101345768
0.7522030289211933
-0.06995142101345751
-1.0243832375496216
-1.0243832375496216
-1.0257557057411357
-1.0257557057411357
-0.997561832521697
-1.2463503027770286
-1.2463503027770286
-1.301109746525271
-0.9521834501712508
-0.9521834501712508
0.2798513025761971
0.2798513025761971
0.5046290597512157
-0.03268808499217134
0.2798513025761971
-0.03268808499217134
0.8810235085908553
0.8810235085908553
0.8810235085908553
0.8810235085908553
-1.0771461723666076
-1.0434338742319182
-1.0434338742319182
-1.0434338742319182
-1.0617869414044454
-1.0617869414044454
2.256053126975796
2.256053126975796
1.8541779291134572
2.256053126975796
3.5917046760314766
2.360758761065446
2.360758761065446
1.831036362683594
2.360758761065446
3.853034259543123
2.278363611670771
2.278363611670771
1.7168701729014482
2.278363611670771
3.822452290242012
3.225922786572394
5.581039801357788
5.581039801357788
3.1561368802361387
5.571578460542135
5.571578460542135
3.2529757453959474
6.089779237091597
6.089779237091597
6.1231955959938436
6.1231955959938436
6.117624785964576
6.117624785964576
6.595602086992699
6.595602086992699
5.750906086980181
5.419159277327448
5.792404645830824
5.7806820680839985
5.7806820680839985
5.7806820680839985
5.787006260118911
5.787006260118911
2.4268958972241794
2.5697469912253887
2.5697469912253887
2.5697469912253887
2.4796613834729855
2.4796613834729855
2.3354455839732524
1.4562258250332993
1.4562258250332993
1.3318622491392107
2.3934601072962267
2.3934601072962267
4.096342521119929
4.096342521119929
3.5975091812869633
3.5975091812869633
2.4502788060715637
2.4502788060715637
2.303912375717442
4.31521866838693
4.31521866838693
4.31521866838693
3.2004151976100115
3.2004151976100115
3.0987377970586625
5.094134372583155
4.816978611602983
4.923691825003877
4.923691825003877
4.531120040690406
4.531120040690406
