GIS
1
0.0
17
curry
rice
spicy
thai
vegeterian
indian
cheese
french
mexican
tortilla
downtown
uni
university
park
here
near
nearby
13
3 0 1 2 3 4
6 0 1 2 3 4 5
8 0 1 2 3 4 5 6 7 8 9
3 0 1 2 3 4 5 6 7 8 9 10 11 12 13 14 15 16
3 0 1 2 4 5
3 2 8 9
3 6 7
2 10
3 10 11 12 13 14 15 16
2 11 12
3 11 12 13
2 13
2 14 15 16
43
w1=thai
w3=thai
w2=thai
w3=some
w3=curry
w2=some
w2=curry
w1=some
w1=food
w2=food
w1=want
w1=i
w2=i
w3=i
w3=food
w3=want
w2=want
w2=<s>
w3=<s>
w1=<s>
w3=indian
w2=indian
w1=indian
w2=mexican
w1=mexican
w3=mexican
w1=french
w2=french
w3=french
w3=downtown
w2=downtown
w3=around
w2=around
w1=around
w2=uni
w3=uni
w2=the
w3=the
w1=the
w2=park
w3=park
w3=here
w2=here
2.3361846517823546
2.3361846517823546
1.7860895807903232
3.8517520206487634
2.3361846517823546
2.2909907697077334
2.2909907697077334
1.8955534183984684
3.6073770921894583
2.2909907697077334
2.3913817884733746
2.3913817884733746
1.8704810556748734
3.8645752155352833
2.3913817884733746
2.2236425466746805
2.2236425466746805
1.8227804850581255
2.8341607722252786
2.2236425466746805
2.8341607722252777
1.66669351339468
1.66669351339468
1.926054081072032
0.9222664104941911
1.66669351339468
0.922266410494191
1.7669232072094574
1.7669232072094574
1.942399580048682
1.133279870948624
1.7669232072094574
1.133279870948624
1.6384308803516234
1.6384308803516234
1.913824944612746
0.921180358817929
1.6384308803516234
0.9211803588179295
1.66669351339468
1.66669351339468
1.926054081072032
0.9222664104941911
1.66669351339468
0.922266410494191
2.752882067556852
2.752882067556852
2.5741552249484023
2.435078781080198
2.752882067556852
2.435078781080198
1.1504952983327623
1.1504952983327623
1.4395056144923537
0.44382595045014706
1.1504952983327623
0.44382595045014767
1.06726471304305
1.06726471304305
1.058024140871995
1.058024140871995
1.5110402759174955
1.5110402759174955
1.7292803037184004
0.8059678332350864
1.5110402759174955
0.8059678332350869
-0.15034299547211874
-0.15034299547211874
-0.15234914287925935
-0.15234914287925935
1.4891707361927804
1.4891707361927804
1.6912656399995305
0.8322230578363574
1.4891707361927804
0.8322230578363577
0.2902341613488188
0.2902341613488188
0.2812943089500701
0.2812943089500701
1.7326002438249657
1.7326002438249657
1.731851368406587
1.5461345226203478
1.7326002438249657
1.5461345226203478
0.7679826732951303
0.7679826732951303
0.7679826732951303
0.7679826732951303
1.6557875597851934
1.6557875597851934
1.7696249971627813
1.5544470126694852
1.6557875597851934
1.5544470126694852
1.5423420596459003
1.5423420596459003
1.5423420596459003
1.5423420596459003
1.276949684030579
1.276949684030579
1.5904484291344392
0.503363313519501
1.276949684030579
0.5033633135195001
1.1402126209060357
1.1402126209060357
1.1327641555825705
1.1327641555825705
1.7326002438249657
1.7326002438249657
1.731851368406587
1.5461345226203478
1.7326002438249657
1.5461345226203478
0.7679826732951303
0.7679826732951303
0.7679826732951303
0.7679826732951303
1.4891707361927804
1.4891707361927804
1.6912656399995305
0.8322230578363574
1.4891707361927804
0.8322230578363577
0.2902341613488188
0.2902341613488188
0.2812943089500701
0.2812943089500701
0.4861316824533669
0.4861316824533669
0.5505577330121277
0.2126727099778265
0.4861316824533669
0.2126727099778265
-0.6858163371769734
-0.6858163371769734
-0.6858163371769734
-0.6858163371769734
-0.5699549675433542
-0.5895256107252801
-0.5895256107252801
-0.5895256107252801
-0.5895256107252799
-0.5895256107252799
-0.5895256107252799
0.7653339711288274
0.7653339711288274
1.0375637030978597
-0.048757690314706885
0.7653339711288274
-0.048757690314707045
-0.9658659835485552
-0.9658659835485552
-0.9669747908331658
-0.9669747908331658
-0.9450099048472106
-1.188052743865846
-1.188052743865846
-1.2421726548080207
-0.8596929976755182
-0.8596929976755182
-0.8596929976755182
0.3039486156021564
0.3039486156021564
0.5288579084806454
-0.016493395443667104
0.3039486156021564
-0.016493395443667104
0.8514807749208035
0.8514807749208035
0.8514807749208035
0.8514807749208035
-0.9616249241915007
-0.9319785101293563
-0.9319785101293563
-0.9319785101293563
-0.9319785101293562
-0.9319785101293562
-0.9319785101293562
2.2909907697077334
2.2909907697077334
1.8955534183984681
2.2909907697077334
3.6073770921894575
2.391381788473374
2.391381788473374
1.8704810556748732
2.391381788473374
3.864575215535283
2.3361846517823546
2.3361846517823546
1.7860895807903232
2.3361846517823546
3.851752020648763
3.2480429671842845
5.57182222888807
5.57182222888807
3.1938033629697182
5.564371405779593
5.564371405779593
3.2728876443607655
6.075422745886104
6.075422745886104
6.109496748598278
6.109496748598278
6.103772795397672
6.103772795397672
6.5774642791004805
6.5774642791004805
5.874536630408692
5.617475314872365
5.5056975846222524
5.495601657828847
5.495601657828847
5.495601657828847
5.495601657828847
5.495601657828847
5.495601657828847
2.2591450868759657
2.3726322494745378
2.3726322494745378
2.3726322494745378
2.372632249474537
2.372632249474537
2.372632249474537
2.217049904601707
1.3633135045671627
1.3633135045671627
1.2501550201667788
2.3355522791428425
2.3355522791428425
2.3355522791428425
4.097324943500634
4.097324943500634
3.675285012557081
3.675285012557081
2.576017399623967
2.576017399623967
2.439489851422482
4.4981329761620605
4.4981329761620605
4.4981329761620605
3.2106999315355806
3.2106999315355806
3.112404580193794
5.089879364857011
4.85199770079385
4.49813297616206
4.49813297616206
4.49813297616206
4.135870720741145
4.135870720741145
4.135870720741145
