GIS
1
0.0
16
curry
nudeln
reis
scharf
thai
vegetarisch
indisch
italienisch
pasta
fisch
franzözisch
käse
fleisch
mexican
mexicanisch
tortilla
6
3 0 1 2 3 4 5
9 0 1 2 3 4 5 6 7 8 9 10 11 12 13 14 15
2 0 2 3 5 6
2 1 7 8
2 3 12 13 14 15
2 9 10 11
20
w3=thai
w1=thai
w2=thai
w3=möchte
w2=ich
w2=<s>
w1=ich
w3=ich
w3=<s>
w1=<s>
w1=möchte
w2=möchte
w3=indian
w2=indian
w2=italienisch
w3=italienisch
w2=mexicanisch
w3=mexicanisch
w3=franzözisch
w2=franzözisch
2.5786582899360813
2.7261859778405864
2.5786582899360813
1.842377762331708
3.3435493037380377
2.5786582899360813
2.9894161719908685
2.9894161719908685
2.9894161719908685
2.8087400769692588
3.2500386715711604
2.9894161719908685
2.5786582899360817
2.7261859778405864
2.5786582899360817
1.842377762331707
3.3435493037380373
2.5786582899360817
0.34204939688791336
0.34204939688791336
0.34204939688791336
0.37484243715601445
0.35167855871281517
0.34204939688791336
-0.4781701174142841
-0.4781701174142841
-0.4781701174142841
-0.4781701174142841
-0.4781701174142841
-0.4781701174142841
-0.4781701174142841
-0.4781701174142841
-0.4781701174142841
-0.4781701174142841
0.34204939688791336
0.34204939688791336
0.34204939688791336
0.37484243715601445
0.35167855871281517
0.34204939688791336
-0.4781701174142841
-0.4781701174142841
-0.4781701174142841
-0.4781701174142841
-0.4781701174142841
-0.4781701174142841
-0.4781701174142841
-0.4781701174142841
-0.4781701174142841
-0.4781701174142841
0.2747820544510003
0.2747820544510003
0.2747820544510003
0.36477961525585134
0.145132614082003
0.2747820544510003
-0.3553925239738274
-0.3553925239738274
-0.3553925239738274
-0.3553925239738274
-0.3553925239738274
-0.3553925239738274
-0.3553925239738274
-0.3553925239738274
-0.3553925239738274
-0.3553925239738274
0.35860817400818706
0.28371475723835726
0.35860817400818706
0.7288282180488214
-0.025506612618324865
0.35860817400818706
-0.5557484082633862
-0.5396085902558346
-0.5396085902558346
-0.534057258903909
-0.534057258903909
-0.534057258903909
-0.526507244513275
-0.526507244513275
-0.526507244513275
-0.526507244513275
0.2747820544510003
0.2747820544510003
0.2747820544510003
0.36477961525585134
0.145132614082003
0.2747820544510003
-0.3553925239738274
-0.3553925239738274
-0.3553925239738274
-0.3553925239738274
-0.3553925239738274
-0.3553925239738274
-0.3553925239738274
-0.3553925239738274
-0.3553925239738274
-0.3553925239738274
0.35860817400818706
0.2837147572383575
0.35860817400818706
0.7288282180488221
-0.025506612618324438
0.35860817400818706
-0.5557484082633869
-0.5396085902558347
-0.5396085902558347
-0.5340572589039091
-0.5340572589039091
-0.5340572589039091
-0.5265072445132745
-0.5265072445132745
-0.5265072445132745
-0.5265072445132745
-0.1785333162817486
-0.1785333162817486
-0.1785333162817486
0.043945178873256455
-0.6040419989442858
-0.1785333162817486
0.3671879774174759
0.3671879774174759
0.3671879774174759
0.3671879774174759
0.3671879774174759
0.3671879774174759
0.3671879774174759
0.3671879774174759
0.3671879774174759
0.3671879774174759
0.35860817400818706
0.2837147572383575
0.35860817400818706
0.7288282180488221
-0.025506612618324438
0.35860817400818706
-0.5557484082633869
-0.5396085902558347
-0.5396085902558347
-0.5340572589039091
-0.5340572589039091
-0.5340572589039091
-0.5265072445132745
-0.5265072445132745
-0.5265072445132745
-0.5265072445132745
0.35860817400818706
0.28371475723835726
0.35860817400818706
0.7288282180488214
-0.025506612618324865
0.35860817400818706
-0.5557484082633862
-0.5396085902558346
-0.5396085902558346
-0.534057258903909
-0.534057258903909
-0.534057258903909
-0.526507244513275
-0.526507244513275
-0.526507244513275
-0.526507244513275
3.122173840306839
3.122173840306839
2.3858933127024655
3.122173840306839
4.943188637085727
3.122173840306839
3.122173840306839
2.385893312702464
3.122173840306839
4.943188637085729
4.301719486792231
5.942773596076291
5.942773596076291
4.301719486792232
5.942773596076291
5.942773596076291
2.712516507578252
5.21112688230036
5.21112688230036
5.21112688230036
5.21112688230036
2.7125165075782536
5.211126882300361
5.211126882300361
5.211126882300361
5.211126882300361
5.963655156913842
5.963655156913842
5.963655156913842
5.963655156913843
5.963655156913843
5.963655156913843
