GIS
1
0.0
14
curry
nudeln
reis
scharf
thai
vegetarisch
indisch
italienisch
pasta
franzözisch
käse
mexican
mexicanisch
tortilla
6
3 0 1 2 3 4 5
9 0 1 2 3 4 5 6 7 8 9 10 11 12 13
2 0 2 3 5 6
2 1 7 8
2 3 11 12 13
2 9 10
20
w3=thai
w1=thai
w2=thai
w3=möchte
w2=ich
w2=<s>
w1=ich
w3=ich
w3=<s>
w1=<s>
w1=möchte
w2=möchte
w3=indian
w2=indian
w2=italienisch
w3=italienisch
w2=mexicanisch
w3=mexicanisch
w3=franzözisch
w2=franzözisch
2.273203379821776
2.4669998210785398
2.273203379821776
1.5627406429086506
3.1182285094864954
2.273203379821776
2.743369145262376
2.743369145262376
2.743369145262376
2.5580451390066234
3.013174869178092
2.743369145262376
2.2732033798217746
2.4669998210785384
2.2732033798217746
1.5627406429086497
3.1182285094864954
2.2732033798217746
0.3092389885349854
0.3092389885349854
0.3092389885349854
0.34430281820117253
0.31443017984621413
0.3092389885349854
-0.5419686087471592
-0.5419686087471592
-0.5419686087471592
-0.5419686087471592
-0.5419686087471592
-0.5419686087471592
-0.5419686087471592
-0.5419686087471592
0.3092389885349854
0.3092389885349854
0.3092389885349854
0.34430281820117253
0.31443017984621413
0.3092389885349854
-0.5419686087471592
-0.5419686087471592
-0.5419686087471592
-0.5419686087471592
-0.5419686087471592
-0.5419686087471592
-0.5419686087471592
-0.5419686087471592
0.25194371042576824
0.25194371042576824
0.25194371042576824
0.34427852583608737
0.11767686355064755
0.25194371042576824
-0.4104308397456576
-0.4104308397456576
-0.4104308397456576
-0.4104308397456576
-0.4104308397456576
-0.4104308397456576
-0.4104308397456576
-0.4104308397456576
0.3464102289248295
0.24799621777046627
0.3464102289248295
0.703657385141638
-0.07823358206223859
0.3464102289248295
-0.646570091137667
-0.6287660350925851
-0.6287660350925851
-0.6328656503591733
-0.6328656503591733
-0.6300946805035362
-0.6300946805035362
-0.6300946805035362
0.25194371042576824
0.25194371042576824
0.25194371042576824
0.34427852583608737
0.11767686355064755
0.25194371042576824
-0.4104308397456576
-0.4104308397456576
-0.4104308397456576
-0.4104308397456576
-0.4104308397456576
-0.4104308397456576
-0.4104308397456576
-0.4104308397456576
0.3464102289248287
0.24799621777046538
0.3464102289248287
0.703657385141637
-0.07823358206224014
0.3464102289248287
-0.6465700911376684
-0.6287660350925861
-0.6287660350925861
-0.6328656503591743
-0.6328656503591743
-0.6300946805035371
-0.6300946805035371
-0.6300946805035371
-0.1722123111298308
-0.1722123111298308
-0.1722123111298308
0.04570944004665174
-0.5888137981624163
-0.1722123111298308
0.4359037123568022
0.4359037123568022
0.4359037123568022
0.4359037123568022
0.4359037123568022
0.4359037123568022
0.4359037123568022
0.4359037123568022
0.3464102289248287
0.24799621777046538
0.3464102289248287
0.703657385141637
-0.07823358206224014
0.3464102289248287
-0.6465700911376684
-0.6287660350925861
-0.6287660350925861
-0.6328656503591743
-0.6328656503591743
-0.6300946805035371
-0.6300946805035371
-0.6300946805035371
0.3464102289248295
0.24799621777046627
0.3464102289248295
0.703657385141638
-0.07823358206223859
0.3464102289248295
-0.646570091137667
-0.6287660350925851
-0.6287660350925851
-0.6328656503591733
-0.6328656503591733
-0.6300946805035362
-0.6300946805035362
-0.6300946805035362
2.9084348326539877
2.9084348326539877
2.197972095740862
2.9084348326539877
4.884777039573643
2.9084348326539864
2.9084348326539864
2.1979720957408615
2.9084348326539864
4.884777039573643
4.2214351492766875
5.96831952008471
5.96831952008471
4.2214351492766875
5.96831952008471
5.96831952008471
2.869598787050148
5.523189951651145
5.523189951651145
5.523189951651145
2.869598787050149
5.523189951651147
5.523189951651147
5.523189951651147
6.434879833565739
6.434879833565739
6.434879833565739
6.434879833565739
