GIS
1
0.0
18
wednesday
september
atlanta
washington
dc
airport
denver
return
dinner
evening
cheapest
least
lowest
airlines
continental
class
coach
nonstop
14
2 0
3 0 1 2 3 4 5 6 7 8 9 10 11 12 13 14 15 16 17
2 1
2 2
3 3
2 4
5 5 6
3 7
2 8
2 9
3 10 11 12
2 13 14
5 15 16
2 17
38
w2=wednesday
w3=wednesday
w2=<s>
w3=<s>
w1=<s>
w2=september
w3=september
w2=atlanta
w3=atlanta
w3=washington
w2=washington
w1=washington
w3=dc
w2=dc
w2=airport
w3=airport
w1=denver
w2=denver
w3=denver
w1=return
w3=return
w2=return
w2=dinner
w3=dinner
w2=evening
w3=evening
w1=cheapest
w2=cheapest
w3=cheapest
w3=continental
w2=continental
w3=coach
w2=class
w1=coach
w3=class
w2=coach
w3=nonstop
w2=nonstop
6.458034839268571
6.488987991489863
-0.25822508251926546
-0.25822508251926535
-0.2582250825192658
0.2774532857157757
-0.2582250825192657
-0.07409346378931714
-0.07409346378931714
0.2774532857157757
-0.2582250825192658
-0.2582250825192662
0.32579526187363944
0.32579526187363944
0.32579526187363944
-0.2452065510845048
-0.2452065510845048
-0.07409346378931737
-0.07409346378931737
-0.25822508251926624
-0.17942968550667776
-0.17942968550667765
-0.179429685506678
0.3959809150697086
-0.17942968550667815
-0.606010371161008
-0.606010371161008
0.3959809150697082
-0.17942968550667823
-0.17942968550667843
0.5143187114986332
0.5143187114986332
0.5143187114986332
-0.1656413577222435
-0.1656413577222435
-0.6060103711610058
-0.6060103711610058
-0.17942968550667748
0.0021055494769860027
0.002105549476986001
0.0021055494769864065
0.10730664747958608
0.002105549476986187
-0.1965536550982003
-0.1965536550982003
0.10730664747958525
0.002105549476986155
0.0021055494769861927
0.12572513711377142
0.12572513711377142
0.12572513711377142
0.014087012207935106
0.014087012207935106
-0.19655365509820155
-0.19655365509820155
0.002105549476986004
6.458034839268571
6.488987991489863
6.458034839268571
6.4889879914898625
5.235398205550292
5.780619761707227
2.583220702623552
6.4889879914898625
6.458034839268571
3.417176799198799
3.417176799198799
3.2284995315172993
3.2284995315172993
3.417176799198799
3.417176799198799
3.2284995315172993
3.2284995315172993
5.7921730318153495
5.7921730318153495
2.5832207026235525
5.235398205550294
5.780619761707229
6.458034839268572
6.4889879914898625
6.458034839268572
6.488987991489862
2.1783379075480216
2.1783379075480216
2.1783379075480216
4.384719761320118
4.384719761320118
4.384719761320118
4.0269731259380395
4.0269731259380395
4.0269731259380395
5.741729172941575
5.741729172941575
5.709371712400687
5.709371712400687
5.79217303181535
5.79217303181535
3.417176799198798
3.417176799198798
3.417176799198798
3.417176799198798
3.2284995315173015
3.2284995315173015
3.2284995315173015
3.2284995315173015
6.4889879914898625
6.458034839268571
