GIS
1
0.0
5
Thai
Sushi
Indian
Asian
none
11
6 0
2 0 1
2 0 1 2
2 0 1 2 3 4
2 0 4
6 1
2 1 4
5 2
6 2 3
5 3
22 4
60
w2=some
w1=would
w1=thai
w1=some
w2=would
w2=thai
w2=i
w1=i
w2=food
w1=food
w2=<s>
w1=<s>
w1=like
w2=like
w2=sushi
w2=where
w2=can
w1=can
w1=sushi
w1=where
w1=find
w2=find
w2=indian
w1=indian
w1=west
w2=west
West
w1=which
w1=do
w2=which
w2=do
w1=restaurants
w2=restaurants
w1=asian
w2=east
East
w1=east
w2=asian
w2=is
w1=what
w2=tapas
w2=does
w1=me
w2=weather
w2=a
w2=what
w2=today
w1=place
w2=me
w1=that
w2=that
w2=the
w1=the
w2=place
w1=today
w1=weather
w1=a
w1=is
w1=does
w1=tapas
3.9989413769642765
3.9989413769642765
4.570993474977414
2.787759611751499
4.5787487923689385
2.787759611751499
3.9251792448776275
2.2228140866966553
2.430539336553034
3.612340003559218
1.663299159891093
2.5382697000703893
0.6141883481953989
3.243369441331322
1.2474478350394749
1.9712130635378218
0.6370545736045867
-0.688897559407183
-0.13497506774722193
-0.7866836617702673
0.5890408423807973
0.642208289462105
-1.4532624532650735
-0.6659139161838045
-0.5512302611060507
1.1619088141053058
1.866127481759654
1.8661274817596538
1.866127481759654
1.8661274817596538
5.434280816524009
6.248968037008613
2.787759611751499
4.996710989946773
5.538132133721505
2.787759611751499
3.149577979255799
1.9948206179732617
2.9356836725536812
3.466178424519149
1.5299084930972733
2.735271104259179
1.5299084930972733
1.9577031335995647
4.031189633331092
1.2830813196670376
1.4400860490683218
1.0652100038978274
1.2125418804510446
2.604717458755824
2.8249249123436706
1.2830813196670374
1.4400860490683218
1.2830813196670374
1.4400860490683218
1.2830813196670376
1.4400860490683218
3.155007544443445
2.0674803226980187
3.3686907209254944
1.6287216510856
1.6287216510856
2.7877596117514964
2.7877596117514964
2.7877596117514964
2.7877596117514964
2.7877596117514964
2.7877596117514964
2.7877596117514964
3.7595521207775047
3.998941376964274
2.7877596117514964
4.611431838262255
2.7877596117514964
2.7877596117514964
2.7877596117514964
2.7877596117514964
2.7877596117514964
4.234378291398762
3.998941376964274
2.7877596117514964
2.7877596117514964
2.7877596117514964
4.234378291398762
