GIS
1
0.0
255
c
downtown
mckeesport
duquesne
sunday
forbes_and_braddock
next
squirrel_hill
forbes_and_murray
eba
saturday
eighth_avenue
south_craig_and_forbes_avenue
allegheny_county_airport
homestead
tomorrow
oakland
pine
am
waterfront
south_millvale
herron
pittsburgh
ross
a
twenty_second_and_carson
south_side
mount_oliver
carson_street
carson
pm
downtown_pittsburgh
b
bloomfield
bell_and_jones
wall
second_and_grant
wilkinsburg
regent_square
x
the_airport
airport
strip
east_pittsburgh
swissvale
braddock
eighteenth_street
fourth_and_hawkins
north_braddock
kennywood
thirty_sixth_street
park_manor_boulevard
reserve
west_penn_hospital
lawrenceville
d
bridgeville
carnegie
mckeesport_transportation_center
kennywood_park
south_hills_junction
noble_at_washington
noble_and_washington
dynamo_way
eighth_and_ann
waterworks
fifth_avenue
the_waterfront
forbes_at_murray
forbes
stowe
fifth_and_atwood
fifth_at_atwood
murray_and_hazelwood
liberty
greenfield
murray
polish_hill
shadyside
hampton_township
mckees_rocks
bus_station
smithfield_street_and_fifth_avenue
mckee
u
carson_and_eighteenth
mercy_hospital
braddock_avenue
penn_and_butler
new_kensington
smithfield
north_side
brighton_road
forest_hills
centre_avenue
centre_and_craig
centre_at_craig
forbes_and_mckee
cmu
transportation_center
east_ohio_and_chestnut
east_ohio_at_chestnut
pittsburgh_airport
dynamo
the_north_side
bennett
murray_avenue_at_hazelwood
murray_avenue_and_hazelwood
turtle_creek
squirrel
steuben_street
fifth_and_craft
murray_avenue
f
robinson
the_mall_at_robinson
ikea
fifth_and_mckee
main
kennywood_boulevard_at_hoffman
greenfield_at_lydia
greenfield_and_lydia
the_south_side
duquesne_university
bessemer
elm_street
highland_park
chesterfield_and_fifth
chesterfield_at_fifth
today
beechwood_boulevard
kennywood_boulevard
north_shore
leave
hays
edgewood
forbes_and_wood
strip_district
hawkins_and_fourth
murray_and_hobart
avalon
avenue
north
phillips_and_murray
east_ohio
noble_street
eighth_and_andrew
robinson_township
seventh_and_smithfield
east_mckeesport
moon
bridge
atwood_street
eighteenth
dormont
atwood_and_fifth
duquesne_boulevard
east_carson_and_eighteenth_street
ella_and_liberty
eighth
fifth_and_bigelow
south_millvale_and_liberty
liberty_and_pearl
swissvale_station
knox_avenue
atwood
ikea_robinson_township
k
jones_and_bell_avenue
north_avenue
woodstock
hawkins
east_carson_street
magee_womens_hospital
west_mifflin
sheraden
south_braddock_avenue
woodstock_and_south_braddock_avenue
mckeesport_transporation_center
east_liberty
brownsville_road
munhall
monroeville_mall
sheraden_station
pitt
magee
moon_township
center
crafton
kelly_and_pitt
twenty_eighth
liberty_at_millvale
liberty_and_millvale
twenty_second_and_east_carson
twenty_second_at_east_carson
south_eighteenth_and_arlington
east_carson
arlington_avenue
monday
penn_avenue
shady_avenue
perrysville
warrington_avenue
warrington
allentown
fifth_avenue_and_shady
shadyside_hospital
twentieth
shadyside_hospital_center
west_penn
harmar
craft_avenue
beltzhoover_at_warrington
north_avenue_at_cedar
swisshelm_park
gateway_center
hilton
giant_eagle
walnut_and_negley
walnut
carnegie_mellon_university
forbes_and_atwood
rankin
murray_at_forbes_avenue
arrive
negley_and_centre
forbes_and_bellefield
centre_and_millvale
woodstock_avenue
coal_at_walnut
coal_street_and_walnut
coal_street
carrick
ohara
talbot_and_sixth
morewood
e
j
federal_and_north
forbes_avenue
edgewood_town_center
second_at_grant_street
second_and_grant_street
eighth_avenue_and_homestead
bell
forbes_and_craig
fifth
western_at_center
scott
centre
pittsburgh_international_airport
fourth_avenue
fifth_and_wood
atwood_street_and_fifth_avenue
smithfield_street
308
127 0
3 0 1
3 0 1 2 3 4 5 6 7 8 9 10 11 12 13 14 15 16 17 18 19 20 21 22 23 24 25 26 27 28 29 30 31 32 33 34 35 36 37 38 39 40 41 42 43 44 45 46 47 48 49 50 51 52 53 54 55 56 57 58 59 60 61 62 63 64 65 66 67 68 69 70 71 72 73 74 75 76 77 78 79 80 81 82 83 84 85 86 87 88 89 90 91 92 93 94 95 96 97 98 99 100 101 102 103 104 105 106 107 108 109 110 111 112 113 114 115 116 117 118 119 120 121 122 123 124 125 126 127 128 129 130 131 132 133 134 135 136 137 138 139 140 141 142 143 144 145 146 147 148 149 150 151 152 153 154 155 156 157 158 159 160 161 162 163 164 165 166 167 168 169 170 171 172 173 174 175 176 177 178 179 180 181 182 183 184 185 186 187 188 189 190 191 192 193 194 195 196 197 198 199 200 201 202 203 204 205 206 207 208 209 210 211 212 213 214 215 216 217 218 219 220 221 222 223 224 225 226 227 228 229 230 231 232 233 234 235 236 237 238 239 240 241 242 243 244 245 246 247 248 249 250 251 252 253 254
2 0 1 2 3 5 6 7 8 14 15 16 17 18 22 24 26 30 31 32 33 36 37 41 43 44 45 46 49 52 53 55 57 58 60 65 67 69 70 74 78 83 84 85 87 93 98 99 102 108 117 127 133 134 135 140 142 149 150 159 169 170 173 176 181 185 186 187 194 205 207 208 210 224 233 244 248
1 0 1 2 3 5 6 7 8 14 15 16 17 18 22 24 26 30 31 32 33 36 37 41 43 44 45 46 49 52 53 55 58 60 65 67 69 74 78 85 87 93 99 102 108 117 127 133 134 135 140 142 149 150 159 169 176 185 194 207 210
2 0 1 2 3 6 7 8 9 14 16 18 19 24 26 28 30 32 33 37 39 43 44 48 53 55 58 59 60 65 73 74 83 93 99 117 134 135 149 150 159 167 170 177 182 186 187 193 194 210 237
1 0 1 2 3 6 7 9 14 16 18 19 24 28 30 32 33 37 39 43 44 48 53 55 58 59 60 65 73 74 83 93 99 117 134 135 149 167 170 182 186 187 193 210 237
2 0 1 2 3 6 7 14 16 19 24 30 31 32 37 39 43 44 45 49 58 65 85 98 108 117 127 159 167 173 176 208 224 251
1 0 1 2 3 6 7 14 16 19 24 30 31 32 37 39 43 44 45 49 58 65 85 98 117 127 159 167 173 208 224 251
2 0 1 2 3 6 7 14 16 19 24 30 31 32 39 41 43 44 45 55 57 60 63 65 67 69 70 78 84 85 102 103 111 113 114 117 127 129 131 133 140 142 156 165 167 185 205 233 248
1 0 1 2 3 6 7 14 16 19 24 30 31 32 39 41 43 44 45 55 57 60 63 65 67 70 78 84 85 102 103 113 114 117 127 129 131 133 142 156 165 167 205 233 248
2 0 1 2 3 6 14 16 18 24 31 32 39 41 43 58 67 118 130 133 179 184 199 206 207
1 0 1 2 3 6 14 16 18 24 31 32 39 41 43 58 67 133 206
2 0 1 2 3 6 14 16 19 21 22 23 24 32 35 41 44 45 48 50 52 55 58 60 88 134 136 142 172 174 201 236 237 247
1 0 1 2 3 6 14 16 22 24 32 35 41 44 45 48 52 55 58 60 88 134 236
3 0 1 2 3 15 24 32 39 74 134 167
3 0 1 2 6 8 9 16 22 24 32 36 43 55 69 143 158 167 203 218 234 241 242
3 0 1 2 7 10 15 16 19 24 32 37 39 80 84 105 108 131 158 163 175 244
3 0 1 2 15 84
3 0 1 2 16 24 32 39 84 87 131 158 241 242 244
1 0 1 2 19
2 0 1 2 19 105
2 0 1 2 22 24 32 38 39 80 90 175 241 242
1 0 1 2 22 24 32 38 39 90 175 241 242
3 0 1 2 24 31 32 39
3 0 1 6 7 19 39 43 55 79 147 148 158 162 179
2 0 1 6 14 31 32 41 67 88 105 112 114 134 222
1 0 1 6 14 31 32 41 67 105 112
2 0 1 6 16 24 30 32 41 43 51 52 55 129 141 181 246
1 0 1 6 16 24 30 32 41 43 51 55 129 141 181
3 0 1 14 24 32 36 46 87 243
1 0 1 14 24 32 39 83 94 102 129
2 0 1 14 24 32 39 83 94 102 129 131
3 0 1 14 243
3 0 1 15 24 31 39 43 66 106 107 112 158
3 0 1 24 32 39
3 0 2 3 36
3 0 2 15 18 24 30 115 129
1 0 2 15 49 55 105
2 0 2 15 49 55 105 241 242
1 0 2 16 24 84
2 0 2 16 24 84 86
3 0 2 17 18 24 52 84 88 105 133
2 0 2 17 18 133
1 0 2 18 133
3 0 3 22 24 32 74 134
6 0 4
3 0 4 6 9 15 24 32 39 40 41 55 67 84 102 104 113 115 122 148 163 241 242
3 0 4 6 10 24 32 39
3 0 4 6 24 32 39 55 84 113
3 0 4 9 24 32 39
3 0 4 15
3 0 4 15 24 32 39 113
3 0 4 24 32 39 84 113
3 0 5 6 8 32 181
3 0 6 9 10 15 24 32 39 84 169
3 0 6 9 10 15 24 39
3 0 6 32
3 0 7 24
3 0 8 32 68
3 0 9 10 15 24 39 84 129
3 0 10 15 24 39
3 0 10 15 24 39 84 148
1 0 10 24 32 39
2 0 10 24 32 39 169
6 0 10 39
18 0 15
3 0 15 24 32 39
3 0 15 24 32 39 84
3 0 15 24 39 66 246
3 0 15 55 113
3 0 16 24
3 0 19 67 108
3 0 22 24 32 102
33 0 24
3 0 24 32
3 0 24 32 39
3 0 24 32 39 84
3 0 24 39
3 0 24 39 84
9 0 24 84
3 0 24 87
3 0 24 158
3 0 26 28 122
3 0 27
6 0 32
3 0 32 55
3 0 32 66
3 0 32 173
3 0 33
3 0 36
3 0 39
3 0 46
3 0 49
3 0 54
6 0 55
3 0 55 113
1 0 58
2 0 58 178
3 0 60
3 0 64
3 0 75
3 0 83
3 0 84
3 0 91 104
3 0 131
3 0 156
3 0 169
3 0 174
3 0 175
2 0 206
3 0 241 242
3 0 246
6 1
3 2
3 2 18
3 3
12 4
3 4 15 18
3 5
12 6
3 6 22 24 32
3 7 24
3 7 24 37
3 9
15 10
3 10 39 148
3 11 14 243
2 12
2 13
9 14
9 15
3 16 199
39 18
6 20
61 24
3 24 43
3 24 44 87
3 24 48
1 24 63
2 24 63 103
3 24 170
2 24 189
2 24 198
5 25
3 28 29
2 29
33 30
3 31 39 90
18 32
3 32 39
3 32 45 163
2 32 87 244
1 32 244
3 33
2 34
3 37
3 38
18 39
3 39 40 41
3 39 51
3 39 102
3 39 148
2 42
3 43
9 44
2 47
6 51
3 52
3 53
3 55
2 56
3 59
3 59 127
3 61
2 61 62
3 65
3 69
1 71
2 71 72
2 73
2 74
2 76
3 77
3 78
2 79
3 80
2 81
3 82
6 84
3 85
3 86
3 87
6 88 105
2 89
2 92
2 93
3 94
2 95 96
2 97
2 99
2 100 101
6 102
2 106 107
1 107
3 108
2 109
3 110
3 111
3 112
3 113
3 114 115
3 115
3 116
3 117
5 119
2 120 121
3 123
3 124
3 125
2 126
1 127
2 127 128
9 129
2 132
3 134
3 135
3 137
3 138
3 139
3 140
2 141
3 143
2 144
2 145
2 146
5 147
2 151
3 152
3 153
2 154
3 155
2 157
2 158
3 159
3 160
3 161
2 162
3 163
2 164
3 165
2 166
6 167
2 168
2 171
3 176
3 177
3 179
2 180
2 182
2 183
3 186
2 188
2 190
2 191 192
2 193
2 195
2 196
2 197
2 200
2 202
2 203
2 204
3 206
3 209
3 211
2 212
2 213
2 214
2 215
3 216
2 217
3 218
2 219
2 220
2 221
2 223
2 225
2 226
2 227
2 228
2 229
2 230
2 231
2 232
3 234
3 235
2 236
2 238
3 239
2 240
2 245
2 249
3 250
2 251
2 252
2 253
2 254
1203
w3=home
w2=mean
w2=lea
w3=bring
w1=times
w3=normally
w2=could
w2=mathiasandquarryp
w1=picking
w3=lea
w1=thats
w1=catch
w3=over
w1=grantandsecondstreetp
w3=could
w2=grantandsecondstreetp
w1=fifth
w1=mean
w2=kennywoodmallp
w1=normally
w3=tonightt
w2=last
w2=bring
w1=arrive
w1=twothirtyt
w1=smithfieldfifthavenuep
w2=mckeep
w3=mean
w1=duque
w1=dude
w3=about
w3=excuse
w3=runs
w2=have
w1=pennandmainp
w3=this
w1=be
w1=southsideworksp
w1=hoffmanboulevardp
w1=have
w2=tenoclockt
w2=dude
w2=hoffmanboulevardp
w3=if
w3=be
w2=t
w3=smithfieldfifthavenuep
w2=about
w3=westmifflinestatesp
w2=southsideworksp
w1=lea
w3=twothirtyt
w3=arrive
w3=hoffmanboulevardp
w1=last
w1=about
w1=trying
w1=if
w1=excuse
w2=normally
w2=twothirtyt
w2=eveninghourst
w1=this
w2=will
w3=trying
w3=fifth
w1=mathiasandquarryp
w1=mac
w2=leav
w1=runs
w2=runs
w2=duque
w1=mckeep
w1=leav
w2=mac
w3=dude
w2=tonightt
w3=times
w1=sir
w1=will
w3=pennandmainp
w3=thats
w3=southsideworksp
w1=kennywoodmallp
w2=this
w2=pennandmainp
w3=duque
w2=picking
w3=kennywoodmallp
w3=mac
w2=fifth
w3=leav
w3=mathiasandquarryp
w1=bring
w1=tenoclockt
w3=will
w1=over
w3=grantandsecondstreetp
w3=picking
w3=mckeep
w2=be
w2=westmifflinestatesp
w1=home
w1=get
w2=catch
w2=thats
w3=last
w1=could
w2=times
w2=trying
w2=smithfieldfifthavenuep
w2=arrive
w2=get
w2=home
w2=excuse
w2=over
w2=if
w1=westmifflinestatesp
w3=t
w1=tonightt
w3=get
w3=catch
w1=eveninghourst
w3=have
w3=eveninghourst
w3=tenoclockt
w1=t
w2=d
w3=d
w1=d
w1=<s>
w2=<s>
w3=<s>
w2=yes
w3=yes
w1=yes
w2=background
w3=background
w1=background
w3=feed
w2=feed
w1=feed
w3=noise
w2=noise
w1=noise
w2=correct
w3=correct
w1=correct
w2=yeah
w3=yeah
w1=yeah
w2=from
w1=from
w3=from
w3=no
w1=no
w2=no
w1=to
w3=to
w2=to
w3=go
w1=go
w2=go
w3=going
w2=going
w1=going
w1=mckeesportp
w3=mckeesportp
w2=mckeesportp
w2=downtownp
w3=downtownp
w1=downtownp
w3=downtownpittsburghp
w2=downtownpittsburghp
w1=downtownpittsburghp
w1=uh
w3=uh
w2=uh
w2=right
w3=right
w1=right
w3=mumble
w2=mumble
w1=mumble
w3=in
w1=in
w2=in
w1=cutin
w3=cutin
w2=cutin
w1=homesteadp
w2=homesteadp
w3=homesteadp
w1=um
w3=um
w2=um
w1=leave
w2=leave
w3=leave
w3=duquesnep
w2=duquesnep
w1=duquesnep
w1=at
w3=at
w2=at
w1=cb
w3=cb
w2=cb
w1=oaklandp
w2=oaklandp
w3=oaklandp
w2=you
w3=you
w1=you
w3=did
w2=did
w1=did
w2=leaving
w1=leaving
w3=leaving
w2=sundayt
w3=fourthofjulyt
w1=fourthofjulyt
w2=fourthofjulyt
w3=sundayt
w1=sundayt
w1=the
w2=the
w3=the
w3=bus
w1=bus
w2=bus
w1=next
w2=next
w3=next
w3=on
w1=on
w2=on
w1=after
w3=after
w2=after
w1=when
w2=when
w3=when
w3=is
w1=is
w2=is
w3=dtmf
w2=dtmf
w1=dtmf
w2=i
w3=i
w1=i
w2=like
w1=like
w3=like
w2=want
w1=want
w3=want
w1=coming
w2=coming
w3=coming
w3=forbesandmurrayp
w1=forbesandmurrayp
w2=forbesandmurrayp
w2=schedule
w3=schedule
w1=schedule
w3=would
w2=would
w1=would
w1=for
w2=for
w3=for
w1=know
w3=know
w2=know
w2=first
w3=first
w2=a
w1=first
w3=a
w1=a
w2=holiday
w2=during
w1=fireworks
w1=tomorrowt
w2=fireworks
w3=before
w2=julyfourtht
w1=before
w3=tomorrowt
w1=julyfourtht
w3=holiday
w3=fireworks
w2=tomorrowt
w2=before
w1=holiday
w1=during
w3=julyfourtht
w3=during
w2=does
w1=does
w3=does
w1=what
w2=what
w3=what
w2=and
w3=and
w1=and
w3=or
w1=or
w2=or
w1=up
w3=up
w2=up
w3=waterfrontp
w1=waterfrontp
w2=waterfrontp
w3=pittsburghp
w2=pittsburghp
w1=pittsburghp
w1=around
w2=scheduling
w2=outbound
w3=looking
w1=do
w1=looking
w3=around
w2=running
w3=id
w2=b
w1=id
w2=l
w1=scheduling
w2=pick
w3=do
w2=due
w2=looking
w1=outbound
w3=due
w3=pick
w3=running
w3=scheduling
w1=pick
w2=around
w1=running
w2=id
w3=b
w3=l
w2=do
w3=outbound
w1=due
w1=l
w1=b
w3=come
w1=come
w2=come
w3=comes
w2=comes
w1=comes
w1=time
w2=time
w3=time
w1=route
w2=route
w3=route
w2=need
w3=need
w1=need
w2=tell
w3=me
w1=tell
w3=tell
w1=can
w1=me
w2=me
w2=can
w3=can
w2=towards
w3=towards
w1=towards
w3=im
w1=im
w2=im
w1=southsidep
w2=southsidep
w3=southsidep
w3=mountoliverp
w1=mountoliverp
w2=mountoliverp
w1=wanna
w1=leaves
w2=leaves
w3=wanna
w3=leaves
w2=wanna
w3=sixty
w2=sixty
w1=sixty
w2=fifthavenuep
w1=fifthavenuep
w3=fifthavenuep
w1=mageewomenshospitalp
w3=mageewomenshospitalp
w2=mageewomenshospitalp
w1=yup
w2=yup
w3=yup
w2=secondandgrantp
w1=secondandgrantp
w3=secondandgrantp
w2=where
w1=where
w3=where
w1=eighteenthstreetp
w3=eighteenthstreetp
w2=eighteenthstreetp
w2=kennywoodp
w3=kennywoodp
w1=kennywoodp
w1=lawrencevillep
w2=lawrencevillep
w3=lawrencevillep
w1=db
w2=o
w3=db
w3=o
w2=db
w1=o
w3=whens
w2=whens
w1=whens
w1=mckeesporttransportationcenterp
w2=mckeesporttransportationcenterp
w3=mckeesporttransportationcenterp
w2=southhillsjunctionp
w3=southhillsjunctionp
w1=southhillsjunctionp
w2=eighthandannp
w3=eighthandannp
w1=eighthandannp
w3=greenfieldp
w1=greenfieldp
w2=greenfieldp
w3=mckee
w2=mckee
w1=mckee
w1=information
w2=information
w3=information
w3=northsidep
w1=northsidep
w2=northsidep
w2=kennywoodboulevardp
w3=kennywoodboulevardp
w1=kennywoodboulevardp
w1=duquesneboulevardp
w2=duquesneboulevardp
w3=duquesneboulevardp
w2=dont
w1=dont
w3=dont
w3=westmifflinp
w2=westmifflinp
w1=westmifflinp
w2=sheradenp
w1=sheradenp
w3=sheradenp
w2=sir
w3=sir
w2=secondandgrantstreetp
w3=secondandgrantstreetp
w1=secondandgrantstreetp
w2=fifthp
w1=fifthp
w3=fifthp
w1=as
w3=as
w1=dog
w2=dog
w3=dog
w2=as
w3=fivethirtyt
w2=fivethirtyt
w1=fivethirtyt
w2=oneamt
w1=oneamt
w3=oneamt
w1=duquesnepap
w3=duquesnepap
w2=duquesnepap
w2=twelvet
w2=midnightt
w1=fiveoclockt
w1=clock
w2=fiveoclockt
w3=clock
w1=midnightt
w2=clock
w3=midnightt
w3=twelvet
w1=twelvet
w3=fiveoclockt
w2=tenamt
w1=tenamt
w3=tenamt
w3=forbesandbraddockp
w2=forbesandbraddockp
w1=forbesandbraddockp
w3=lg
w3=rightnowt
w2=rightnowt
w1=lg
w2=nowt
w3=one
w3=nowt
w1=rightnowt
w1=nowt
w1=one
w2=lg
w2=one
w1=bb
w3=bb
w2=bb
w1=squirrelhillp
w2=squirrelhillp
w3=squirrelhillp
w3=wilkinsburgp
w1=wilkinsburgp
w2=wilkinsburgp
w3=ebab
w2=ebab
w1=ebab
w2=morningt
w2=saturdaymorningt
w2=service
w1=service
w1=morningt
w1=saturdayt
w2=sevenelevent
w3=service
w1=saturdaymorningt
w3=sevenelevent
w3=morningt
w2=saturdayt
w1=sevenelevent
w3=saturdaymorningt
w3=saturdayt
w3=xb
w1=xb
w2=xb
w3=eighthavenuep
w2=eighthavenuep
w1=eighthavenuep
w2=southcraigandforbesavenuep
w3=southcraigandforbesavenuep
w2=alleghenycountyairportp
w3=alleghenycountyairportp
w1=wa
w3=wa
w1=click
w2=p
w3=click
w2=click
w2=wa
w3=p
w1=p
w1=tomorrowmorningt
w3=tomorrowmorningt
w2=cmup
w2=tomorrowmorningt
w3=cmup
w3=childrenshospitalp
w1=cmup
w1=childrenshospitalp
w2=childrenshospitalp
w1=pennavenuep
w3=pennavenuep
w2=pennavenuep
w2=nineamt
w1=twelveamt
w2=amt
w1=sevenamt
w3=nineoclockamt
w3=sixamt
w2=nineoclockamt
w3=amt
w2=eightamt
w3=twoamt
w3=fiveoclockamt
w2=fiveoclockamt
w2=twoamt
w2=threeamt
w2=fiveamt
w1=sixamt
w3=nineamt
w1=amt
w3=sevenamt
w1=eightamt
w2=fouramt
w2=sevenamt
w3=sixoclockamt
w2=sixoclockamt
w3=twelveamt
w1=nineamt
w1=threeamt
w2=twelveamt
w1=fiveoclockamt
w1=sixoclockamt
w3=fouramt
w3=threeamt
w1=fiveamt
w1=nineoclockamt
w1=fouramt
w3=fiveamt
w2=sixamt
w3=eightamt
w1=twoamt
w2=southmillvaleavenuep
w1=southmillvalep
w1=southmillvaleavenuep
w2=southmillvalep
w3=southmillvaleavenuep
w3=southmillvalep
w3=stupidc
w3=warringtonavenueandallenp
w1=walmartp
w2=regular
w1=so
w1=its
w3=eightoclockt
w2=warringtonavenueandallenp
w2=heading
w2=eightoclockt
w2=its
w3=so
w3=kellyp
w2=seventhirtyt
w3=seventhirtyt
w3=regular
w3=walmartp
w1=warringtonavenueandallenp
w1=ab
w1=not
w2=not
w2=butlerstreetp
w3=ab
w1=kellyandpittp
w3=find
w2=stop
w3=not
w2=so
w2=pittp
w2=kellyp
w2=fifthandmarketstreetp
w1=heading
w1=six
w2=stupidc
w3=pittp
w3=stop
w2=six
w1=stop
w1=fifthandmarketstreetp
w1=stupidc
w3=six
w2=walmartp
w1=regular
w2=ab
w3=heading
w3=its
w2=find
w1=pittp
w1=out
w1=kellyp
w1=eightoclockt
w1=seventhirtyt
w1=mondayt
w2=out
w1=sorry
w1=find
w3=butlerstreetp
w3=out
w3=fifthandmarketstreetp
w2=sorry
w3=sorry
w1=eastpittsburghp
w2=eastpittsburghp
w3=eastpittsburghp
w1=swissvalep
w3=swissvalep
w2=swissvalep
w3=northbraddockp
w2=northbraddockp
w1=northbraddockp
w1=dynamowayp
w3=dynamowayp
w2=dynamowayp
w1=woodstockp
w3=woodstockp
w2=woodstockp
w3=kellyandpittp
w2=kellyandpittp
w2=mondayt
w3=mondayt
w3=twentysecondcarsonp
w1=twentysecondandcarsonp
w2=twentysecondcarsonp
w3=twentysecondandcarsonp
w2=twentysecondandcarsonp
w1=carsonstreetp
w3=carsonstreetp
w2=carsonstreetp
w2=carsonp
w3=carsonp
w2=tenpmt
w1=sevenpmt
w1=twelvepmt
w2=pmt
w2=ninepmt
w3=sixpmt
w3=pmt
w3=twopmt
w3=sevenpmt
w2=threepmt
w2=twopmt
w1=tenpmt
w3=ninepmt
w2=fivepmt
w1=sixpmt
w1=pmt
w1=tenoclockpmt
w2=elevenpmt
w2=tenoclockpmt
w2=sevenpmt
w3=tenpmt
w1=threepmt
w3=tenoclockpmt
w1=ninepmt
w3=twelvepmt
w2=twelvepmt
w1=elevenpmt
w1=fivepmt
w3=elevenpmt
w3=threepmt
w2=sixpmt
w1=twopmt
w3=fivepmt
w2=smithfieldp
w3=smithfieldp
w1=smithfieldp
w2=brightonp
w1=swiss
w3=le
w2=town
w3=brightonp
w1=brightonp
w1=le
w1=town
w2=said
w1=fri
w3=swiss
w3=said
w2=fri
w1=said
w3=fri
w2=swiss
w3=town
w2=le
w3=it
w1=it
w2=it
w2=braddockp
w1=braddockp
w3=braddockp
w2=townp
w3=townp
w1=townp
w2=bloomfieldp
w1=bloomfieldp
w3=bloomfieldp
w2=bellandjonesp
w3=bellandjonesp
w3=wilkinsburgbuswayp
w1=wilkinsburgbuswayp
w2=wilkinsburgbuswayp
w2=regentsquarep
w1=regentsquarep
w3=regentsquarep
w2=flyer
w3=seventhp
w1=sa
w3=sa
w3=smith
w2=seventhavenuep
w3=seventhavenuep
w2=hiltonhotelp
w2=sa
w1=seventhavenuep
w2=smith
w2=seventhp
w1=smith
w3=hiltonhotelp
w3=flyer
w1=flyer
w1=hiltonhotelp
w1=seventhp
w2=airportp
w1=airportp
w3=airportp
w1=parkmanorp
w3=parkmanorp
w2=parkmanorp
w3=pittsburghairportp
w1=pittsburghairportp
w2=pittsburghairportp
w2=seventhandsmithfieldp
w3=seventhandsmithfieldp
w1=seventhandsmithfieldp
w2=stripp
w3=stripp
w1=huh
w2=huh
w3=huh
w1=swissvalebuswayp
w2=dumbestc
w1=fuckc
w2=swissvalebuswayp
w3=fuckc
w3=dumbestc
w1=dumbestc
w3=swissvalebuswayp
w2=fuckc
w3=fourthandhawkinsp
w2=fourthandhawkinsp
w2=parkmanorboulevardp
w3=parkmanorboulevardp
w1=parkmanorboulevardp
w1=boulevard
w2=boulevard
w3=boulevard
w1=suckc
w3=suckc
w2=suckc
w2=westpennhospitalp
w3=westpennhospitalp
w1=westpennhospitalp
w2=churchviewp
w3=churchviewp
w1=churchviewp
w3=bridgevillep
w2=bridgevillep
w3=kennywoodparkp
w2=kennywoodparkp
w1=kennywoodparkp
w1=cg
w3=cg
w2=cg
w2=noblewashingtonp
w1=nobleandwashingtonp
w3=noblewashingtonp
w3=nobleandwashingtonp
w2=nobleandwashingtonp
w3=waterworksp
w2=waterworksp
w1=waterworksp
w2=forbesp
w3=forbesp
w1=forbesp
w1=fifthandatwoodp
w2=fifthandatwoodp
w3=fifthandatwoodp
w2=murrayandhazelwoodp
w3=murrayandhazelwoodp
w3=libertyp
w2=libertyp
w3=murrayp
w2=murrayp
w2=polishhillp
w3=polishhillp
w1=polishhillp
w1=shadysidep
w2=shadysidep
w3=shadysidep
w2=hamptontownshipp
w3=hamptontownshipp
w1=mckeesrocksp
w3=mckeesrocksp
w2=mckeesrocksp
w3=busstationp
w2=busstationp
w2=smithfieldstreetandfifthavenuep
w1=smithfieldstreetandfifthavenuep
w3=smithfieldstreetandfifthavenuep
w1=ub
w3=ub
w1=hazelwoodp
w3=hazelwoodp
w2=ub
w2=hazelwoodp
w1=carsonandeighteenthp
w2=carsonandeighteenthp
w3=carsonandeighteenthp
w2=mercyhospitalp
w1=mercyhospitalp
w3=mercyhospitalp
w1=braddockavenuep
w3=braddockavenuep
w2=braddockavenuep
w1=got
w2=got
w3=that
w3=got
w2=that
w1=that
w3=newkensingtonp
w2=newkensingtonp
w2=brightonroadp
w3=brightonroadp
w3=foresthillsp
w2=foresthillsp
w1=centreaven
w3=centreaven
w2=centreaven
w2=centreatcraigp
w3=centreatcraigp
w3=forbesandmckeeplacep
w2=forbesandmckeeplacep
w2=transportationcenterp
w3=transportationcenterp
w3=eastohioatchestnutp
w2=eastohioatchestnutp
w2=interna
w3=interna
w2=f
w1=interna
w3=f
w1=f
w2=murrayavenueandhazelwoodp
w3=murrayavenueandhazelwoodp
w1=murrayavenueandhazelwoodp
w1=turtlecreekp
w2=turtlecreekp
w3=turtlecreekp
w2=squirrel
w3=squirrel
w1=steubenstreetp
w3=steubenstreetp
w2=steubenstreetp
w2=fifthandcraftp
w3=fifthandcraftp
w1=fifthandcraftp
w3=murrayavenuep
w1=murrayavenuep
w2=murrayavenuep
w1=fb
w3=fb
w2=fb
w3=robinsonp
w2=robinsonp
w1=robinsonp
w3=mall
w2=mall
w1=mall
w1=ikeap
w2=ikeap
w3=ikeap
w3=fifthandmckeep
w1=fifthandmckeep
w2=fifthandmckeep
w3=hoffmanboulevardandkennywoodboulevardp
w2=hoffmanboulevardandkennywoodboulevardp
w2=hoffmanandkennywoodboulevardp
w3=hoffmanandkennywoodboulevardp
w1=hoffmanboulevardandkennywoodboulevardp
w2=greenfieldandlydiap
w3=greenfieldandlydiap
w2=duquesneuniversityp
w3=duquesneuniversityp
w1=duquesneuniversityp
w2=bessemerp
w1=bessemerp
w3=bessemerp
w2=elmstreetp
w3=elmstreetp
w1=elmstreetp
w2=highlandparkp
w3=highlandparkp
w1=chesterfieldandfifthp
w2=chesterfieldandfifthp
w3=chesterfieldandfifthp
w2=tent
w2=todayt
w3=tent
w1=tent
w2=fif
w3=fif
w1=todayt
w3=todayt
w1=fif
w3=northshorep
w2=northshorep
w2=millvalep
w1=millvalep
w3=millvalep
w2=edgewoodp
w1=edgewoodp
w3=edgewoodp
w3=stripdistrictp
w2=stripdistrictp
w1=stripdistrictp
w3=hawkinsandfourthp
w1=hawkinsandfourthp
w2=hawkinsandfourthp
w3=murrayandhobartp
w1=murrayandhobartp
w2=murrayandhobartp
w1=avalonp
w3=avalonp
w2=avalonp
w3=avenue
w2=avenue
w3=phillipsandmurrayp
w1=phillipsandmurrayp
w2=phillipsandmurrayp
w3=eastohiop
w2=eastohiop
w2=noblestreetp
w3=noblestreetp
w3=eighthandandrewp
w2=eighthandandrewp
w1=robinsontownshipp
w2=robinsontownshipt
w2=robinsontownshipp
w3=robinsontownshipp
w3=robinsontownshipt
w2=bridge
w3=bridge
w1=atwoodstreetp
w2=atwoodstreetp
w3=atwoodstreetp
w2=eighteenthp
w3=eighteenthp
w1=eighteenthp
w2=dormontp
w3=dormontp
w3=atwoodandfifthp
w2=atwoodandfifthp
w1=atwoodandfifthp
w3=eastcarsonandeighteenthstreetp
w2=eastcarsonandeighteenthstreetp
w2=ellaandlibertyp
w3=ellaandlibertyp
w3=eighthp
w1=eighthp
w2=eighthp
w3=fifthandbigelowp
w2=fifthandbigelowp
w1=fifthandbigelowp
w3=southmillvaleandlibertyp
w1=southmillvaleandlibertyp
w2=southmillvaleandlibertyp
w2=libertyandpearlp
w3=libertyandpearlp
w2=swissvalestationp
w3=swissvalestationp
w1=swissvalestationp
w2=knoxavenuep
w3=knoxavenuep
w2=atwoodp
w3=atwoodp
w1=atwoodp
w3=ikearobinsontownshipp
w2=ikearobinsontownshipp
w3=kb
w1=knoxvillep
w3=knoxvillep
w1=kb
w2=knoxvillep
w2=kb
w3=jonesandbellavenuep
w2=jonesandbellavenuep
w3=hawkinsvillagep
w2=hawkinsvillagep
w3=southbraddockavenuep
w1=southbraddockavenuep
w2=southbraddockavenuep
w2=woodstockandsouthbraddockavenuep
w3=woodstockandsouthbraddockavenuep
w1=woodstockandsouthbraddockavenuep
w1=eastlibertyp
w2=eastlibertyp
w3=eastlibertyp
w2=brownsvilleroadp
w3=brownsvilleroadp
w3=monroevillemallp
w2=monroevillemallp
w3=sheradenstationp
w2=sheradenstationp
w2=moontownshipp
w1=moontownshipp
w3=moontownshipp
w2=craftonp
w3=craftonp
w3=twentyeighthp
w2=twentyeighthp
w2=libertyandmillvalep
w3=libertyandmillvalep
w3=twentysecondeastcarsonp
w2=twentysecondeastcarsonp
w2=southeighteenthandarlingtonp
w3=southeighteenthandarlingtonp
w2=eastcarsonp
w3=eastcarsonp
w2=arlingtonavenuep
w3=arlingtonavenuep
w3=shadyavenuep
w2=shadyavenuep
w3=warringtonavenuep
w2=warringtonavenuep
w3=warringtonp
w2=warringtonp
w2=allentownp
w3=allentownp
w1=shadysidehospitalp
w3=shadysidehospitalp
w2=shadysidehospitalp
w2=westpennp
w3=westpennp
w1=westpennp
w3=craftavenuep
w1=craftavenuep
w2=craftavenuep
w2=beltzhooverandwarringtonp
w3=beltzhooverandwarringtonp
w2=northaveandcedarp
w3=northaveandcedarp
w2=swisshelmparkp
w3=swisshelmparkp
w2=gatewaycenterp
w3=gatewaycenterp
w1=hiltonp
w3=hiltonp
w2=hiltonp
w2=gianteaglep
w3=gianteaglep
w2=walnutandnegleyp
w3=walnutandnegleyp
w1=walnutandnegleyp
w2=walnutp
w3=walnutp
w3=carnegiemellonuniversityp
w2=carnegiemellonuniversityp
w2=forbesandatwoodp
w3=forbesandatwoodp
w3=murrayandforbesavenuep
w2=murrayandforbesavenuep
w3=negleyandcentrep
w2=negleyandcentrep
w3=forbesandbellefieldp
w2=forbesandbellefieldp
w3=centreandmillvalep
w2=centreandmillvalep
w2=woodstockavenuep
w3=woodstockavenuep
w3=coalandwalnutp
w2=coalandwalnutp
w2=coalstreetandwalnutp
w3=coalstreetandwalnutp
w2=coalstreetp
w3=coalstreetp
w3=carrickp
w2=carrickp
w3=talbotandsixthp
w1=talbotandsixthp
w2=talbotandsixthp
w3=morewoodp
w2=morewoodp
w1=morewoodp
w3=eb
w2=eb
w2=federalandnorthp
w3=federalandnorthp
w1=forbesavenuep
w2=forbesavenuep
w3=forbesavenuep
w3=edgewoodtowncenterp
w2=edgewoodtowncenterp
w3=forbesandcraigp
w2=forbesandcraigp
w2=centrep
w3=centrep
w3=pittsburghinternationalairportp
w1=pittsburghinternationalairportp
w2=pittsburghinternationalairportp
w2=fourthavenuep
w3=fourthavenuep
w2=fifthandwoodp
w3=fifthandwoodp
w3=atwoodstreetandfifthavenuep
w2=atwoodstreetandfifthavenuep
w3=smithfieldstreetp
w2=smithfieldstreetp
3.5583220858989337
3.4939724933897454
3.8644489020541113
3.7479842922464015
5.530218678287361
5.08039881963448
6.904476278605377
3.631294221465966
3.804520918864139
3.4187294941871773
6.759747831121772
3.2819327022989473
3.2980391378484395
4.36008975406528
3.360044131720501
5.104771725195129
4.942651846063009
3.247047219088435
4.98698882365803
3.7533291437005976
4.815538715211596
5.312673268237389
4.003254745439479
6.890109849584877
4.768054211461769
6.303663319885886
3.9390581705515575
4.954229645393952
5.759751252482379
3.453942772159534
4.663075190776203
3.4939724933897454
6.473838407361657
4.312422414221948
3.522430945167133
3.7533291437005976
4.049276501447203
3.3241816566993143
6.636455792567274
4.833157408799552
3.9549082213849625
3.6064636792559805
4.143203639940813
4.663075190776203
3.7300143668491494
5.234443646203042
4.807741146670875
4.393168417580174
3.228766673300839
3.9390581705515575
5.585871413922159
6.558215188334632
3.4251108114089766
3.8583435767646455
3.9076557210098826
3.2819327022989473
3.1873416038355273
3.2819327022989473
2.9574274595897365
5.711074373575395
5.147973028149767
3.2599563477116646
3.505911852392688
4.206511914125676
4.871657011999149
4.670826565858657
3.771841534288528
5.585871413922159
3.8644489020541113
3.84294082353199
4.907721213069493
4.171171108360325
3.3241816566993143
5.585871413922159
4.1452063397638845
3.779752020290494
6.245414485620733
5.069510838817767
3.4904841989676902
4.348731670935558
5.177752463892087
5.285813678440165
4.666220192656784
3.7479842922464015
3.951219627006736
5.164606396472937
4.339235557763802
3.3248665225642955
6.799906592794846
6.294332272601755
4.6867776750820695
3.4187294941871773
2.8371250267770782
3.2980391378484395
3.3241816566993143
4.563951655076117
5.023916167972627
3.766136324945831
3.4187294941871773
3.3057129042109437
3.781867210302198
4.1343915869142975
4.5219675695581225
6.963998437240857
4.214033816491643
7.466987295185618
3.7178332929824762
3.939436748979419
5.737419148700049
5.04534243574143
4.891377284941638
5.690647851402663
4.853138928810048
4.1632431446376135
3.247047219088435
3.842627573832969
4.393168417580174
3.3241816566993143
4.735143357285651
5.4413192455298285
4.167898066843447
3.406888290602733
3.3241816566993143
4.791263818018969
3.661062625039737
3.522430945167133
6.412220339394187
5.7717741955953885
4.955432035913871
4.671066043267739
9.210148260053959
5.729820858873617
2.530750743055362
1.1940661248311404
1.0599031032656467
0.742078021002594
0.7912523901494073
0.5116665515980684
0.20283310940404997
0.9924225096230711
0.30622973794844216
0.265763372468791
0.0657762458322185
-0.2396479454815839
0.06819716058022304
-0.6763197570290947
-0.6763197570290945
0.7014442303897153
-0.1418721395781737
0.7752947470061613
0.12496492582485023
0.7461225255488843
0.012943784278172624
-0.007031160196257069
0.7335169240460473
0.10850360366855603
0.7335169240460473
0.7222714141661792
-0.19127263280753745
0.7019016466947294
0.7652139194649263
-0.5172645909451319
-0.12441565924617282
0.6035010712381642
0.5351591486883245
0.385584106696208
-0.04487717087540843
-0.6763197570290937
0.33675910520196944
0.200853870304834
0.1414706511317849
-0.3977597774093909
0.19890130648092802
0.3861280007582484
0.3791986268785778
-0.6763197570290942
0.39180500991931266
0.13842923202026453
0.5309885235891609
0.5673157433415859
-0.6763197570290943
0.2816270234957798
-0.13364941143182152
0.7335169240460473
-0.19255746251543532
-0.09317605329658796
-0.06800870468511216
0.20597346493386365
-0.4920273714697126
-0.676319757029094
0.07541471357515364
0.6407951051318075
-0.0842126181681191
0.2893189050197366
-0.591060365948909
-0.68581143327613
0.2526811882222331
0.2454740418525321
0.10850044175474569
0.06831519692684829
-0.07665876989383366
0.11165036170266644
-1.2457113009140746
0.07541471357515364
0.1221276004335198
0.21063397367788722
0.7320498935620422
-0.6356452035007522
0.07871491940167377
-0.6763197570290925
0.25834289799723675
0.07002658036591475
0.8036301825733884
-1.9479762704228973
-0.6763197570290936
-0.17817576581908498
-0.8797757425301868
0.012255506350819286
-0.31120589231142465
-0.9039747637731231
-0.8351253761586
-0.09692022596571315
-0.6763197570290936
-0.25388863250508337
1.0182024708265431
-0.6763197570290933
0.08208460746207687
-0.31312923248165386
-0.6820235153962544
-0.6820235153962544
-0.6763197570290934
-0.04410485152020597
-0.09970159055708169
-0.6820235153962554
-0.6820235153962554
-0.09998119483556721
0.22532679867545835
0.7818632857277903
-0.7269739009386593
1.2297796725284444
1.0027268113234316
-2.5887360804616812
-0.6763197570290933
-0.17817576581908526
-1.1055795914857813
0.0823064103363622
0.07657813818827246
0.7639202802757876
0.5292239724508034
-0.17817576581908526
-0.34653311108088475
1.2190807158639085
-0.8551523822838758
-0.682023515396254
-0.682023515396254
0.6743099650161417
-0.1781757658190861
0.017800191575853285
0.017800191575853275
-0.6763197570290935
-0.6507288147247454
-0.4277056815402643
0.1260909992993427
1.2190807158639085
0.20020152282565817
-0.6763197570290937
-0.33123275770345567
0.1279105103572451
-0.788134923071107
0.7335169240460473
-0.17817576581908612
-0.17817576581908603
0.17996830379671577
-0.9505605472141565
0.6010067197702825
0.09498708929624472
0.9600301662529823
-0.6763197570290936
-0.6763197570290942
-0.6763197570290945
0.6767283538351043
-0.11243348660382779
-0.258733769311207
-0.1200886425861245
-0.676319757029095
0.12021311637689916
0.01780019157585331
-0.676319757029095
-0.17817576581908728
-0.6234804604712328
-0.6763197570290949
0.14366640363164254
0.10660361870071591
-0.17817576581908753
-0.17817576581908748
0.8036301825733893
0.3029544313172609
-0.6763197570290945
-0.6805392220957831
-0.6763197570290947
0.01724671004894778
-0.6763197570290947
-0.07133963714940485
-0.3985674758068247
-0.6763197570290951
0.7335169240460473
-0.3934432836100549
-0.25051141658428466
-0.08286779036507733
-0.7812360927362897
-1.115969750096567
0.9079968209718812
0.7025094161254646
-0.6763197570290949
0.07924574739226302
0.7320498935620423
-0.6763197570290957
1.2190807158639085
-0.1596812831681631
-1.107075690068923
0.0371294639139972
-0.676319757029095
-0.04452512047341123
-0.676319757029096
-0.6820235153962576
-0.6820235153962576
0.7320498935620426
-0.1200886425861245
-0.6763197570290952
-0.6763197570290956
-0.6763197570290952
0.8199913572791063
-0.06806066582874098
-0.6763197570290954
0.7335169240460473
-0.6763197570290955
1.0237550904173414
-0.6763197570290959
0.07541471357515364
-0.13421505826369284
-0.47067395291661696
-0.04410485152020597
-0.17817576581908975
-0.1593254776604687
-0.17817576581909003
-0.6763197570290951
-0.6763197570290959
-0.6763197570290964
-0.6763197570290965
-0.17817576581908992
-0.6763197570290963
-0.46563744152823716
-0.6763197570290957
-0.6763197570290961
-0.6763197570290964
1.1026546781007212
-0.6763197570290959
-0.04410485152020597
-0.6763197570290961
-0.6763197570290964
-0.6763197570290965
-0.676319757029096
-0.6763197570290959
-0.6763197570290962
-0.6763197570290962
-0.6763197570290964
0.07541471357515364
-0.4656374415282372
-0.1781757658190902
0.7339382894074997
-0.5079317965521789
-0.6763197570290965
-0.17817576581909092
-0.6763197570290967
-0.7047227151782401
-0.7047227151782401
0.4607589664463229
1.349616156070212
-0.6763197570290966
-0.9606516516545384
0.7335169240460473
0.07541471357515364
-0.6763197570290966
-0.17817576581909075
0.5364321543213195
-0.676319757029097
-0.676319757029097
-0.6763197570290969
1.5244204323714696
1.3161437489128924
0.9810061646227072
0.3804166042448565
-0.23659585691061724
0.14728485445179942
1.4863978729905511
0.7359711120109642
-0.1510033947610751
-0.4434699096369285
-0.1152478335506086
-0.2396327961132898
-1.7453723368482421
-1.7453723368482421
0.6420256785299445
-0.19416160916468736
0.8959268147560394
-0.016241975408503622
1.1495476826068196
-0.2189798646737424
-0.5828278237078517
-0.9492464169628937
-0.7496411145493165
-0.9492464169628937
1.16185790192522
-0.8475676338114898
0.004484214869352549
-0.17580357855207163
-0.5278607505931396
-0.7380160431476871
0.9715210175853468
0.011137629670519306
0.8966931074895648
0.08654953749532623
-1.7453723368482414
-1.5690206160048197
-0.14980513991386343
-0.08483192979696078
-0.18693181721168284
0.6193619237644665
-0.2871188601336445
0.29105466686916254
-1.7453723368482401
0.6133651822518944
0.11089050202379576
0.4498747218365865
0.18487455337908146
-1.7453723368482408
0.19969669516849103
-0.03807515774780975
-0.9492464169628937
-0.5549062488403572
-2.0579508432216813
-0.021017753943516175
-0.33121647478645266
-0.18247724046531233
-1.745372336848241
-0.21861537104798168
-0.11139948455320373
-0.11313382528237466
0.045009306512627446
-1.3916790150450407
-1.755491917648486
0.06551159283800265
-0.20363971171025683
-0.05276147463084556
0.1628567466404926
-1.0109829312156215
-0.17749945216426904
-0.8141071092072674
-0.21861537104798168
0.05496111738225807
-2.1190709022555545
-0.048089611333660756
0.19717882088996766
-0.48865381731407526
-1.7453723368482403
-0.049990817225988214
0.18252621937712019
-1.112263041110575
-1.5131361110566448
-1.7453723368482408
-1.0485722398164925
-1.7565753567353082
-1.8623880588635109
-0.42019917077936186
-1.8241970575689055
-1.0295234793194559
-1.2592918701699436
-1.74537233684824
-0.5832342613234635
-0.16907435974476312
-1.7453723368482386
-0.09814080750090193
-1.1495048062126734
-1.7512326690066704
-1.7512326690066704
-1.7453723368482388
-0.33332232354292907
-0.3363946125296363
-1.7512326690066697
-1.7512326690066697
-1.069376239265774
-0.518913348963077
-0.5401508254321779
-0.5468500679889978
-1.710761954324291
-1.2601770294869536
-0.7556662234967444
-1.7453723368482394
-1.0485722398164932
-1.9211430553091005
-0.1547065866136656
-1.235520648995438
-0.08557547045212786
-0.006565125191081084
-1.048572239816492
-0.10049276248096473
-0.6869944812867533
-1.7056780288096713
-1.7512326690066704
-1.7512326690066704
-0.6110544749182445
-1.048572239816493
-0.7159475065121832
-0.7159475065121835
-1.7453723368482406
-0.9514773157260908
-1.8892617337430837
-0.032525601872260966
-0.6869944812867533
-0.2727214792569473
-1.74537233684824
-0.6042853154609229
-0.8498090000099858
-1.4539312058621092
-0.9492464169628937
-1.0485722398164936
-1.048572239816494
-0.3445492895066602
-2.5003263239040265
-0.22095249442818227
-0.6580919622187477
-1.6931938195383631
-1.74537233684824
-1.7453723368482401
-1.7453723368482408
-0.975863820147285
-0.5218302296689247
-0.303152033134712
-0.4076302472459292
-1.7453723368482406
-0.5003317685669026
-0.715947506512182
-1.7453723368482406
-1.0485722398164925
-0.6663142869888441
-1.7453723368482406
-3.646506767658934
-0.5010061962088309
-1.048572239816493
-1.0485722398164934
-1.1122630411105754
0.13567083992014398
-1.7453723368482394
-1.1933957565300124
-1.7453723368482394
-1.3620708129048806
-1.7453723368482392
-0.4235623933677975
-0.6807155603346541
-1.74537233684824
-0.9492464169628937
-0.6814238737825954
-0.4638853906958276
-0.8147885348152044
-1.5375982831947659
-1.934367328448577
-0.15533280860177817
-1.0267758394064301
-1.7453723368482401
-0.9182811298213926
-0.04808961133366129
-1.7453723368482401
-0.6869944812867533
-0.4152062489973575
-1.9088114580831776
-0.11860577962769846
-1.7453723368482406
-1.0993566420224186
-1.7453723368482401
-1.7512326690066722
-1.7512326690066722
-0.04808961133366107
-0.4076302472459292
-1.7453723368482408
-1.7453723368482406
-1.7453723368482403
-1.237108115321674
-0.8427004341451858
-1.7453723368482394
-0.9492464169628937
-1.7453723368482397
-1.890264403745517
-1.74537233684824
-0.21861537104798168
-0.6371735488430447
-1.1248017059749569
-0.33332232354292907
-1.0485722398164923
-0.23340774918652715
-1.0485722398164918
-1.7453723368482394
-1.7453723368482397
-1.745372336848239
-1.7453723368482392
-1.048572239816492
-1.7453723368482392
-1.108307914454795
-1.7453723368482394
-1.74537233684824
-1.74537233684824
-0.5916730476199058
-1.74537233684824
-0.33332232354292907
-1.7453723368482394
-1.745372336848239
-1.745372336848238
-1.7453723368482383
-1.7453723368482383
-1.7453723368482386
-1.745372336848239
-1.745372336848239
-0.21861537104798168
-1.1083079144547947
-1.0485722398164943
-0.8959508328415966
-1.4883847803046746
-1.74537233684824
-1.0485722398164934
-1.74537233684824
-2.0658703975702952
-2.0658703975702952
-0.36378530928655944
0.1157562255365563
-1.74537233684824
-0.7777865078372416
-0.9492464169628937
-0.21861537104798168
-1.7453723368482394
-1.0485722398164943
-0.054702145710770894
-1.745372336848239
-1.745372336848239
-1.745372336848239
1.6674999209443275
1.4381339019620094
1.016007968191267
0.49493806663477335
-1.9251406505767614
-0.5311993040367504
1.5323878231901982
0.6266342048570254
0.05440926092734787
-1.4159425157879613
-0.34392998391331475
-0.7209505183191176
-1.9722733504480399
-1.9722733504480399
0.7456042174526668
-1.0796779074398943
0.9264188107576355
-2.1107651122922277
1.0940246328312173
-0.08090517747751012
-1.1240036103073194
-2.0114053972378922
-0.26615139014269396
-2.0114053972378922
1.2134045250669236
-1.2691287178010338
-0.13563847598451312
-1.0915563029092727
-0.5165354278190538
-1.1706772931180378
0.8419735818117551
0.16662646985337823
1.0169624456669129
0.004118298742608192
-1.9722733504480399
-1.448558763047525
-0.26762002955231884
-0.05794840136612373
-0.46054411878521834
0.2739666687723941
-0.9807156012639546
0.42037670833055285
-1.9722733504480405
0.6044224179395027
0.2141825924061752
0.3123756633215731
-0.14148047472406008
-1.9722733504480403
-0.03648482886287171
-0.19345177620749093
-2.0114053972378922
-1.1078261695535145
-4.349640026676895
-0.15150025133123576
-0.9168694641860508
0.13522742915201502
-1.972273350448041
-0.4138284560897278
-0.07885577332112775
-0.4813498770835691
0.1946963670236225
-1.3702698838876457
-1.9761100946272907
-0.33769729985719366
-0.8271081993600795
-0.2561484524405643
0.11857999934418775
-0.47607949474229794
-0.6341491725596751
-1.060944253324077
-0.4138284560897278
-0.4442616995070573
-2.5897225208470998
-2.4433608580404456
-0.6553327729956518
-1.1585795397423881
-1.9722733504480403
-0.6417683641824913
-0.07389602508469884
-2.898570260730503
-1.0780525387975513
-1.97227335044804
-1.6624254509300609
-0.6990653029678668
-0.7519514560391697
-0.2929496446223612
-2.1686304767763613
-2.012170414503613
-2.067456896775811
-1.9722733504480394
-0.855017024617231
-1.24728511728407
-1.9722733504480399
-0.3645120528180781
-2.0457241241092845
-1.9734546340970236
-1.9734546340970236
-1.9722733504480408
-0.6549451482338978
-0.2652048122005481
-1.9734546340970243
-1.9734546340970243
-1.362750247224895
-2.34061342461561
-2.3881273776857963
-3.0448174604780562
-3.2523824370721384
-2.461111183131363
-1.773456811673246
-1.97227335044804
-1.6624254509300593
-1.7796349359174366
-0.36045978209547797
-1.2704766371351701
-1.6201419432935038
-1.7759956664577634
-1.66242545093006
-0.08955525868851417
-3.265955526241968
-2.451571962629061
-1.9734546340970236
-1.9734546340970236
-2.019417897842752
-1.6624254509300584
-1.41299484299578
-1.4129948429957797
-1.9722733504480388
-0.6572573398022262
-2.150927199613222
-0.5102228687797311
-3.265955526241968
-0.7194034131556172
-1.9722733504480388
-0.2613550421686112
-0.5555422697642219
-0.9628152683814319
-2.0114053972378922
-1.6624254509300604
-1.6624254509300598
-1.0355034795751425
-1.0601574221516459
-2.7469747148798738
-0.6255526347370037
-2.3383468017524085
-1.9722733504480376
-1.9722733504480383
-1.9722733504480385
-1.7471189593397003
-1.0109112384602446
-0.3299141421952518
-0.24591325200628592
-1.9722733504480383
-1.208392315383119
-1.4129948429957795
-1.9722733504480385
-1.6624254509300607
-0.7582331034667193
-1.9722733504480372
-3.2297522545400494
-0.4041860949937097
-1.66242545093006
-1.6624254509300593
-2.898570260730499
-1.1529322586163038
-1.9722733504480368
-1.2227868794044008
-1.9722733504480374
-1.2691877535633214
-1.9722733504480372
-1.6070965428674604
-0.21526054121629937
-1.972273350448037
-2.0114053972378922
-0.6370742015368703
-0.8819055181348083
-1.1577341224613136
-0.7791798125082116
-1.730819017181261
-2.965706525568343
-2.2375610729040694
-1.9722733504480392
-1.3529968138892476
-2.4433608580404464
-1.9722733504480385
-3.265955526241968
-0.19120695535832072
-1.0650742494392291
-0.30000169290678197
-1.972273350448039
-1.4347317344841184
-1.97227335044804
-1.973454634097027
-1.973454634097027
-2.443360858040447
-0.24591325200628592
-1.9722733504480396
-1.9722733504480392
-1.9722733504480396
-2.8150035232329467
-1.1261192432023979
-1.97227335044804
-2.0114053972378922
-1.9722733504480399
-3.103082356171047
-1.9722733504480403
-0.4138284560897278
-0.7380937440126605
-2.92315564216408
-0.6549451482338978
-1.662425450930061
-0.3011858222758669
-1.6624254509300607
-1.9722733504480405
-1.9722733504480405
-1.9722733504480403
-1.9722733504480405
-1.6624254509300607
-1.9722733504480405
-1.435400159821192
-1.972273350448041
-1.972273350448041
-1.9722733504480414
-2.231114682313743
-1.9722733504480412
-0.6549451482338978
-1.9722733504480414
-1.9722733504480414
-1.972273350448042
-1.9722733504480403
-1.9722733504480416
-1.972273350448041
-1.9722733504480412
-1.9722733504480414
-0.4138284560897278
-1.4354001598211914
-1.662425450930058
-1.8250155911435315
-1.365847715502392
-1.9722733504480408
-1.662425450930059
-1.9722733504480405
-1.0053224074735263
-1.0053224074735263
-3.3785325359444105
-2.307394311209766
-1.9722733504480405
-1.662514983599127
-2.0114053972378922
-0.4138284560897278
-1.9722733504480394
-1.6624254509300573
-2.5364997168157455
-1.97227335044804
-1.9722733504480405
-1.9722733504480403
2.8601766758345333
2.6430058630057287
3.112766782652296
2.498730064045857
2.2745460691124335
2.195863745426174
2.4518566162873854
3.371585870513902
2.945782350375315
3.442770322817959
2.93443854225365
2.426836096759745
2.0147436736685314
3.630736076296512
2.180514027738877
2.8903040265731064
1.597774636939723
2.669817200410921
1.8312716818505814
2.1775289799924527
2.8688495759154273
1.1846371935576767
2.8459427949868727
2.8725292773000644
1.3734136884202461
2.3344365010356563
2.8014190280584885
3.589188647283151
2.918415265375887
3.0138934949978364
2.608810184224016
1.5486109665660688
1.3411283948086958
2.7351012491744284
2.0907988677348173
3.0989749067695556
4.00513279849493
1.5486109665660688
2.7377456902348603
2.177090733267642
2.3939614308271477
2.1558785027218366
2.920124310556864
3.3490085325571184
2.2062061620603988
1.45436684501912
3.196822282837734
1.878500444565615
1.7835170064338468
2.8408336495001065
2.9022801260328146
2.14722043728972
2.5566777893561112
2.963585891548592
3.220854983282559
2.266435544775214
2.867706671239464
3.163626248099445
2.15122353151711
3.147427191321862
1.3414165261257112
2.2479072432696956
3.4335082856545265
2.638979414642689
3.094563390105368
3.0071031583722094
2.1854099774860782
3.163626248099445
1.5486109665660688
3.4965709944035264
1.45436684501912
2.6083729809984115
1.45436684501912
1.5486109665660688
0.006766205786159558
1.5486109665660688
2.72606079779946
2.222217678706007
3.3129910565215277
2.6001853957535035
1.7711666538498172
2.1959553708794863
2.7917643152905463
3.2176612614461773
3.203863341113757
3.7105864859447015
2.1320336227977714
3.6585079973872245
-0.10489869778265733
2.9998045152920336
2.4381580773692644
1.6145538423492583
1.5728836580823289
2.103011791332562
2.498333543097245
2.578652694119259
2.769839811636226
1.4756200656713425
3.120633111758273
2.737878955869597
0.8075938057337586
2.2416573505474555
3.173403163922734
3.1421431652921616
3.619843409978617
1.7381184480087084
2.482744692681127
2.054958013776325
1.6829914117601454
1.4088790329624392
2.2203170107724617
3.763657142002273
2.810821129779402
2.054958013776325
2.530962989523012
2.2474116082992426
2.5516793277632455
2.267315036843944
2.973793148203904
3.8355420860096876
2.331658753819664
2.1576114796269357
3.2390790693072598
1.8463208984315753
3.1311114015763297
2.71711439541106
2.912264169673659
3.9316190492092757
2.8379087071025872
3.0344899039649387
0.4482953181976325
2.9275241888046155
3.8103194818593193
3.3033112767979924
-0.3398061830349987
3.9615278251409642
2.0738855206890454
2.4488711075845067
0.7082557145438163
1.6013391965212294
3.2822607817532514
3.195195382715092
2.3564474314969313
3.3033112767979924
2.054958013776325
4.489820485306581
2.1576114796269357
3.322278601731799
2.1576114796269357
2.054958013776325
0.3356250249255908
2.054958013776325
2.679904427359728
2.339902127238671
3.197853867999838
3.014131359314181
-0.1249682083986849
2.060795043628377
1.516684231319623
2.1284442213442603
2.9699833781240015
3.2340320019378193
2.6767818210732734
1.5127304932129773
0.2398660878509744
2.7318707142805825
1.7087888364502841
3.182738552033039
1.3057361096610285
2.6434950731588946
1.2852127461084395
2.7905247945771263
3.2544853920491965
1.5950964074809162
3.1452991698467248
2.651418843587747
1.3149682134973966
1.5040737684558514
2.605473171143706
3.0992650446957812
1.999021380066265
2.8929250270649063
1.0283780435786791
1.4966999977611009
2.9739151517578173
0.14529574874547835
3.8440529605182086
3.6118737861052046
0.09353464914974993
1.600802250206553
1.2789552580990113
3.3375894851041212
0.24610441367463082
3.4844607343269005
0.7862612474106984
1.2455934098378236
0.6647704144712671
3.8746869705055142
0.4778369463573928
4.083462335133255
0.7375323334243069
3.6204516562111033
3.84632798492349
3.5323968290373564
3.5128969038381936
2.7616956257776617
2.7118602441997806
3.363099570067755
3.5825047721055125
3.5128969038381936
3.9803673184651944
2.853530152330079
3.9586082539756093
3.6990662403546697
3.1465039575629246
3.40767160448151
3.0984106303676997
3.210062793265367
1.6767203578505485
0.3275450017182339
2.9728223053006517
2.354799655730596
1.7652858307787882
3.8043104432038337
3.976675649483973
2.6430460807129115
2.9283725363199413
2.0407149706009604
3.06989838220782
3.0038920554435284
3.352784778502512
1.3637193227805888
2.1449831507657344
3.143855868514882
2.968881044611029
3.0947211176625307
3.1537037945611677
1.9731848404062233
2.576650422595876
1.310696545093263
3.338745415715813
0.8755539446961165
3.3010203108998644
4.0250029312967
3.2928578929681542
2.2727063042084352
1.2921738010517128
1.6812453418983577
3.55338282511041
3.133619991656278
2.2307517248386177
3.4300390132260077
1.8140347542234658
4.142093936210023
2.122162920246395
0.8755539446961157
3.742899430003961
3.32067219039551
0.8755539446961156
2.2307517248386177
3.1544818513982245
3.7140607775247583
3.454404707434806
2.969606598723891
2.8073127863060257
3.0123984937876815
2.260114629616011
2.2504829169981706
1.0160478391618948
1.021652959150332
2.7757600299045
1.2750636113167975
0.39257635639726707
3.4233563080411384
2.7714314632246575
2.1030637523219267
2.2749718116336526
1.55159897037579
3.3738963871776964
2.681994185333949
2.8935499202197392
1.3733233469659154
2.026668216533871
1.7807511651507464
2.755707813259446
2.5987639476246303
1.7692126590695527
2.1992756042346926
2.646118696728909
2.25484049746376
2.9190724107882025
3.4671477662349104
3.114340403089479
3.008779548958839
2.906577432039988
2.5433254603049797
0.5670901404589266
2.5712636636357833
0.6018984324927193
3.5385314255073435
2.5958317423092465
3.2018484934039577
-0.3940918901590241
3.084838960126281
2.1458537834828535
3.46714776623491
0.8512247925937897
2.9670911802521918
3.46714776623491
2.5958317423092465
3.3533472308793772
4.543488274557425
3.1535259315805027
2.853463350911355
2.8685402761699965
3.2952870650868986
2.5669063199015634
3.0994824808266404
0.9785410658519891
2.6305070732653815
1.9989257609930249
0.3454568600748525
3.028666934546429
3.319929489907711
2.2316929684487032
1.267670583869722
2.475133818872862
2.90056851299797
3.12213053237312
0.45003972785493707
1.00305971099994
2.7913250029158085
1.6888234033008933
1.1440924324263038
2.034034127114683
1.8434688012431864
1.4991685200503135
0.6231211071510031
3.0172302462705285
0.9623803257889123
2.2306417489452444
3.528554088107533
3.052451131448156
-0.14617319054356676
0.546813595205396
2.296669525137436
3.426277580902834
3.530964424745611
1.7571180992094417
4.263297479814396
0.9623803257889121
3.4989460611083967
3.0153554427346907
0.9623803257889127
3.336997614614079
3.225296064214553
3.651570780927521
3.3070878696265513
3.576405001428798
2.991939442968442
3.0429208363681215
1.9100653527544937
2.472498099636818
2.895961709413179
1.82879493216503
2.7682602816103867
2.2220261718813754
2.4517464241286513
1.659185033470722
3.396667192688246
1.9266003344179052
3.167569664433021
3.8312628108804043
2.3162237618318957
1.0536250729892411
4.070341671204254
1.0017828956207606
1.7507296246969277
4.797388672245845
1.2369264640510813
1.6802291753390848
1.8432310633745264
4.092369079362699
4.423503361280893
2.919898618384618
4.392546921369596
4.797388672245845
4.797388672245845
4.519531482682983
4.23253161407563
3.738063835356421
3.3334447085278667
3.181162793287383
3.986056267834473
3.085001834729847
2.969705597283264
3.7095743635003977
2.8847090081453084
3.8856627947308393
4.106481866408382
3.5100368569175946
2.4514383777459807
4.254884635957261
2.372249060321532
3.165968039337214
4.438598199279298
3.561084525738005
2.677230913470152
3.797921996448441
0.9177549993943563
3.748916261279596
4.377799506539803
2.222974768587662
4.006089564026222
1.1835404797697229
1.5505393768007043
4.413380892147018
4.442098934775379
4.814241298453613
4.377799506539803
4.377799506539803
2.0463918431991153
3.2352776427897836
2.669737229988956
2.6503303915696717
3.1454412996998355
2.946121261402004
2.8006556989668616
2.9317880068714666
2.2916510081239707
2.5532878727010226
3.795969142532217
3.1428150696825865
2.961866002334429
1.7162600716092822
4.368208972723649
0.9357127917066219
2.4610030871456994
3.9723479216807562
3.196758996068712
1.194031620239613
4.068812878061691
0.9051748829792393
3.412771205896731
4.9111649189310285
3.2716506591469483
1.216588980083521
1.302259972693906
1.809713055893909
4.348858696439071
4.9111649189310285
4.9111649189310285
2.8998990159393623
3.8725917236571954
2.3449489208017944
2.5659260749780155
3.2431764333610293
2.8341412000285384
1.6609762974616986
2.003670342391059
2.874502934170131
1.4341887644406346
2.7728047922119496
3.4695580532756627
2.7189356824549367
2.44884221759557
1.6154350786569491
3.17505678734147
1.888355982501206
2.018522559695828
1.954631733124094
0.5570627046973688
3.8236117850513387
3.291251093109376
2.593374827284281
0.5271490446018425
2.313368813847187
3.1786791899416205
3.8236117850513387
2.3454836968294828
1.9155772983666028
1.502101635382839
3.479974263008961
4.386072992768971
2.391583115487189
1.7063599274960328
3.8332578008195246
1.2775934619343465
4.171875879078966
2.5031284017521167
2.7361899777686487
3.72017647087154
3.986323915480976
3.176355256926469
1.6487103577655744
1.3971603889716162
2.2907790902213487
3.027693161107039
3.8236117850513387
3.8236117850513387
3.8236117850513387
4.0506994237210785
3.2716349926616997
2.6655824195794464
3.602240256023205
3.1054581749853742
2.572181926574304
2.1366749858873604
3.096370168705045
3.083266418345638
2.8048298581628286
3.3592144563415354
2.542144925762936
3.059073967128941
2.192855230065939
2.9352929852152023
2.8051367735153256
3.5197394618088067
2.698513784512704
1.2169026883567584
3.461160476922865
3.485045567581408
1.6834373285691304
0.4017536671321214
1.6214292933920063
3.3550617396377844
3.461160476922865
3.145028023089932
3.3556807246460094
2.966453086462123
3.816685776090719
2.7672479788562776
2.34689637421213
2.589711589677046
1.5872827748951566
3.2216816722234825
3.3909508552762913
2.4762608220663402
3.3208687398429277
2.1660486833487975
3.7927435165959156
2.2948375467732367
2.900575565203372
1.936665433526414
4.040752616069667
2.1740602872245827
3.461160476922865
3.461160476922865
3.461160476922865
3.476511600577254
2.8323096101639234
2.460442559861975
3.6082781803873325
2.8369566750222615
2.282616694303657
2.2713800263990387
1.670492791480883
3.421468914380733
1.5727319444381715
2.6797065560051108
1.4177970106416882
2.203525561560597
2.8413541205162764
2.7447304592992254
2.545209379500711
3.0096496595309965
2.6051864028738705
1.0042488554552218
3.8646155782468976
1.5508520011508615
0.16026941786668578
0.4692579391759446
2.6140726302032373
3.8646155782468976
3.1726043077862354
3.85220621490723
2.7203019500214713
4.505134162592442
3.4908216134340386
4.553614004177797
1.8589673320152649
2.591494392001935
3.0371124757865515
1.6094261414141275
2.7974329683573287
3.2595720804659045
3.160039535408623
1.965699876370594
1.616934666838465
2.6616816768704408
3.8646155782468976
3.8646155782468976
3.8646155782468976
3.459426150443009
2.8245027960901714
2.3485421377414033
3.231099192554261
2.3893557905197294
2.6763295078355096
2.480956740613075
2.445870002541482
3.092306279879531
4.13180708405589
2.7368821383103348
3.793498649339374
3.2928071995588017
3.134498921209525
3.5693480276464227
4.306812134941739
6.335475276443164
6.335475276443164
4.8764521636845135
5.824924327949917
6.335475276443164
5.471054743968227
5.835370000124007
6.85950942561724
3.5435230651094614
3.4104564477334702
2.2913391825906495
4.115452756561344
3.2425082019671096
3.951087053830081
1.4904643945410403
2.280258586911129
3.0858260104906954
2.4955468612689056
1.9754797386068836
2.3720953616404583
2.521838043945371
2.578072523433206
2.7675922575098455
4.957604569379879
5.7020750823314
5.7020750823314
3.3539765806464046
3.0171584248017296
5.7020750823314
3.8818564380196348
3.552661286117029
5.299578131013773
2.933674676971863
2.7796557960378685
2.4467228920666644
4.025241441783019
3.580435644211784
2.8011101804457184
2.8405833697568066
2.7045240460315574
1.572910165468663
3.4266164657758624
4.144438302180685
1.8984189681723267
4.978643615717435
2.6073235645937722
3.1832612843029944
5.146358108815649
5.543218393028733
2.8019034970192482
2.9979524841447085
2.1890839769400907
2.144504390312312
2.5090501212010214
2.5500435930347813
3.1768156297198225
3.639303324186307
3.8817558361258855
5.2957916116755595
4.109205106764566
5.2957916116755595
2.5823921276876893
3.8705350358701556
5.855600653393773
3.0592925361399486
3.4310175734571904
3.8740021930550164
3.795827692171698
5.2957916116755595
6.088096223689979
4.906466083153534
4.088029202978865
4.225168043165048
4.965862321285793
5.10223595916432
5.2957916116755595
4.4422369221924205
5.2957916116755595
5.1888906176436596
5.2957916116755595
5.121129433247027
5.440460537601496
5.2957916116755595
2.5103762562151366
2.495761067477649
1.9666562716216565
0.22284501882345734
2.092555050774001
2.64742587001299
2.932825884230279
2.308612128555085
5.349407313089559
3.366567608428621
5.349407313089559
2.8950504416977223
2.5543876843712052
6.370768093216343
2.516946722124361
3.7654070284224908
2.526409513608842
2.672567163402715
5.349407313089559
6.570778289050211
4.319767576322966
2.732151017489024
2.8961158358440886
6.072137019173444
5.626707095395235
5.349407313089559
5.046328650655237
5.349407313089559
3.4623406027381303
5.349407313089559
5.2813360704706165
4.915366063802871
5.349407313089559
2.3935521129688047
2.2120145047903956
1.8908219454622501
2.307156379209715
2.931497358066379
4.056560565728855
4.411384973300943
3.348542136842063
2.5017509332026924
2.065428986663715
5.853740120655433
2.176456626956916
2.765709262930072
4.643422262794522
2.814750719081481
4.884560818316169
5.06487991287536
3.29340617524876
4.450466162256711
3.476113628702196
5.650287657829659
2.636817995833665
3.8451417038280726
1.8532767359133642
3.932616224155705
4.709290091243176
1.8388715392116066
4.6681095483453054
1.9749608200701885
4.797538407881887
4.8204720713463
3.064011096904356
4.126215251453674
5.718586277108793
0.7531796981474109
3.0912362508084277
3.733456512373378
2.3197572487725924
5.680173244977084
4.153113585711461
5.611777515078015
7.1421110471152405
3.385647559613061
0.6260867126171705
3.471607117514257
1.8722656327378169
2.833523816075292
4.285428942111767
0.9657231629800955
2.5909194118111105
2.7500713558439496
4.680016301653248
3.8433984853519076
3.958211678757325
5.884805278690984
3.506425245393742
2.279371676334767
1.0001914660529354
1.570122680496242
3.7185180067480177
2.1210330483410105
2.8200111040880236
4.050960712123106
2.090137652543195
3.660730619306845
5.107673307769103
2.3230011759165787
4.9839837715863
2.937279129594412
6.146466383771871
8.44993177520459
6.083490264121395
6.292613182567977
3.0263972011851172
3.0263972011851155
6.853824434949313
6.853824434949313
2.5980100081202173
1.9781226967603318
1.7783629838474442
0.9321457817070317
2.8281045814393937
2.3123329871666893
2.109017678383272
2.3458784490628735
1.9562782418818898
3.4838220749249116
3.3708355033236526
1.770824122320084
2.0425387314227197
6.386364892691985
2.9333653379879325
3.9164944091874263
0.9559886519902457
4.19794639298946
2.4768630298220997
2.4768630298220993
1.5024437762512532
1.5024437762512532
4.3956267949698145
2.9803621782727823
3.1981480444460804
2.5956413252308814
4.543303695663408
1.234239263198554
3.7486100014524832
2.2989982958179684
2.8980177069559625
4.9986196847129225
3.492685011882807
3.2072345787260983
3.6130299624400526
4.2221454475242055
2.3482859486637224
4.334727531558447
2.4642989950708216
1.914354297747009
2.0116611287270265
2.011661128727027
2.378090835584321
2.378090835584321
5.980921175558066
1.9934356597224845
1.7726445956473766
3.959370703009696
3.0829605665786137
2.9955668883609157
-0.7624134553202169
4.432582404486784
5.557953289711309
4.66277524889779
-1.8835336216781826
4.95817573205053
5.185941569638124
0.6003913089299541
6.127755704545939
6.303932244990561
5.230303389167951
2.779887754000215
5.546403666619618
4.212572125642665
4.000618324421631
4.013031413956914
2.1579471695646637
2.25170539566747
1.077173589946763
1.6050090887197157
3.3756713702774266
0.31523774513943725
2.305734684153698
3.826502766435903
2.9439703348101025
4.30073443130222
2.615611267551234
1.6149143285935108
0.5150499669176416
2.105257589038819
1.521862674000054
1.1501270136161412
2.418428544370994
1.6406675622324303
2.1775229447895335
3.0390851669833174
4.3598824945185815
2.212563954451492
1.287741833808107
3.0282650892815486
2.131263063554316
0.8087768298290804
-0.7420306368167182
2.6334567974720815
5.014752160104063
3.3804020558463765
0.8684835370586157
3.8845793716958363
1.8393597566208084
-1.373661308330118
4.540324684689159
1.0401980898077938
2.4552619783505976
1.854363720918072
2.3982790199362913
1.0470158214604832
2.376620685476875
3.5467407910281477
4.218777949152336
3.650254195059115
6.735871051892794
1.86637922983605
5.149549080042791
5.343951860792037
3.537936050573938
2.7508261667537446
6.6154625225122725
3.1489919142000655
6.461135218180186
6.52101775493096
4.414238844364082
7.148606118801113
4.302184066913124
2.742160188153294
3.4179000155069312
4.62857219505197
4.841404385934913
1.9542680114188062
3.049525719016599
4.433110545754909
6.3020541988355765
1.597003772722598
2.4594091356404304
1.8874556513455325
1.8874556513455325
6.172466612846751
4.047768639727514
1.6075551504254553
3.7149910663671823
2.0351138636048343
3.8055899947295586
3.1817823264826126
4.00716318211706
5.164075551031612
2.291380133949541
2.5513019974614233
2.558174533106679
1.3974787615387738
1.3974787615387738
4.209281584594014
4.753356384034498
0.3989644869494163
3.8180465339179124
1.395486142149475
2.8478586648462683
3.294766851300174
3.6692971935101526
3.5366112817572235
1.7911876985242883
3.760724329171888
4.124793943517117
3.788753214441605
3.788753214441605
2.2111140137898198
2.723819062600999
1.512609143172513
5.3785829365534115
3.533002310917312
1.9180613507923978
1.6612562161948252
5.350331870836829
1.7113569521241498
3.1981640363215837
2.286307556565721
1.4808673451656036
6.516980243474443
3.6389016932598417
4.463942080665935
1.087038874235226
5.936841957923068
0.7177574254485668
3.40425397358358
0.5055122716655756
1.1438850516019
2.7457458472903626
0.9261918121124005
4.322367354166952
2.4866794947163475
4.223991172865295
2.309681687390404
2.309681687390404
0.8056881882886471
5.097206801613708
0.3472736198304917
1.362317329569065
-0.038911489227209786
0.07654396254199863
0.782347471147699
2.0477812904316997
1.811516031732406
1.2059954484947952
2.518132351381144
1.0758920314420684
1.0758920314420684
2.1542776206778815
5.03248417616645
-0.15047306109500944
3.7938062108556183
0.9044497121766049
2.0559354065116353
2.0344868660301794
0.13134271124054583
1.790280590214079
1.673256578957859
3.9215557444570326
3.9215557444570326
0.39893742446071545
2.140343668262687
2.6273213634737864
1.1304764203901108
6.955597386407506
2.048847983092098
1.4796832445516226
0.2026969829337167
3.1400746030095585
3.7818194802208835
0.3845663770805061
7.608400328001322
1.9357048724221233
2.6905049125078913
1.94896709372106
1.8718433000206811
2.254131068081565
3.816764208501158
6.788227254992049
2.9294256704973054
2.213577031655291
3.9944123104174354
4.992574531006624
4.053472024453992
2.223536067008272
3.167388757259607
2.9004648719729644
2.217555859681211
3.023477151705075
4.956341592120232
3.288263413966589
0.8382310046400129
6.8995447563548975
4.9563415921202285
4.644761503809695
3.701837003330366
3.160936422225
2.5158582976692885
2.931377102982369
5.202312577974419
2.3429006760819826
2.613096100557408
4.819368541630322
6.610887334778949
6.577180733388384
6.652780730651078
7.032899624417829
6.6108873347789485
6.6071105996732715
3.8196647718646863
6.417806350723933
4.908703626466474
3.8353198786040044
3.7248331200463216
3.4492946888777274
3.697363722676134
3.8325553369523044
3.1543367989957245
3.7276334237067714
0.3473380244649195
3.7019340051077987
3.1543367989957245
3.2198579784563015
2.7730620133390538
0.5702222964723297
4.11171390636825
4.472436839633608
4.55515328494243
4.476924961723619
4.312128254030012
5.268100530781644
4.243085132959486
4.733403812585532
6.629467155818135
6.055852782821333
5.693769302273042
6.314447712093116
2.6570413000340083
2.0108733260884533
4.748730851808781
3.134292151634991
3.3852433810946887
3.0710349025204198
2.784658182747992
5.869099036843448
2.642199161606028
2.624832562965026
4.180777197862068
3.596715396676537
5.886773242927581
6.676938996757874
1.8294147570763413
0.5882981206178649
4.287708955954825
3.346170844149558
3.469904534612053
4.0793476423898385
4.564454705269865
5.794000120937467
5.77799347692427
3.665978147450507
3.2380526576833386
3.102565912628778
2.9152793536786445
4.330846519222357
3.931827759493684
3.121143052490315
1.7153679837488092
4.808533888838353
3.7621059000148036
4.08242147719778
1.4856304017047894
1.1399879606497139
4.448737604494055
6.517706163741365
7.3321308097841555
3.7372680190784484
3.731772403178443
2.9611972687443906
2.8271317225623727
2.73619889854712
4.324204573987073
2.882458004179077
2.3382588012982746
3.287673274478431
3.704645975118689
2.8947743601650906
4.389604173666553
0.11794835114300982
5.3212857374613325
3.184153312265975
5.546986438890187
5.7669916676886785
3.930509459060057
2.2305710032884085
1.4950886550014002
3.071432680237368
3.888600199408826
1.8982547258206832
1.817481296169158
2.3792520703460127
2.6020644333288754
2.7562154681081554
5.631213247963507
3.073634334668116
4.416845325620914
5.404815133131089
3.8308959988748046
2.3891730509707876
2.684548981544775
4.016039553752804
2.879178026217681
5.521790883345938
5.087404963739478
3.2717031119154134
4.781098753215553
4.866627762824453
2.349815953185319
2.4001432755418697
5.372340520588059
2.660667516057476
6.852134148997583
4.497846178102425
8.29204575025471
7.947550047828514
4.36404325477916
1.7769200612437552
2.095274328529672
4.361843958568719
1.9793657590864235
4.354487876102227
6.851130286849767
3.3818958812423423
2.603923478676996
4.201657416462115
2.4398952577383706
4.5144783186244695
1.7968466861557815
4.839573801054237
3.6480912048613714
7.359591558858526
3.026304760062285
7.015873254746983
3.559781950251552
2.6230071980395864
1.606698293691788
2.4275889664613506
1.014382520656867
2.9447564441830005
1.3278883889776425
3.957327402323688
4.317674949481494
4.300410549882086
2.4859042355061094
6.547695068121649
2.3319789852011827
3.3427896904191097
2.6750619672079483
0.5590575888731669
2.237342838264335
1.5884467209461484
3.880381993583028
4.830586383852684
4.462805360361265
3.1235959047157418
6.177564614332751
2.8122009926326843
1.0507731178052242
5.539259973714102
-0.03746465509196206
1.6875762630032218
1.92568849988127
7.057743088071008
5.487078704125684
1.3067631510324271
2.1498744452475993
5.6575621918793075
5.865405329973604
2.788390555988145
2.196374723799319
4.004515447129226
0.46324003250710977
3.136610341747187
3.9399092129783337
2.1314385483195397
3.417737239058183
4.730835788515721
4.900344134219247
2.305217490969147
4.816338600050433
3.189813841443583
1.3870269413821694
5.120634687456592
2.5705440593822133
3.5888143696845543
4.7582449885166245
3.0681010177286776
3.384224151733683
7.578032426816449
7.279530138989392
3.7263949625337305
8.196973357324952
4.741852198022888
3.905431765311405
3.64065891384429
2.221483479355733
3.6504324964692527
4.757750379028021
3.8322976233117916
5.573232503692733
2.95481034306945
3.666671891353121
3.4606957122312925
4.065889502069333
5.58223704235223
0.8638710796577203
3.740382863921964
4.602324300125618
4.204095336167822
4.313216400087356
1.2369926077563467
3.2801075407802323
5.8506745494019174
1.2342022452952943
3.1418908215408052
2.831422159400284
2.1824192038822936
5.150938632707829
3.6981836385431186
1.5136552574334814
3.2401505063313936
6.13328534017779
2.570714820849278
1.6376064258725453
3.830677020560373
7.448906667696156
3.8920657982622506
2.683227549530562
2.446720446007133
5.7639653611811585
2.541340085846643
3.739583964376351
5.2827901020044665
3.1516735777172533
0.880472203766863
4.11899769635598
3.162783419403654
5.453853936733265
2.482012781402337
2.896397439902592
5.366732943221972
2.3524768235360463
6.161999088930567
1.9998130352115853
3.017378517915104
4.087982490304358
2.7306966620000614
4.549084780259815
5.167469815736503
2.546018577050455
3.558745888279594
2.344999715637695
3.6158607731857617
3.4959970651219114
1.9063241093236591
4.736671247439958
-0.1715204866060133
1.1119253254950214
0.6376413798487466
1.407071973395106
3.0542798128034385
4.843966581986874
0.2819950115723533
1.2259654887627494
2.6766458084963975
1.049526291100269
0.6672130420774689
1.5963793695310033
1.5963793695310033
5.290560070105951
0.35220759546839564
0.4897673519664593
2.6581210502440022
1.9933499622392352
3.906230515918846
2.6310747547727726
2.6310747547727726
2.1714314738317397
1.8591427118436055
5.263959914278431
0.7912334452298271
4.314686637886235
1.3288593303789626
2.900667204425128
6.970785280705491
-0.231785880240783
2.780968564348203
3.6698570302211753
0.7611706035076506
3.141276272772077
5.468561593467338
-0.4897310935699755
2.2846984301982634
2.857423742913574
3.9303521251862557
2.686480278212531
2.7617981572781787
4.3190440604955755
2.9754760183864253
2.5055058669380506
1.8806744811231393
2.4251080154846365
1.67629141295688
3.065057294610939
3.303946685515177
4.624689279891252
6.00690815288066
5.444555322036068
3.210813844615655
4.018678996029072
2.8061546634916406
6.4119569408025185
8.4886377280225
6.686144988191272
1.6032493738620455
3.5569661459189796
4.566062952606477
3.0902392915014314
3.5525819573134774
3.7470340089902643
3.0110935176936815
2.3919779361493574
2.405616303755951
3.5597449379315202
1.9685752036923594
3.977344681462174
5.552107414608228
5.207052263810872
6.26753863672648
3.5523282445012776
4.040626221020152
6.115098209920589
4.415726703317084
5.3240478917781076
3.3037765798086056
3.997524273996446
4.275402588711185
7.776002934051965
4.989765384325437
3.514504133335431
2.997762253238187
3.4384508197908397
3.5695154438776915
5.580761550382614
3.547272932977744
6.669796054394404
2.8452916908897463
2.2044091746422754
4.316746429455921
6.90736057239753
5.320873793639904
3.069533937060762
3.652310633393077
4.567203424749456
3.8296843230875055
2.2391547956666455
2.7784288701396584
6.67764730729043
5.295929149774305
1.9301475828016335
5.540718543574556
3.14866949708788
5.528881560594481
3.895656393808189
5.309689854361922
3.5023833095923576
5.529877140091553
2.1113489160484797
4.5902537482171
2.744434685863949
5.446744788576013
3.656938812931189
2.176442109099996
1.7206376636990106
2.0704072986550806
4.970892825802958
2.8569540652226664
2.351070811167601
1.2132295897824519
3.6818645428870123
0.25080546965950334
1.162279135435501
3.158816306688413
1.6464117176204405
-0.26581904090120123
2.7282337007415016
2.0852573337173412
2.207020337150394
3.3911570509041407
4.005828182721186
2.3029909547063276
4.431422760234542
4.431422760234542
3.721877501378139
-0.13969647306305025
2.4434257448141294
1.7987786829871613
3.286772484357272
3.0879550398492626
2.7467026207787266
1.633237780604013
3.4489717269957567
1.4903044927728557
0.21851644972691736
2.827097301616779
0.8975005121039614
0.8532182750055689
2.445296044961078
1.5159563717599518
1.8907251317836213
3.0973103318179893
1.3786332520931899
1.9984207649738948
3.8248515140815753
3.8248515140815753
3.753352244342932
0.3409288633741323
3.0274462128583126
2.146661927429631
3.3972703839797256
2.9985709642082066
2.035556533264686
2.6825606700003126
4.725062721416252
2.4132662792183353
0.10338987275783945
3.6126235695651117
1.296044924511484
1.1948195754792525
4.376640537310921
2.8308523758903044
4.1098579331473
4.705382539659061
0.5165906525359348
4.11845253393268
3.2084281534286085
3.2084281534286085
2.090948099964473
3.587711811813174
4.155659959466754
4.084451368105077
3.1336922391991795
3.540256333760857
2.2705537069119384
2.032791314355541
0.14995170191040005
4.703269034546502
4.928804999897132
2.050804440227668
1.8977502359042706
3.4046350426423575
1.9832147382798486
1.437663621421699
4.241441193589094
3.58237594759127
3.161550686733481
3.2736953071365735
2.319757714652257
2.504925368881389
2.857033375116699
4.328269491664754
2.1037339866412124
1.1207044438710327
3.0353756401770613
2.4204366047845802
1.6723530939179614
2.9929233303105116
2.879316978312871
2.2987309458356098
5.191120454481605
2.6684945736490766
2.321933753865993
3.0770537701212013
2.331490654363358
1.6523865438742498
2.4096067152388367
3.197475632406365
2.1914386987682817
5.006014075238434
2.917639775102135
2.1643311299297747
2.5179248497838524
1.784828143787148
4.112540048320273
2.141004673260025
4.456484002530188
5.053384611381476
6.225485805724113
2.6697051626088832
2.0869108777480117
2.2253435141078834
5.009042804349266
4.992354471125276
2.439985462338536
3.4109164239670062
4.135227189217437
1.1083123370273653
5.354439269173096
4.1854392634798705
6.087763181097466
2.388628295949807
4.886113873736458
0.43994210501884673
3.215410951259538
3.2009531195045056
6.255385745551148
3.2956546329530436
7.106824409983103
3.669751384296326
3.4934978773034513
4.5829937866061465
4.402989749224735
3.4244417893222425
2.915160357547111
2.6286624104238467
3.719426420873086
3.929879303350658
2.383215468016934
-0.3916140313838951
4.0236125788207975
1.8259899426456156
2.306508546607712
3.915020351549611
4.325114834536543
2.0542447942518485
1.8945894671768386
4.081668952931123
6.17496431195899
3.726579972838698
4.98940535854738
4.244145383729863
2.338452319379579
6.26832989379536
3.3216594745089467
4.110238803901302
3.5632566725720656
2.3913806851531567
4.881157475087656
1.9722280505467191
4.526993433300236
3.3915646843876077
6.282802587393261
4.034066054672404
4.1489935287791315
4.894445498572734
1.8003841925691142
5.394913758672147
3.118922836084225
4.977887150836365
3.3963134061700644
2.994706291055115
3.859064891817697
1.329991655116283
5.862219653332681
5.111381652348764
8.395107737661338
6.2174655627631985
6.03908713407557
4.402659241413595
6.506970392338298
2.440845580336829
8.834406274807876
4.84502128771033
6.28943989990619
3.827229400243826
6.566041299513099
2.561935800346473
3.979452310512515
3.3164799228295947
4.378048584248251
2.9781010806320567
8.16183587124838
3.743890876550659
1.7123041438973576
4.218977608096023
3.0430600349163113
2.066023762774358
2.9895860858834533
2.787782905200395
3.341359857885046
2.2830444380637127
4.217889773594686
3.715697730849365
3.503047630760937
6.041322839129345
5.680531558140091
4.322660762045804
4.1746604713165
4.130317467473618
5.14266872334999
2.529856447808568
5.33212966115473
3.4959582425114135
1.2471324473538763
2.1244993593784103
1.5263952681977784
1.16334958321347
2.571189720019257
1.7750800764523698
2.5009083523383926
1.838132736186187
2.7038053590580953
3.0780880227862526
3.5661483320995244
6.096655001379392
3.779087982486113
2.1107961823272334
2.442081061500474
3.5737002666731947
2.1919999615317423
3.3240928942832366
5.665248208277077
4.1992804406807505
3.6375744626008797
3.069038821568686
4.976532389851398
4.048686987967425
2.80892668413788
4.677589289553931
3.4089733571908902
3.2519705053212427
2.733388219815746
3.6742337023467386
2.341368461647832
6.348047372389526
5.356391614075883
1.908151851446544
5.318020844348121
4.701187180020235
3.928453569156151
6.140084006581665
4.343767398466014
4.429935668304764
6.718319811199334
5.100818743167736
2.7501880712959803
3.747449041653269
5.377006508935248
2.9650431246654883
2.2465858640687206
5.276091796032266
-0.7977491120542068
5.414627774942371
2.731035542555907
6.0865600932743735
1.3329231428689925
5.852908758263883
0.8368481009310258
3.7733436216535043
0.6281774541268285
7.907196887706516
2.5035648217221573
7.474156976088777
3.2965246256554477
4.81448190157948
0.9456186765385565
1.8972622732198983
4.880818659103289
2.6358411559919377
4.006784864532188
2.5429830935879134
4.537782112145978
3.795192636732458
3.187169869265689
3.260742139360042
3.509084220017949
2.7283632292512014
5.218899503739683
5.373750295431199
3.1330042820361683
4.970282905040329
2.5513201247416597
2.0782878829126923
4.592306827114775
1.5690684839224356
3.6836629326673345
2.2005708098098715
2.617469966855457
5.8493543037533176
5.627403937901206
4.222903641446655
3.875530459973229
1.495624786806183
4.971992124421172
4.381405554349046
4.197549792721699
2.4612462426832047
2.0665642204794374
4.596682737028241
3.382482612572258
3.2871563408355087
2.473878579288505
3.8316837636869208
3.2636235927998634
-0.38837315771079484
2.8886185909356
1.82312171343976
2.8957481640328773
4.9816447464329805
3.7320666925573645
2.504283749301333
1.8616797720485714
2.2869942645165184
4.049394300536362
2.077101690728171
3.4752558176628106
3.8060391193129055
3.9762490551821865
2.683897127195416
2.330725477688293
2.640974810327404
1.786595323369366
0.37198164566831166
3.2465332928264448
3.6984330956398406
3.2515120217713105
2.654800155133741
3.1792119217458263
3.367890322716068
3.432423374990562
1.576208467916938
3.260751973958254
-0.45530112835645953
3.428244373743753
2.6132040817010598
5.876864069399577
2.3232857311631308
1.5993187863979073
2.8194306488553806
6.930155460410855
5.2584400456013
2.3587742422481575
2.938330530965127
5.132891666975546
2.2726267360268433
2.0562579027375105
3.243116760265771
5.228738677398814
2.306286142005545
4.110478351851323
5.677950207698301
4.3568412430144665
4.1668963463090405
6.112592544873055
3.905097178475288
3.078928366852133
4.888316505636952
1.7319025673974155
2.7733857520845535
5.087649243650419
2.9013886935403614
3.184171528750372
3.9738625798854863
3.710242139532613
1.9395368992120656
4.413946773280256
4.69557578506327
2.5486748128357535
3.4000630022059695
3.995808699852737
4.701495964607099
2.6058016307395944
0.8876490269479725
6.518787169665431
3.1463408291523645
5.781875899074057
3.232741579333448
3.4524161126591157
3.232741579333448
3.4524161126591157
5.199898873453807
-0.04643580959671381
0.9631177479158195
8.610538852243096
2.418149956390984
5.240818489059901
1.174519927001621
8.672986847529542
3.4000630022059695
3.995808699852737
5.234771176183512
1.8346183645439067
5.537932476383545
0.32776382196145765
3.686235904033758
4.14236142432426
2.9715493800148036
0.7934384067977569
0.14986272376850204
3.9651123291957244
5.528916751829931
2.306833474720417
0.8668614791373298
2.004481180561449
3.6724558646105425
4.051562410712657
2.7694467057849623
1.9231910533477865
1.2931483490872069
3.304997350291281
2.224775404777108
4.626036225534128
3.3305266991454716
-0.9486101236799626
3.2103561743898585
3.515716159927603
5.335501548047642
4.57571652770701
2.3679662912513866
-2.2884485457426
2.0639440105700704
3.8401013399936583
6.464054362751822
3.7094098049032964
2.207024032779278
3.516315868811579
2.9658744398805243
2.9049843681439635
2.8215384984447347
2.678291225825121
2.9737692896012247
5.023684933710981
4.513979590514371
2.0834448846561404
2.9105205746001888
2.1378907241599188
3.3812870518555793
3.098137892951197
4.869989041691455
4.684014071549586
4.096815872916155
2.726189934180619
3.6133419910833977
7.016309916252648
7.955405864926386
5.070556153097755
2.314387263501366
2.1232503233972735
3.30787855168155
5.001854715359361
2.507275586474018
4.241796316189706
3.746247536203972
3.705674313911143
2.513299540173962
1.8446896119715892
7.2293769257995875
2.2081010334799798
7.4419064343162615
5.413894514206669
1.6011272070285496
7.084508046971963
3.112239204112676
3.896840963043193
7.077789376044246
3.546200740724269
0.8489933895637685
6.608054288474294
5.410758801295048
1.7204613269050149
1.769224688062525
6.650781124769196
5.298312624923813
5.807819565109231
1.75256791685338
8.11875472360027
5.974962544473496
8.033766485938033
0.5262840920904927
6.831299908515822
2.3979794184580845
2.4676767341041748
6.948279184213877
0.8473285217961949
8.048006283480706
1.5584097278560434
1.6556349894879203
3.6477245297232144
1.453491641649166
6.780312230081766
2.5080485092498237
3.1706425852749685
1.2223055542181054
3.61579408942943
2.87132932312127
4.044425667229685
5.896355307950208
3.269315226378222
6.760825096247833
4.901433141302397
2.701679889254391
4.809649211212246
2.0631164856687256
3.5064531848309337
7.250691102101882
2.975187771499458
4.635319105543952
3.072042029083299
3.529382781231245
4.867846531794212
6.556431955056824
3.164004681522161
3.6142156083609547
3.676805688436624
4.043523232155215
5.24658778458848
4.1817696603164025
3.0834134527706247
5.174927100396193
3.2286473802727222
4.004245060614375
4.2950179687020595
3.4128951179951623
3.710737409778883
2.9460479845847587
3.368016271859013
5.274455259956529
7.395813627103489
5.930726494854191
2.9493208447301575
5.756199292818812
2.7232070496125673
3.1522164576712264
3.3199246473633037
2.786113532752468
4.897101701897982
3.8864572666912625
4.365427039949597
4.954879979916511
3.2064276920592127
3.888946817182484
2.6230357943509204
5.705561888095421
4.246462877040359
5.32119723226327
3.2571285022584933
3.7728819327695606
3.5398696664326796
3.072474325708148
4.032846568597097
3.203416991574307
2.8851786573944698
4.313282035438701
3.0307813882057943
2.904200197644897
5.080773235432163
6.603456465424617
2.667972734784296
3.1814761106225418
3.529297895851111
3.3412372778057837
6.436250616190935
1.4412556291720542
1.474477152789507
6.032527467012094
3.6101887699638
3.3544598911938577
6.2106067032912495
3.4236141712537984
2.489539598881577
3.1716174688588166
3.150561791293924
3.5999161316830794
3.288874128682162
3.551572224740957
3.2644022717404257
5.0775877066042705
2.871193422154063
4.916079052907843
6.547813465197369
3.636601631657501
3.680127412964995
3.506682642008583
3.9474443858215276
1.9389122356660813
3.533543223294315
1.8150365717308539
3.3491700759544596
6.095880374835199
3.3782773365036847
3.9409650487021253
1.7305960164362975
3.175431049219053
7.709252412775663
2.5281650025709386
3.707244543458663
5.012342900208076
2.8922296032702075
4.737252270408925
2.3283757539131056
2.2691798798183576
4.015017551617728
0.6471178437943201
4.459352773384283
3.370429452189751
4.048004343603261
3.5254738223223
4.284902587733333
4.231745064629628
4.483612520849362
3.691670648089505
4.550552160786356
3.3826504397424553
3.406720865279225
4.966867058620738
3.3692968717683773
4.132584281184901
3.0048840784736868
2.795937045596045
4.015652136062602
2.53257175130692
2.620129169679965
3.0662579396646144
4.819843805751843
3.0726875360800596
4.218861571351912
3.2519686365755733
3.4408173135889895
3.87317448294806
5.609461358691374
5.903810504214921
3.515822231605539
3.030219748658085
4.229173756828147
3.9558214587215996
0.5649575945239953
2.8623094460911562
6.032009483380357
6.080758261663811
6.679951910166472
4.2713957029826375
3.515375654328228
9.319055689312684
4.472849953630458
6.489433562220011
4.921699662151351
2.3472616511063484
4.114424519173052
5.871493163593117
6.968734542468147
8.15114190820998
7.779750955593644
4.595429664119306
2.287597346600653
6.404893473267787
3.1508454369105787
2.726777843565845
6.271867560650925
3.9687754986722066
3.9551482302792054
4.780259245728176
1.5560694997103683
5.5833219018113045
2.77061272257164
4.457106310192174
2.70096994440062
7.842277586691766
3.6349723089991577
7.157050246892439
1.5111003744336684
5.605700950734441
2.4977862987228554
4.865824703694657
2.844439495944757
6.739141036488364
3.022123979468511
4.803346058179175
3.2519686493544113
9.054938228786904
4.845969540257254
5.277784447312052
5.339294801365878
3.2435388166479466
4.923780230509961
2.2361943208307196
4.6729840377854766
4.889894176969662
3.5135441528907276
2.646191741938691
4.007849943626839
4.020881705816695
2.6500563664279944
6.108849437952554
6.023779469851286
1.4707416654862528
6.304513140806099
4.7771808599325105
0.9037846115461226
6.1977412919016555
4.304117264849966
3.4025992784420223
3.846764648677351
8.599812874650057
5.179968490714318
5.5137776511071435
5.621354862688466
2.815703806987918
2.2471708810219058
7.360114196526544
2.65307616184932
4.630039584159449
8.00086413847674
1.7534588472135615
2.522518209331929
8.54661553063153
1.4837771533978306
3.5711615761597906
9.62015143521217
4.511956990029701
4.2967941413307456
4.8112030315405825
7.720180260983123
4.0920290967817605
4.689900405680267
3.2346693235907646
7.051109579633786
4.822650167096625
5.4720885025069075
2.874352449953992
7.205024313067101
5.945642579528084
3.880671000136111
6.338428877286712
4.914672668502173
5.377778459354569
2.983494868094212
4.6162595206815675
2.926939091589268
3.270749690743546
8.399136784937477
4.0220218472147735
7.963600702529072
2.2068301648327373
9.177689833957091
0.5096435677618687
7.317792229540262
3.5407786894217255
6.8460504864857645
4.393187110667174
4.54879275812431
2.512740076839279
9.5271113148165
1.5096346870956456
7.450769434561502
1.9500803552444523
7.592107738081318
4.175513780229791
4.578961097494152
2.3806135881037966
7.735806243597861
6.646159186576821
5.0546425662529355
2.4662044529413043
7.957275036380331
0.36623010871748307
6.592454080289501
3.3750835727257122
4.009695084373681
8.645016246312066
4.568527618779765
9.176297274950254
5.910207343820547
3.7576022498982793
7.957351931080316
6.298627488069848
2.8435504590715417
7.1390059806939465
3.230645615267644
8.053888238682568
8.330460268377793
1.9711206388629536
7.181445419356712
6.988596112726047
2.5484965070472794
8.10493358756672
1.1694525195290808
7.061843491701996
3.123946616994171
7.039109227368277
3.1115696756507147
9.599718018063411
1.9295415488740115
7.356797680845227
4.923210079154284
4.9093313260291875
2.2287890158670702
8.296579030685523
5.072583548683237
4.791187365712779
1.5079902481861729
9.506513946593776
2.8991076639148283
10.475915680323464
2.3723519635837507
7.3215311192629065
1.8792507399614296
6.921081788499146
3.3473077219965948
6.920319018298453
4.058634863333386
5.836506586880779
5.0179397648903485
4.89775117252788
1.807517675755368
6.432706904770438
5.889309501424604
2.374884912964493
4.214776342937538
3.319798669276713
2.7618432218934954
8.621069685924349
8.119782260712137
2.6823406838107138
8.883285970076212
0.9250026090331034
6.992850622802909
2.6803434005057647
7.0810167178273025
3.4397631639699537
9.130822872934441
2.1299829465142053
9.795909679449247
2.2025386423160564
9.406517171602465
4.241225060986927
7.528788544898461
4.859252908174036
5.6009712546675665
3.4821643487715184
4.677773221813981
3.801043840420226
9.528133003005962
3.1819883228047825
9.790759989111686
5.023479651376436
8.010811836609163
3.6680731157238786
8.824671040645487
2.5018323309777046
6.858088647538964
2.4494645472510777
8.69277993194769
5.3015641893553624
4.336067199921789
4.571804805121849
3.144696474144418
3.4721786464525355
6.9550910032846085
6.9550910032846085
3.6808486781914587
7.57309439344712
7.57309439344712
4.689170950966194
7.0559149873183
7.0559149873183
3.009347330692985
6.423055726462718
4.782824603041908
5.874717984641497
2.727532846207656
10.062400257584809
4.598338791128131
5.843158502884677
3.4548012163489847
7.153846852246857
4.598338791128131
7.279151690125072
4.983943865395039
4.422348752686834
3.601690344651546
3.232566646939764
6.638982474608833
1.588296222770404
5.210481835674176
4.1880035218259195
4.002778327986136
9.671407395920571
6.289249228940437
7.28343605547267
3.827084085393349
3.0005633973211117
5.211384474887384
5.211384474887384
5.135859659541353
4.713420346847867
5.211384474887384
5.135859659541353
3.827084085393349
5.423898480901572
3.0005633973211117
4.713420346847867
5.530345759026432
5.968893809689443
7.193579702830057
2.283953617682391
3.487257908760272
4.154166628600361
4.109004947158948
2.3136351943465887
5.271417605425573
6.618344742083607
8.983363866876871
6.4733201704322125
3.363331892230911
4.729879010667827
6.008334674277164
3.534244095499533
6.036970028428587
4.8029739622349465
4.49632110915525
4.943788551986855
4.8568788379189085
3.534244095499533
3.3679560520773877
3.992513830231697
0.822045182488662
1.660515959108896
0.5766860781805278
5.828372060918489
1.2281403274937492
0.821432602318969
0.4145931414519819
6.234472050011275
1.6029663397243923
1.9468894652829265
1.1841411902487238
6.961683585555895
5.505398273099233
1.1311734562502478
7.648205476231326
2.288107981100108
5.728542559300511
2.318919738424688
2.5745691515266462
2.440976597143038
6.7566661678826865
2.8262068863817262
3.171483379679539
5.762598493748666
4.165172024942851
3.0451020954817194
8.832271333519284
9.064600784888691
9.400028250316089
9.163688562404396
3.991081476276591
4.628013451286135
5.128100171630151
9.09680948201442
4.499422626591659
5.035966088522199
4.893789646638699
3.803166085099795
3.8531666070577146
4.387563144927416
3.803166085099794
7.474315075639764
4.628013451286135
4.893789646638699
6.695930407731806
0.26222616755373507
6.711021154892112
2.9954916918696486
5.7872254398310465
6.2212083882079865
5.039818701714396
2.157922847269615
7.749560858452192
4.684418579838146
7.328358894664228
2.0988301832287832
3.90364452419818
8.986170807255032
2.8130715532042747
6.305087251290381
4.352475519647497
2.9114310622430883
2.2010790642089453
11.13429351583316
11.164280237751319
11.134293515833159
11.164280237751319
6.354921887490616
3.4189197037466865
3.0141652972862047
3.872351825808897
3.7796820240342335
4.333485040577662
3.872351825808897
3.4189197037466865
6.354921887490616
4.511796128056008
5.740784177829925
7.764284617276842
8.64743587273315
4.422135011552661
8.954564741311678
6.986322600359394
3.203053889268196
3.889516304415225
5.590973990133128
7.63373367913634
4.163859216603148
9.688159108410845
4.700948676039662
9.924006045967012
6.7129992599470345
3.856170493534633
6.7129992599470345
8.215858443391122
3.9910548903829355
3.9984189399371672
6.712999259947033
7.072086593197976
6.712999259947031
3.6794089067444133
4.019213874776562
6.712999259947033
7.658206711463657
6.712999259947033
6.712999259947035
4.037636806015979
4.028031200268491
3.9709647297532387
3.578551020724815
4.017890619943092
6.712999259947033
6.712999259947033
4.040463245865908
6.712999259947031
4.049396315530308
3.870585527250195
3.9045296126373006
6.712999259947033
3.9969096788404936
3.8237855349101952
5.044370869304114
4.409959101530677
4.047068182613673
4.068720198713374
3.922372767089749
3.9991897578703104
6.712999259947035
3.9352573960828967
6.0041291826344345
9.630363514007406
4.394910539672019
3.7810541819031025
9.630363514007406
5.127787630169036
8.054115469814507
4.379471634782643
8.228776488513978
3.2874259905818084
4.490728763520931
2.8696233758743865
4.490728763520931
3.606561005411001
5.762622082945263
6.760471356948731
3.8535441860070505
3.7646117701910096
5.654584320717309
4.018623434220698
3.606561005411001
4.264786903248392
3.7646117701910096
6.036970338411644
3.2874259905818084
5.366303009648144
2.831328452665302
4.938382613356552
3.3186786694993056
5.657078494467621
5.030503119429635
4.09322638636958
3.0342463089198746
7.300530823971096
4.379471634782643
6.833927100053856
5.219847957727633
6.268706750013594
3.605163296066682
2.930970269013027
2.8696233758743865
3.9214941987674594
3.073682423731512
3.8218476549758145
4.504168191703613
6.679823012034222
2.930970269013027
7.300530823971096
5.046290503571434
7.052941853103762
6.437950319949865
7.428572331659512
4.1854915502486465
4.101056355671921
3.2874259905818084
5.450769791830504
3.9214941987674594
3.2874259905818084
3.8535441860070505
3.2874259905818084
3.9210711026860134
5.974226789496921
3.9210711026860134
3.378037033019711
4.101056355671921
3.3082143003136277
5.160462674422966
4.0463719338944975
2.8191939896350213
6.004620251358238
2.480302598646933
7.576082018417994
2.814245393896986
6.25367415834098
3.2050505521288986
6.36090788454949
5.51902430029596
1.939715402718191
6.266617876528023
1.181614625090283
2.945459056123861
8.178959595686502
4.411369966564779
2.785122129368888
6.667077529253704
2.636152562230263
8.408859235683973
3.481506373013616
6.40279061356333
2.9842461694179936
6.223531617965582
1.759588763609124
7.050169260736216
5.89610875335316
3.4180975321586335
9.019870976464016
7.455342175986073
4.2920960496777925
7.583152334121411
3.6409387452246817
8.433132001570423
3.521390708676151
8.714178488241512
3.801490330628035
9.90135425865519
4.13443289578473
10.091651785857552
5.0994130285964925
10.71866275890699
4.731182226151743
9.51011209948683
5.334279086889038
4.396833479623664
9.94931927482695
8.946210983120674
9.949319274826948
7.417251792951707
3.2165829416542477
7.989706504307253
7.61889752662029
9.002161870180737
7.778697509379614
10.00518829192542
7.723904642787744
7.081288608898475
6.240036805049919
6.901884872462721
7.253503131065638
7.6363248852423204
5.801144907103605
6.544392425274148
3.8964364242365828
5.858267002922324
7.081288608898479
7.081288608898479
4.673672431143756
7.400677526855809
7.042883294807768
5.81955451186031
6.208035337094413
3.6571629204941067
7.001927392978496
7.081288608898476
7.661065544176045
3.8558108281531376
4.195571778382783
5.769597626651421
6.998142421011737
8.180032427251367
7.081288608898479
5.536034466209182
4.728750425448888
4.700899960520319
3.8563426792874247
7.05257565853495
4.026267361121228
5.041822420798178
4.029859905661978
3.432809553906193
9.176078543753013
3.4515868925608393
3.354811515057341
8.571441875793266
4.665394917058446
5.543009350120119
8.095680217194202
7.334516429256117
6.368131816620611
3.3470903217836905
6.144025383129849
3.858896110254126
3.2809668708853237
6.368131816620611
3.2809668708853237
3.3776516122277735
6.368131816620611
4.928259818876148
6.65943227165434
7.2031108775292445
2.9401204952885127
4.013729455814943
6.406602119276309
3.283952701413663
3.3753863030783617
8.341380463132916
6.6694440076893535
2.4618537498640856
6.908168476828579
3.647944635058384
6.295119171431654
4.321976704002349
8.187401722392762
5.467608952262691
4.848705179044472
5.960492682250729
5.1839093201750694
4.052910576830459
6.881689871773869
2.0991019181616335
2.3762485158112425
6.535211345913168
9.210789592359225
2.170019432826807
6.6166543551891275
7.821038888295756
3.777684106772796
11.473011146929103
8.499889755363167
5.187260675204632
6.085210565362092
11.134293515833159
11.164280237751317
8.899844018577085
8.924127118354763
12.850224626999532
9.320622807497092
6.432708032903664
7.479802696526046
5.679469987353983
4.488510143539341
7.602675103677054
3.346017838468771
3.7808366227526884
4.2301189596819055
2.789292127807901
7.823878156837912
4.122344823363677
3.7808366227526884
5.606034785447339
6.210290015668495
6.1239340710921235
6.054473535575105
3.450035400157718
6.137778877556141
3.4572983020919867
3.7808366227526884
4.335999627053876
6.684688329365139
7.850759640099126
2.8117352734767187
5.5025545264734195
6.16235451573811
4.60178909857199
5.361690356464996
6.4344821938621966
3.203422687535624
4.814365294107297
6.004134038741239
4.4750042234980905
5.61499588055308
4.990440061487776
7.067232202113078
10.187008980786578
6.758642603173632
5.179551696004781
6.325102699216468
9.314615666664167
5.0339456035784185
9.449712832388393
5.606407164011015
9.351421022234776
4.401798508996685
7.102441919576347
11.13429351583316
11.164280237751317
6.9624809189741335
7.539590178149377
3.677991241147334
8.276877899861367
4.356306491436982
3.7476711515611854
7.56041121282409
4.356306491436982
8.441205641155697
4.321303285564096
7.83353797867329
4.321303285564096
11.164280237751317
11.13429351583316
9.456540544066787
8.437631500144864
7.013457082508586
3.5376630172342862
5.317758304418353
5.415903690343572
9.692506951110161
6.665356032325935
6.291985215425526
8.72631924669608
6.765517906015054
5.777776026156526
3.5059097590684765
3.285585574326202
6.552290742555558
11.164280237751319
11.134293515833162
7.296666864574776
8.779733810521012
5.8725325711826075
7.147674496650496
7.701101667543081
3.943321596414962
9.473859501005975
5.178134611328903
7.543975521422791
10.454789012901037
5.254655127860931
5.254655127860931
10.01971885691524
10.479886812033767
9.75968134171961
10.460528547229412
9.669998199522173
9.467354891396948
10.046735563934783
10.328650941075463
9.635037192553341
6.806123154980208
4.627967360241074
8.750260599258464
8.611712832637455
6.161331292237499
8.360375207565761
10.977757046526582
9.019659008113617
9.714627213513003
10.184497793524507
11.164280237751317
11.134293515833159
8.925888385447006
6.294942006710919
4.097183014644532
5.173361147101265
8.503666815710183
6.180907241839601
8.320359772586507
7.3909350768639825
7.524959967745294
11.883899373155378
9.964970006649242
11.164280237751319
11.134293515833162
10.325104738811696
3.6709971779189887
9.142208990068863
8.961632095468246
7.70372011556472
10.071786962122058
10.119757785154418
8.411303901434053
11.046945516752281
8.141516518930942
9.142139678610318
8.459549266933678
8.02144630084356
9.467619520742199
11.443430836377502
6.375242749934797
10.600323739577387
7.807146800075194
4.120278869415819
4.128741129397105
3.730142122684645
3.723588457210295
3.730142122684645
3.723588457210295
5.492053087057304
8.246846546701041
4.120278869415819
4.128741129397105
7.556191764070325
7.198028985133518
11.164280237751317
11.134293515833159
11.134293515833159
11.164280237751314
9.816487550623117
9.71591085213272
7.143234853481302
9.667305207656979
6.705838947283261
10.4527729746063
10.4527729746063
10.487614720080629
10.487614720080629
11.164280237751314
11.13429351583316
9.743861747406505
10.29045565725725
10.487614720080629
10.487614720080629
10.452772974606303
10.452772974606303
5.697970079945281
7.703852822697918
6.961925821960988
6.949076196653093
5.960866330969943
6.949076196653093
6.814479710308653
6.549871859096306
5.7160548602296535
5.927586802252777
5.2429698016996635
9.70191683714124
9.99031829276915
11.240736828634535
11.134293515833159
11.164280237751315
3.6709971779189905
9.142208990068863
10.325104738811694
9.225891382235954
11.676823984855751
9.892942419915833
7.330781057860908
6.546449185978528
8.684200303438562
7.840305980589541
6.602014613229104
8.314274835256345
7.349279280883999
3.4886856813875324
9.200364612152736
7.051167563333823
6.6989347552069285
6.465418332931391
7.755068426687037
5.502059937723173
4.485836391742328
3.67099717791899
10.325104738811694
9.142208990068863
8.19280217390133
7.94390121219886
9.170556630604102
11.31724129672181
5.245002242105912
5.6339475554103435
5.245002242105912
5.6339475554103435
10.452772974606301
10.452772974606301
10.487614720080625
10.487614720080625
10.325104738811692
9.142208990068864
3.6709971779189914
9.891021548507617
3.8383957033412734
8.17277335470517
9.891021548507617
8.17277335470517
3.838395703341273
11.134293515833157
11.164280237751315
8.475431147282883
9.496196631305686
9.669281365564922
8.70659920513286
9.490301950627709
4.17492147737299
8.627642137191122
3.5417517804014733
4.31648784765609
4.31648784765609
4.17492147737299
5.940954077698411
6.704512502446709
7.179838815699067
11.164280237751314
11.134293515833157
8.596441444067285
6.503487893720491
8.128674941236344
10.217855605913678
10.636550954658485
10.576453242215898
9.142208990068864
10.325104738811694
3.6709971779189905
9.142208990068864
3.670997177918991
10.325104738811694
7.1138140543528685
3.9965624428909727
9.374829483037324
11.697473185663537
11.754256607325106
10.563497691725821
7.035403874844208
8.386115757451801
6.840951619075812
4.524263620372718
9.548620200496655
11.164280237751314
11.134293515833155
11.134293515833157
11.164280237751317
11.164280237751317
11.134293515833157
4.729070841682826
9.715303068789162
9.243540996212412
6.435118722325118
5.259709773506442
11.134293515833159
11.164280237751317
3.9337924845722205
9.596306304052472
7.554583453234084
9.891021548507613
8.17277335470517
3.838395703341273
11.134293515833159
11.164280237751315
9.142208990068863
10.3251047388117
3.6709971779189927
11.164280237751315
11.134293515833155
7.776650775094139
7.192403965925617
9.153447296839449
10.875478365859014
9.351256740036499
9.142208990068864
10.325104738811698
3.6709971779189923
9.142208990068864
3.6709971779189914
10.325104738811694
8.320359772586503
7.3909350768639825
8.618276454582894
7.543653083977616
6.769695275440513
11.134293515833154
11.164280237751314
10.087196868657957
10.229164565450814
9.69216226084431
11.164280237751314
11.134293515833154
8.423064161777607
8.902704367638181
5.879671535281767
8.569170351954302
3.6751669684345813
8.325574791114828
11.164280237751314
11.134293515833154
11.164280237751315
11.134293515833155
9.792400926106428
9.695272743897672
10.046894466823893
9.327801765972742
11.694400821760118
10.153416016240078
8.454649063042147
7.979737475550609
7.421791368601666
11.134293515833157
11.164280237751315
9.019659008113615
10.977757046526584
11.164280237751317
11.134293515833157
10.668236361286894
10.823089466202712
11.425278775908987
11.134293515833155
11.164280237751317
11.164280237751317
11.134293515833159
10.452772974606306
10.452772974606306
10.48761472008063
10.48761472008063
9.019659008113612
10.977757046526582
11.134293515833157
11.164280237751317
