GIS
1
0.0
422
c
chesterfield_and_fifth
chesterfield_road
south_hills_junction
polish_hill
south_side
kennywood
duquesne
forbes_and_morewood
forbes_and_murray
squirrel_hill
to_squirrel_hill
waterfront
centre_and_negley
shadyside
tomorrow
friday
pm
g
dontknow
ambridge
mckeesport
a
east_pittsburgh
downtown
craig_street
wilkinsburg
from_downtown
pittsburgh_downtown
to_duquesne
today
leave
oakland
mckeesport_transportation_center
x
from_oakland
pittsburgh_airport
braddock_ave
braddock_avenue
swissvale
to_swissvale
homestead
mckees_rocks
braddock
kelly_and_trenton_avenue
kelly_and_trenton_ave
eighth_and_ann_in_homestead
from_eighth_and_ann_in_homestead
to_mckeesport
to_polish_hill
dynamo_alley
from_dynamo_alley
north_braddock
thirty_sixth_and_penn
airport
to_oakland
mount_oliver
to_bloomfield
bloomfield
am
from_duquesne
eighth_and_ann
arrive
im_at_downtown
to_the_airport
the_airport
fifth_and_bigelow
pittsburgh
downtown_pittsburgh
downtown_pittsburgh_downtown
pittsburgh_international_airport
to_pittsburgh_international_airport
coal_street_in_wilkinsburg
b
oakland_avenue
from_oakland_ave
oakland_ave
from_oakland_avenue
d
tuesday
from_homestead
noble_and_washington
fourth_and_hawkins
monroeville
to_monroeville
to_downtown_pittsburgh
forbes_avenue
forbes_ave
liberty_ave_and_herron_avenue
liberty_ave_and_herron_ave
liberty_avenue_and_herron_ave
liberty_avenue_and_herron_avenue
centre_and_craig
bell_and_jones
mount_washington
regent_square
to_regent_square
liberty_avenue_and_thirty_sixth_street
liberty_ave_and_thirty_sixth_street
liberty_ave_and_ella_street
liberty_avenue_and_ella_street
penn_and_main
carson_street
next
saturday
rankin
north_side
to_south_hills_junction
k
twentieth_and_east_carson
from_wilkinsburg
c_m_u
sheraden_station
robinson_township
u
braddock_ave_and_fourth_street
braddock_avenue_and_fourth_street
swissvale_station
to_swissvale_station
lawrenceville
to_waterfront
hawkins_village
homewood
kennywood_park
to_east_pittsburgh
murray_and_forward
washington_and_noble
e
beltzhoover
allentown
from_woodstock_and_melrose
woodstock_and_melrose
to_bell_and_jones
from_waterfront
childrens_hospital
to_childrens_hospital
f
from_kennywood_park
carnegie
murray_and_darlington
duquesne_boulevard
from_pittsburgh
im_at_pittsburgh
eba
fifth_ave
fifth_avenue
to_bausman_street
bausman_street
fifth_avenue_and_smithfield
fifth_ave_and_smithfield
the_north_side
talbot_avenue
talbot_ave
to_homestead
forbes_and_bigelow
from_south_hills_junction
monday
fox_chapel
sharpsburg
to_mckeesport_transportation_center
second_and_grant_in_duquesne
bell_avenue
bell_ave
im_going_to_duquesne
going_to_duquesne
jones_and_bell
from_jones_and_bell
thirty_first_street_and_penn
browns_hill
from_woodstock_avenue
from_woodstock_ave
woodstock_ave
woodstock_avenue
to_downtown
from_bon_air
bon_air
ingram_station
from_ingram_station
from_carnegie_mellon_in_oakland
to_airport
im_going_to_the_airport
im_going_to_airport
carnegie_mellon_in_oakland
carnegie_mellon
from_carnegie_mellon
clairton
to_clairton
to_wilkinsburg
west_mifflin
im_at_west_mifflin
to_west_mifflin
going_to_west_mifflin
from_mckeesport_transportation_center
east_carson_street
from_east_carson_street
to_pittsburgh
mifflin_and_kennywood_boulevard
crafton
sunday
forbes_and_braddock
from_fourth_and_hawkins
dynamo_alley_in_east_pittsburgh
to_dynamo_alley_in_east_pittsburgh
to_pittsburgh_downtown
park_plaza
to_thirty_fourth_street_and_liberty_ave
to_thirty_fourth_street_and_liberty_avenue
going_to_thirty_fourth_street_and_liberty_avenue
going_to_thirty_fourth_street_and_liberty_ave
thirty_fourth_street_and_liberty_ave
thirty_fourth_street_and_liberty_avenue
forward_and_murray
liberty_ave_and_millvale_ave
liberty_avenue_and_millvale
liberty_ave_and_millvale
liberty_ave_and_millvale_avenue
liberty_avenue_and_millvale_avenue
liberty_avenue_and_millvale_ave
penn_avenue
penn_ave
hawkins_avenue_in_rankin
hawkins_ave_in_rankin
im_at_sheraden
murray_and_forbes
coraopolis
from_lawrenceville
forbes_and_craig
fifth_and_atwood
eighth_ave_and_ravine_street
eighth_avenue_and_ravine_street
henrietta_street
murray_and_forbes_avenue
from_murray_and_forbes_avenue
from_murray_and_forbes_ave
murray_and_forbes_ave
forbes_and_murray_avenue_in_squirrel_hill
forbes_avenue_and_murray_ave_in_squirrel_hill
forbes_ave_and_murray_ave_in_squirrel_hill
forbes_ave_and_murray_avenue_in_squirrel_hill
forbes_avenue_and_murray_avenue_in_squirrel_hill
forbes_and_murray_ave_in_squirrel_hill
moon_township
from_mount_oliver
schenley
from_downtown_pittsburgh
east_liberty
edgewood
oakland_ave_and_fifth_ave
oakland_ave_and_fifth_avenue
oakland_avenue_and_fifth_ave
oakland_avenue_and_fifth_avenue
oakland_and_fifth_ave
oakland_and_fifth_avenue
wednesday
from_north_side
to_penn_and_main
south_eighteenth_and_arlington_avenue
south_eighteenth_and_arlington_ave
south_eighteenth_and_arlington
murray_and_flemington
south_aikin
from_fifth_and_chesterfield
fifth_and_chesterfield
from_fifth_and_atwood
magee_hospital
to_magee_hospital
beechwood_boulevard
from_melrose_street
melrose_street
to_greenfield
greenfield
fifth_avenue_downtown
fifth_ave_downtown
hill_district
smithfield_street
beacon_and_murray
second_and_grant
university_of_pittsburgh
to_forbes_ave
to_forbes_avenue
lysle_and_coursin
from_lysle_and_coursin
murray_and_beacon
twenty_second_street
strip_district
the_strip_district
to_strip_district
from_south_side
the_south_side
north_ave
north_avenue
to_shadyside
uptown
to_south_side
from_beechview
beechview
eighth_avenue
eighth_ave
from_east_pittsburgh
penn_hills
im_at_oakland
from_kennywood
east_mckeesport
negley_and_walnut
rebecca_avenue_and_kelly
rebecca_ave_and_kelly
im_leaving_from_munhall
from_west_mifflin
munhall
fifth_and_sixth
from_fifth_and_sixth
from_sixth_ave
sixth_ave
from_sixth_avenue
sixth_avenue
carnegie_mellon_university
morewood_ave
morewood_avenue
going_to_carnegie_mellon_university
to_carnegie_mellon_university
im_going_to_kennywood_park
from_hawkins_village
wood_street_and_fifth_avenue
wood_street_and_fifth_ave
liberty_ave
liberty_avenue
hazelwood
millvale
grant_street
mount_lebanon
wood_street
braddock_hills
forest_hills
murray_and_hazelwood
from_murray_and_hazelwood_avenue
murray_and_hazelwood_avenue
murray_and_hazelwood_ave
from_murray_and_hazelwood_ave
corner_of_columbia_and_edgewood_ave
the_corner_of_columbia_and_edgewood_ave
corner_of_columbia_and_edgewood_avenue
the_corner_of_columbia_and_edgewood_avenue
to_kennywood_park
elm_street
port_vue
from_north_braddock
p
carnegie_mellon_university_in_oakland
forbes_and_halket
to_rankin
from_airport
friendship_and_millvale
shady_and_fifth
im_at_shadyside
from_shadyside
millvale_and_center
edgewood_and_lacrosse
fifth_and_market_downtown
from_fifth_avenue_and_smithfield
from_fifth_ave_and_smithfield
loews_theatre
baldwin
carrick
im_leaving_from_east_pittsburgh
im_going_to_swissvale
to_braddock
im_leaving_from_amanda_and_arlington
to_centre_ave
centre_avenue
centre_ave
to_centre_avenue
climax_street
howley_and_main_street
going_to_craig_and_fifth_avenue
craig_and_fifth_avenue
going_to_craig_and_fifth_ave
craig_and_fifth_ave
eighteenth_street
from_squirrel_hill
kennywood_boulevard
swissvale_and_walnut
walnut_street
rebecca_and_coal_in_wilkinsburg
from_forbes_and_murray
fifth_avenue_and_atwood_street
fifth_ave_and_atwood_street
to_brownsville_road_in_mount_oliver
brownsville_road_in_mount_oliver
dormont
im_at_east_pittsburgh
west_penn_hospital
to_pittsburgh_airport
from_market_and_fifth
im_leaving_from_pittsburgh
im_going_to_pittsburgh
atwood_and_fifth
im_at_kenmawr_connector
kenmawr_connector
castle_shannon
waterfront_in_homestead
from_fifth_ave_downtown
from_fifth_avenue_downtown
north_shore
from_mckeesport
craig_and_forbes
plum
from_braddock
im_going_to_childrens_hospital
from_hazelwood_and_murray_ave
from_hazelwood_and_murray_avenue
liberty
to_mount_oliver
wood_and_sixth
federal_and_north
going_to_kennywood_park
ravine_street
to_fifth_ave
to_fifth_avenue
from_swissvale_station
going_to_braddock
swissvale_station_in_swissvale
from_swissvale_station_in_swissvale
303
36 0
3 0 1 2 3 4 5 6 7 8 9 10 11 12 13 14 15 16 17 18 19 20 21 22 23 24 25 26 27 28 29 30 31 32 33 34 35 36 37 38 39 40 41 42 43 44 45 46 47 48 49 50 51 52 53 54 55 56 57 58 59 60 61 62 63 64 65 66 67 68 69 70 71 72 73 74 75 76 77 78 79 80 81 82 83 84 85 86 87 88 89 90 91 92 93 94 95 96 97 98 99 100 101 102 103 104 105 106 107 108 109 110 111 112 113 114 115 116 117 118 119 120 121 122 123 124 125 126 127 128 129 130 131 132 133 134 135 136 137 138 139 140 141 142 143 144 145 146 147 148 149 150 151 152 153 154 155 156 157 158 159 160 161 162 163 164 165 166 167 168 169 170 171 172 173 174 175 176 177 178 179 180 181 182 183 184 185 186 187 188 189 190 191 192 193 194 195 196 197 198 199 200 201 202 203 204 205 206 207 208 209 210 211 212 213 214 215 216 217 218 219 220 221 222 223 224 225 226 227 228 229 230 231 232 233 234 235 236 237 238 239 240 241 242 243 244 245 246 247 248 249 250 251 252 253 254 255 256 257 258 259 260 261 262 263 264 265 266 267 268 269 270 271 272 273 274 275 276 277 278 279 280 281 282 283 284 285 286 287 288 289 290 291 292 293 294 295 296 297 298 299 300 301 302 303 304 305 306 307 308 309 310 311 312 313 314 315 316 317 318 319 320 321 322 323 324 325 326 327 328 329 330 331 332 333 334 335 336 337 338 339 340 341 342 343 344 345 346 347 348 349 350 351 352 353 354 355 356 357 358 359 360 361 362 363 364 365 366 367 368 369 370 371 372 373 374 375 376 377 378 379 380 381 382 383 384 385 386 387 388 389 390 391 392 393 394 395 396 397 398 399 400 401 402 403 404 405 406 407 408 409 410 411 412 413 414 415 416 417 418 419 420 421
1 0 3 14 17 22 23 24 31 34 59 62 123
2 0 3 14 17 22 23 24 31 34 59 62 123 165 189 222
3 0 5 12 36 54 64 65 120 179 180 181 273 284 285 286 287 288 293 338 339 340 341
3 0 7 21 24 29 36 46 47 48 54 55 56 64 65 67 68 163 164 179 180 181 190 191 364 391 407 411 419
3 0 17 18 22 31 59 62 73 78 127 136
3 0 17 22 31 59
3 0 17 22 31 59 62 73 78 108 114 127
2 0 17 23 31 36 48 61 129 156 179 389
1 0 17 23 31 36 61 129 156 179 389
3 0 17 31 59 62 78
3 0 19
2 0 21 33 46 47 48 159 192 302 403
1 0 21 33 48 159 192
3 0 22 73 78
2 0 23 24 27 28 36 54 67 68 69 70 71 85 124 141 142 173 179 195 201 202 203 244 277 298 363 389 391 393 394
1 0 23 24 27 28 36 54 67 68 69 70 71 85 124 173 179 195 203 298 389 391
3 0 24
3 0 31 59
3 0 46 47 73 160 182 235 236 237 238 239 240 347 382
3 0 73
3 0 73 114 127
3 0 78 123 160 205 206 207 208 209 210 306 308 311 312 313 314 342 394 414
3 0 111
3 0 144 145
1 1 2
3 1 2 8 9 13 25 44 45 46 47 53 61 66 81 82 88 89 90 91 92 93 97 98 99 100 101 115 116 125 126 130 131 132 139 148 149 154 160 165 166 167 178 196 199 200 205 206 207 208 209 210 211 212 213 214 215 216 217 223 226 227 228 229 231 232 233 234 235 236 237 238 239 240 255 256 257 258 259 261 262 263 275 276 280 281 282 303 304 305 322 323 333 334 335 336 337 338 339 340 341 348 351 352 355 356 357 358 359 366 372 373 374 375 376 380 382 383 384 385 392 395 404 408 409 412 413
2 1 2 66 144 145 148 149 227 247 248 249 250 251 252 261 262 263 271 272 309 310 322 323 352 357 358 359 373 374 375 376 384 385 392 395 400 401 416 417
1 1 2 66 144 145 148 149 227 247 248 249 250 251 252 261 262 263 271 272 309 310 322 323 357 358 359 373 374 375 376 384 385 392 400 401 416 417
2 1 2 261 262
3 3 5 107 155 256 257 258 260 287 288 293
1 3 107
2 3 107 155
1 3 107 155 299
2 3 107 155 299 331 332
2 4 10 11 49 168 223 231 232 233 234 235 236 237 238 239 240 273 378
1 4 10 11 49 223 231 232 233 234 273
3 4 49
2 5 14 106 150 254 287 288 293
1 5 14 106 150 287 288 293
3 6 17 22 52 82 95 144 145 284 285 286 301 345
3 6 123 137 196 301 320 342 379 414
2 6 123 140 196 266 320 379
3 7 19 24 27 29 144 145 163 164 180 181 247 248 249 250 306 363 364 366 393 396 397 407
3 7 29 46 47 163 164 180 181 364 407 419
2 7 29 60 140 160 163 164
1 7 29 60 140 160 164
3 7 179 382
1 8 9 86 87 154 199 223 226 231 232 233 234 235 236 237 238 239 240 278 279 348 383
2 8 9 86 87 154 199 223 226 231 232 233 234 235 236 237 238 239 240 278 279 348 383 404
3 8 316 317
2 9 125 139 211 223 231 232 233 234 235 236 237 238 239 240 259 275 282 333 334 335 336 337 383 408 409
1 9 125 139 223 235 236 237 238 239 240 259 282 333 334 335 336 337 408 409
3 10 11 223 231 232 233 234 235 236 237 238 239 240 378
1 10 15 24 26 31 39 67 78 81 103 130 132
2 10 15 24 26 31 39 67 78 81 103 130 132 392
3 12 120 133 360 399
3 13 92 367 368 369 370
2 13 303
2 14 291 353 354
3 14 352
1 14 353 354
3 15 36 156
3 16
9 17
3 17 18 62
3 17 21 31 62 83 346
3 17 22 31 59 62
3 17 22 31 59 62 389
3 17 22 31 59 78 108
3 17 24 27 31 32 35 51 56 178 183 184 242 306 334 337 363 366 393 408 409
9 17 31
3 17 31 34 59 62 73 179
3 17 31 34 73 179 283
3 17 31 34 269 270
3 17 31 53 59 62 78 97 98 127 167 205 206 207 208 209 210
3 17 31 59
9 17 31 59 62
3 17 31 59 62 111
3 17 31 59 62 144 145 309 310 396 397
3 17 31 59 103
3 17 31 138 178 182 183 184 315 318 319 347
2 17 31 178 182 183 184 315 318 319 347
1 17 31 178 182 183 315 318 319 347
6 17 59 62
3 18
24 19
3 20
3 21
2 21 22 31 59 62 83 143
1 21 22 31 59 62 143
3 21 33 159 192
2 21 33 159 192 355 368 369
1 21 33 159 192 368 369
3 22
1 22 31 59 62 73
2 22 31 59 62 73 346
3 22 73
3 22 73 78
3 22 386 387
3 23 109 124 193 194 201 202 245 298 302 363 389
3 24
6 24 27
2 24 27 28 63 67 68 69 85 129 141 142 173 203 244 271 272 357 394 400 401
1 24 27 28 63 67 68 69 85 129 141 142 173 203 244 271 272 394
3 24 63 78 93 127
3 24 308
3 24 392
2 25 72 97 98 99 100 102 115 116 146 147 167 193 194 205 206 207 208 209 210 228 229 230 274 283 322 323 328 330 343 371 372 377 381 384 385 413 415
1 25 72 97 98 99 100 115 116 167 205 206 207 208 209 210 322 323 371 384 385
3 25 92 226 373 374 375 376 404
2 26 72 110 187 382
1 26 110 187 382
6 30
3 31
3 31 59 62
6 31 103
3 31 103 117 176 177 420 421
3 31 103 144 145 306 363 366 393
2 32 35 55 74 75 76 77 178 182 247 248 249 250 251 252 300 347
1 32 35 55 74 75 76 77 182 247 248 249 250 251 252
7 34
3 34 179
2 34 247 248 249 250
4 36
1 36 48 54 64 65 70 71 179
2 36 48 54 64 65 70 71 179 180 181 350 391
2 36 104
2 37 38 43 52 115 116 199 331 345 365 406 419
1 37 38 43 52 115 116 331 419
2 37 38 44 45 74 75 76 77 86 87 88 89 90 91 97 98 99 100 115 116 144 145 148 149 151 152 161 162 169 170 171 172 205 206 207 208 209 210 212 213 214 215 216 217 218 219 220 221 228 229 235 236 237 238 239 240 247 248 249 250 251 252 271 272 278 279 289 290 296 297 304 305 311 312 313 314 316 317 322 323 324 325 334 335 336 337 338 339 340 341 358 359 367 368 369 370 373 374 375 376 384 385 400 401 408 409 416 417
1 37 38 74 76 86 87 88 89 90 91 97 98 99 100 115 116 144 145 148 149 151 152 212 213 214 215 216 217 218 219 220 221 228 229 235 236 237 238 239 240 247 248 249 250 271 272 278 279 296 297 304 305 324 325 334 337 358 359 368 369 373 374 375 376 384 385 400 401
2 39 40 117 118 364 380 418 420 421
1 39 40 117 118 380 418 420 421
1 41 46 47 61 80 153
2 41 46 47 61 80 153 399
5 42
3 43
4 44 45
2 44 45 304 305
3 46 47 61
3 46 47 61 228 229 296 297
4 50 51 201 202
2 50 51 201 202 420 421
3 52 106 150 254 289 290 345 402 413
2 53 97 98 309 310 311 312 313 314 412
1 53 97 98 309 311 312 313 314
2 53 101 167 218 219 255 299 390
1 53 101 218 219 255 299 390
1 56
3 56 94 242 329 386 387 411
2 56 242 386 387 411
3 57 58
6 58
3 59
3 62
1 66
2 66 154
1 68
2 68 69
3 70 71
3 72
6 73
3 73 143
3 78
3 79
1 81
2 81 94 126
3 81 126
3 82 115 116 200 205 206 207 208 209 210
3 82 121 200 220 221 321
1 83
2 83 84
3 88 89 90 91
2 88 89 90 91 97 98 99 100 205 206 207 208 209 210 212 213 214 215 216 217 245 324 325 410
1 88 89 90 91 97 98 99 100 205 206 207 208 209 210 212 213 214 215 216 217 324 325 410
3 93 132 161 162 165 166
2 93 132 165 166
1 93 165 166
1 95
5 95 96
3 99 100
3 101 255 372
2 102 109 193 194
1 102 193 194
1 105
2 105 220 221 349
3 108
3 109
3 111 114
3 112
2 112 117 118 176 177 418 420 421
3 113
2 113 241
1 117 176 420 421
3 119 225
1 121
2 121 321
2 122
1 123 137 204 320 342
2 123 137 204 320 342 414
1 123 140 379
3 125 211
3 127 143
3 128
3 129
1 130 131
3 130 131 169 170 171 172
2 130 131 267 268
2 134 135 264 265 390 407
3 134 135 407
1 134 264 265
2 136
2 139
3 146 147
1 148 149 274
2 148 149 274 358 359
3 151 152
3 156
5 157
2 158
3 160 276 283
3 160 276 328
3 167
3 168
5 174 175
1 175
3 176 177
1 185
2 185 186
1 188 189 190 191 196
2 188 189 190 191 196 307
3 188 189 190 191 307 390
9 190 191
2 197
2 198
5 204
2 212 213 214 215 216 217 327 351 355
1 212 213 214 215 216 217 355
2 224
2 227 263 384 385 395
1 227 384 385 395
3 228 229 415
3 230
3 241
2 243
2 246 338 339 340 341 356
3 247 248 249 250
3 253
1 256 257 258
2 256 257 258 366
3 256 257 258 377
2 256 257 258 410
2 259
2 260
6 264 265
3 266
3 269 270
3 273 284 285 286
1 275
2 275 282
1 277 315
2 277 315 318 319
3 277 338 339 340 341
5 280 281
3 284 285 286
3 292
2 294 295
1 303
2 303 380 381
3 304 305 382
2 306 308
3 322 323 330 412
2 326 333 334 335 336 337 408 409
2 329
3 332
1 334 335 336 337 408 409
6 338 339 340 341
1 338 339 340 341 356
3 343
6 344
3 348
3 351
2 356
3 357 392
6 360
3 361
3 362
3 366
3 371
3 372
2 373 374 375 376
1 381
3 382
3 386 387
2 388
3 389
5 396 397
5 398
3 402
2 405
3 413
842
w3=it
w3=is
w2=last
w1=cat
w1=missed
w3=she
w3=how
w3=missed
w2=have
w1=have
w3=jesus
w3=go
w1=go
w2=jesus
w1=last
w1=jesus
w1=is
w1=it
w2=might
w2=think
w1=she
w1=how
w2=she
w1=think
w1=might
w3=might
w2=how
w3=think
w2=cat
w3=last
w2=missed
w3=cat
w2=is
w2=it
w3=have
w2=go
w1=<s>
w2=<s>
w3=<s>
w1=yeah
w2=yeah
w3=yeah
w1=the
w2=the
w3=the
w1=to
w3=to
w2=to
w3=one
w1=one
w2=one
w3=four
w1=four
w2=four
w1=six
w2=six
w3=six
w2=yes
w3=yes
w1=yes
w3=eleven
w1=eleven
w2=eleven
w2=i
w3=i
w1=i
w2=mckeesport
w3=mckeesport
w1=mckeesport
w3=sixty
w2=sixty
w1=sixty
w2=pittsburgh
w3=pittsburgh
w1=pittsburgh
w2=correct
w3=correct
w1=correct
w3=about
w2=about
w1=about
w3=in
w1=in
w2=in
w1=as
w3=as
w2=as
w1=fifty
w3=fifty
w2=fifty
w1=um
w3=um
w2=um
w2=c
w3=c
w1=c
w3=please
w2=please
w1=please
w1=chesterfield
w2=and
w3=and
w1=and
w3=fifth
w2=fifth
w1=fifth
w2=chesterfield
w3=chesterfield
w1=south
w2=south
w3=south
w1=junction
w2=junction
w3=junction
w1=hills
w3=hills
w2=hills
w3=hill
w2=hill
w1=hill
w3=polish
w1=polish
w2=polish
w3=side
w2=side
w1=side
w1=ah
w3=ah
w2=ah
w1=kennywood
w3=kennywood
w2=kennywood
w2=boulevard
w3=boulevard
w3=im
w1=im
w2=im
w3=going
w2=going
w1=going
w2=duquesne
w3=duquesne
w1=duquesne
w1=aha
w2=aha
w3=aha
w1=forbes
w3=forbes
w2=forbes
w2=morewood
w3=morewood
w1=morewood
w3=murray
w2=murray
w1=murray
w2=squirrel
w3=squirrel
w1=squirrel
w1=right
w2=right
w3=right
w3=waterfront
w1=waterfront
w2=waterfront
w3=centre
w1=centre
w2=centre
w2=negley
w3=negley
w2=shadyside
w3=shadyside
w2=shady
w1=shady
w3=shady
w1=shadyside
w2=tomorrow
w3=tomorrow
w1=tomorrow
w3=friday
w1=friday
w2=friday
w2=part
w3=part
w1=part
w1=eleventh
w2=like
w1=like
w3=like
w3=eleventh
w2=eleventh
w2=three
w1=three
w3=three
w2=p
w3=p
w1=p
w2=twelve
w1=twelve
w3=twelve
w3=five
w1=five
w2=five
w1=forty
w2=forty
w3=forty
w2=from
w1=from
w3=from
w1=leave
w1=around
w3=departing
w3=around
w2=departing
w1=departing
w2=around
w2=leave
w3=leave
w2=eight
w3=eight
w1=eight
w2=twenty
w1=twenty
w3=twenty
w3=oh
w1=oh
w2=oh
w2=thirty
w1=thirty
w3=thirty
w3=two
w1=two
w2=two
w1=ten
w1=by
w3=oclock
w3=by
w1=oclock
w2=ten
w2=by
w3=ten
w2=oclock
w2=m
w3=m
w1=m
w1=at
w3=at
w2=at
w3=depart
w2=depart
w1=depart
w2=carnegie
w1=carnegie
w3=carnegie
w2=mellon
w3=mellon
w1=mellon
w1=arrive
w2=fifteen
w3=arrive
w3=fifteen
w2=arrive
w1=fifteen
w2=g
w3=g
w1=g
w2=dont
w1=dont
w3=sure
w1=sure
w3=dont
w3=know
w1=am
w1=not
w1=route
w2=which
w2=not
w1=which
w2=alright
w3=am
w2=route
w3=which
w3=route
w3=not
w2=know
w2=am
w3=alright
w1=alright
w1=know
w2=sure
w2=ambridge
w1=ambridge
w3=ambridge
w1=retard
w3=retard
w2=retard
w2=a
w3=a
w1=a
w1=transportation
w2=transportation
w3=transportation
w2=center
w3=center
w1=center
w2=mcknight
w1=mcknight
w3=mcknight
w1=seven
w2=seven
w3=seven
w3=eighty
w1=eighty
w2=eighty
w1=seventy
w3=seventy
w2=seventy
w3=road
w1=road
w2=road
w2=east
w3=east
w1=east
w3=down
w1=down
w2=down
w3=no
w2=calling
w1=no
w2=no
w3=calling
w1=calling
w3=downtown
w2=downtown
w1=downtown
w1=uh
w3=uh
w2=uh
w3=ok
w1=ok
w2=ok
w1=thats
w3=thats
w2=thats
w2=street
w3=street
w1=street
w3=craig
w2=craig
w1=craig
w2=wilkinsburg
w3=wilkinsburg
w1=wilkinsburg
w1=today
w3=tonight
w1=tonight
w3=today
w2=today
w2=tonight
w3=fucking
w1=fucking
w2=fucking
w1=nine
w2=nine
w3=nine
w1=next
w2=next
w1=now
w2=now
w3=now
w3=next
w3=bus
w1=bus
w2=bus
w2=leaving
w1=leaving
w3=leaving
w2=oakland
w3=oakland
w1=oakland
w3=nigger
w3=my
w1=god
w1=nigger
w1=my
w2=my
w2=nigger
w2=x
w3=x
w1=x
w2=god
w3=god
w1=for
w2=for
w3=for
w1=saturday
w1=airport
w2=airport
w3=airport
w2=saturday
w3=saturday
w3=braddock
w2=braddock
w1=braddock
w3=avenue
w2=avenue
w1=avenue
w2=swissvale
w3=swissvale
w1=swissvale
w1=homestead
w2=homestead
w3=homestead
w2=mckees
w1=mckees
w2=rocks
w3=mckees
w3=rocks
w3=pennyslvania
w2=pennyslvania
w1=pennyslvania
w2=trenton
w3=trenton
w1=trenton
w1=kelly
w2=kelly
w3=kelly
w2=ann
w3=ann
w1=ann
w3=eighth
w1=eighth
w2=eighth
w1=dynamo
w2=dynamo
w1=way
w3=dynamo
w2=way
w3=way
w3=north
w2=north
w1=north
w3=sixth
w2=sixth
w1=sixth
w2=penn
w3=penn
w1=penn
w1=oliver
w3=mount
w2=mount
w1=mount
w2=oliver
w3=oliver
w3=bloomfield
w2=bloomfield
w1=bloomfield
w1=bloom
w3=field
w2=field
w3=bloom
w2=bloom
w1=field
w2=midnight
w3=midnight
w1=midnight
w2=o
w3=o
w1=o
w1=bigelow
w2=bigelow
w3=bigelow
w1=pennsylvania
w2=pennsylvania
w3=pennsylvania
w1=international
w2=international
w3=international
w3=coal
w2=coal
w1=coal
w2=hello
w3=hello
w2=boy
w3=boy
w1=hello
w1=boy
w2=b
w3=b
w1=b
w2=d
w3=d
w1=d
w3=tuesday
w1=tuesday
w2=tuesday
w1=noble
w3=washington
w2=washington
w3=noble
w2=noble
w1=washington
w2=fourth
w1=fourth
w3=fourth
w3=hawkins
w1=hawkins
w2=hawkins
w1=monroeville
w2=monroeville
w3=monroeville
w1=herron
w2=herron
w3=herron
w3=liberty
w2=liberty
w1=liberty
w3=bell
w1=bell
w2=bell
w3=jones
w2=jones
w1=jones
w1=square
w3=regent
w3=square
w2=regent
w1=regent
w2=square
w3=ella
w1=ella
w2=ella
w3=main
w2=main
w1=main
w3=carson
w2=carson
w1=carson
w1=rankin
w2=rankin
w3=rankin
w2=k
w3=k
w1=k
w1=twentieth
w2=twentieth
w3=twentieth
w2=u
w3=u
w1=u
w1=sheraden
w2=sheraden
w3=sheraden
w3=station
w2=station
w3=robinson
w1=robinson
w2=robinson
w2=township
w3=township
w1=station
w1=lawrenceville
w3=lawrenceville
w2=lawrenceville
w1=village
w3=village
w2=village
w3=homewood
w2=homewood
w1=park
w2=park
w3=park
w1=boulevard
w2=forward
w3=forward
w1=forward
w2=e
w3=e
w1=e
w1=beltzhoover
w2=beltzhoover
w3=beltzhoover
w3=allentown
w2=allentown
w1=allentown
w1=melrose
w2=woodstock
w3=woodstock
w1=woodstock
w3=melrose
w2=melrose
w3=hospital
w2=hospital
w3=childrens
w2=childrens
w1=childrens
w1=hospital
w2=f
w3=f
w3=darlington
w2=darlington
w2=bausman
w3=bausman
w1=bausman
w1=smithfield
w2=smithfield
w3=smithfield
w1=talbot
w3=talbot
w2=talbot
w3=monday
w2=monday
w1=monday
w2=chapel
w3=chapel
w1=fox
w2=fox
w3=fox
w3=sharpsburg
w2=sharpsburg
w1=second
w2=second
w3=second
w3=grant
w2=grant
w1=grant
w2=first
w3=first
w1=first
w3=browns
w1=browns
w2=browns
w2=air
w3=air
w1=bon
w2=bon
w3=bon
w1=air
w1=ingram
w2=ingram
w3=ingram
w1=clairton
w2=clairton
w3=clairton
w1=mifflin
w3=mifflin
w2=mifflin
w2=west
w1=west
w3=west
w1=us
w3=take
w3=us
w1=take
w2=will
w1=will
w2=us
w3=will
w2=take
w2=crafton
w3=crafton
w3=sunday
w2=sunday
w3=on
w3=plaza
w2=on
w1=plaza
w2=plaza
w2=millvale
w3=millvale
w1=millvale
w3=coraopolis
w2=coraopolis
w2=atwood
w3=atwood
w1=atwood
w1=ravine
w3=ravine
w2=ravine
w1=henrietta
w2=henrietta
w3=henrietta
w1=moon
w2=moon
w3=moon
w2=schenley
w3=schenley
w3=edgewood
w2=edgewood
w1=sorry
w2=sorry
w3=sorry
w1=wednesday
w3=wednesday
w2=wednesday
w1=arlington
w3=arlington
w2=arlington
w1=eighteenth
w2=eighteenth
w3=eighteenth
w2=ave
w3=ave
w2=flemington
w3=flemington
w3=aikin
w2=aikin
w3=womans
w3=magee
w2=magee
w1=magee
w1=womans
w2=womans
w2=beechwood
w1=beechwood
w3=beechwood
w2=greenfield
w3=greenfield
w1=greenfield
w1=district
w3=district
w2=district
w1=beacon
w3=beacon
w2=beacon
w1=university
w2=university
w3=university
w3=of
w1=of
w2=of
w2=lysle
w2=coursin
w3=lysle
w3=coursin
w1=lysle
w3=strip
w2=strip
w1=strip
w2=uptown
w3=uptown
w1=uptown
w3=beechview
w2=beechview
w1=negley
w2=walnut
w3=walnut
w1=rebecca
w2=rebecca
w3=rebecca
w2=munhall
w3=munhall
w3=wood
w1=wood
w2=wood
w2=hazelwood
w3=hazelwood
w2=lebanon
w3=lebanon
w3=forest
w2=forest
w1=forest
w1=hazelwood
w1=columbia
w1=corner
w3=columbia
w2=corner
w2=columbia
w3=corner
w1=edgewood
w1=elm
w2=elm
w3=elm
w1=vue
w2=vue
w3=vue
w2=port
w3=port
w1=port
w3=halket
w1=halket
w2=halket
w2=friendship
w1=friendship
w3=friendship
w2=lacrosse
w3=lacrosse
w1=market
w3=market
w2=market
w3=loews
w2=loews
w1=theater
w3=theater
w1=loews
w2=theater
w2=baldwin
w3=baldwin
w1=baldwin
w3=carrick
w1=carrick
w2=carrick
w1=amanda
w3=amanda
w2=amanda
w1=climax
w2=climax
w3=climax
w1=howley
w3=howley
w2=howley
w3=cr
w2=cr
w1=walnut
w3=coll
w1=coll
w2=coll
w1=brownsville
w2=brownsville
w3=brownsville
w2=dormont
w3=dormont
w2=minutes
w1=minutes
w3=minutes
w3=kenmawr
w2=kenmawr
w2=connector
w3=connector
w1=kenmawr
w2=shannon
w3=castle
w3=shannon
w1=castle
w2=castle
w3=shore
w1=shore
w2=shore
w3=plum
w2=plum
w3=federal
w1=federal
w2=federal
6.107655344024281
4.567513122985075
6.030885382590268
4.57638406855083
5.564106337654081
3.784037632278889
3.6549493927640326
3.5492755907857285
3.5492755907857285
6.813135966481423
3.6549493927640326
4.080392939930134
5.253543971610286
5.035624936418032
4.45195210768839
4.330609435485197
4.57638406855083
3.8328644209495373
3.5492755907857285
3.784037632278889
3.5492755907857285
4.108965095626291
3.5492755907857285
3.5492755907857285
3.5492755907857285
3.5492755907857285
5.153152190698087
3.905619348109204
6.09712430650735
5.564106337654081
6.813135966481423
5.129751341443392
3.8328644209495373
4.567513122985075
3.5492755907857285
9.459020220566178
1.3304691397151167
-0.8089010547729688
-0.8089010547729688
0.21995324588826184
-0.11195176733258022
0.06761664923772329
-0.4370432513233534
0.8177056330946969
0.17907593023893623
-0.3196122068683626
0.26378901619208234
0.10485689922471768
-0.10284135423748675
-1.1781334385602193
0.40092958898888453
0.9104836904937541
0.3336275884783724
0.47108670743060044
-0.39300167710975653
0.6373175687177355
0.21084786684874723
0.9314656336159336
0.8934012820443448
0.4819378267067878
1.083607581810506
-1.664490242568109
0.781098304463306
0.5881369130044334
-0.33016813782018817
0.29979980876147266
0.9781122545793485
0.3044762988789478
0.550891287805288
0.657358076479675
0.7735402255707371
-0.0026802937895521245
0.06987185980500425
0.049377855650968576
0.049377855650968576
0.4166272654725268
0.2675560977776549
0.8865318250074483
-0.7321402247720966
0.23037697315296043
-0.2169788450218064
-0.2169788450218064
-0.7430755903683579
-0.7430755903683579
0.5851467230897809
-0.2504967485048893
-0.7998529386915239
-0.6876775538186461
-0.24823905505043992
0.12846722447125306
0.9856249782977141
0.07550887913651394
0.26803188840872927
0.45935169616848126
0.6085953974238987
1.0826903059124815
0.4034445343373814
-0.5691380983782328
0.037685196391266454
0.25736476740133063
0.24387484567664505
1.0078762230366025
0.022496498055332645
0.8927151663588944
0.36458152749238937
0.7373831671466697
-0.2190682011232311
-0.2190682011232311
-1.1180621491800486
0.7782995530980188
0.5114025577474657
1.1008775394157366
0.5114025577474657
1.1008775394157366
0.2659319357796924
0.4674049002110574
0.5447273127908026
0.05030091970351291
-9.108837899599637E-4
0.49192775123446575
0.02907550289699427
0.2585678584078348
-0.7297631344534383
-0.7297631344534383
0.08346921596859033
0.08346921596859033
0.08346921596859033
0.08346921596859033
-1.404429100719361
-0.32828152200918004
-0.5192348268428397
-0.2648190147826644
-0.5248539643220039
-0.7305608907760642
-0.7305608907760642
-0.2829068750249764
-0.2829068750249764
0.3242166397587845
0.07160908474736784
0.07260324505626731
-0.18487434872743652
0.6350424459698575
0.1187039047341576
0.184408618539645
0.4022777450963759
-0.8961945023412101
0.26227195905118605
1.7035562091715872
-0.6172321018530044
-0.7426122263808318
0.7698519326296871
0.5605684288876177
0.5605684288876177
1.1806954102430918
0.5211006986727649
0.42107945300157706
-0.23901088165326612
0.19002050147294045
-0.4774670793616093
0.08242714044252163
0.09180006661348163
-0.49303969953313814
0.39666443088906145
-0.08859547115665779
-7.861008997701912E-4
-0.6224045239807182
-0.16567262538855645
-0.5112597269348467
1.009272463964229
-0.30243915947359895
0.1723273007624677
-0.03523511139863508
-0.8892251522595535
0.23591430700020102
-0.8069709444580779
0.06153148662988175
1.1014046432343243
0.48284230402312
0.48284230402312
0.7828309342117966
-0.4064750417935408
-0.4064750417935408
-0.5926958323128182
-0.5926958323128182
0.146446325585018
0.146446325585018
0.09619320850128134
-0.3835875700762439
-0.3835875700762439
0.7910856151109467
0.28724606621901067
0.3941205873865892
0.2759243381518002
-0.7321402247720983
-0.4774670793616088
0.7235358619243616
-0.8555362970255926
-0.22614316380587773
-0.22614316380587773
0.08424691476681705
0.19228521474655588
0.20798375328635757
-0.5644269140756073
0.0020789336110905096
-0.8300315285678033
-0.5880320401796849
-0.5880320401796849
-0.5880320401796849
-0.5880320401796849
0.5201332204912632
-0.19461259408478887
7.898816266242969E-4
-0.3272185307663841
-0.42111004802121665
-0.8660153123377747
0.6647563318579126
0.13547688180628864
0.13547688180628864
-0.8331961660516204
-0.5452696170226269
-0.08532096126440661
0.09444489796036655
-0.23262607928542553
0.26227195905118605
0.44822136859727013
0.1822537970119035
0.1679637798156323
0.4175562046749282
0.7235358619243616
0.5314227591858555
0.5314227591858555
0.9581304570446845
-1.174417065249916
-0.4774670793616069
-0.4774670793616067
-0.5445860053368184
-0.44322805571188867
-0.8183469454859462
-0.8183469454859462
-0.9216206102140363
-1.197905681948393
-1.3931679432485764
-1.3931679432485764
-1.3931679432485764
-1.3931679432485764
-1.3931679432485764
-1.3931679432485764
0.6459781454728266
-0.46474268933056284
-0.46474268933056284
-0.46474268933056284
-0.46474268933056284
-0.46474268933056284
-0.46474268933056284
-0.3146908624656192
-0.3146908624656192
-0.5785378766248045
-0.5785378766248045
1.652342391772862
-1.1910615223808207
-0.4774670793616078
0.20883685388774817
-0.6092953577865509
-0.8558886923953785
-0.8331709478936324
-0.8331709478936324
-0.5886541336385831
-0.3617810981332533
-0.3617810981332533
-0.3617810981332533
-0.3617810981332533
-0.15289193658845493
-0.15289193658845493
-0.15289193658845493
-0.15289193658845493
-0.15289193658845493
-0.15289193658845493
-0.74261222638083
0.1356358084996082
-0.47746707936160726
0.48284230402312
0.09690559627767961
-0.11671489854333726
-0.8115811269741694
-0.8115811269741694
-0.8115811269741694
-0.8115811269741694
-0.879733832615186
-0.879733832615186
-7.861008997709574E-4
0.3932902566125317
0.11995990274622761
0.2601313111264874
0.2601313111264874
0.2601313111264874
0.06153148662988122
0.364803871726128
0.38263959025788585
0.38263959025788585
-0.25279390636652294
-0.4271003794613063
-0.4271003794613063
-0.6329302502138109
0.993014282249063
0.993014282249063
0.2604856624393784
0.08899774112523497
-0.3979174828539393
-0.3979174828539393
-0.18124758808583347
0.32092140401878466
-0.3926152797851764
-0.053034084495898096
-0.4225979013765611
-0.6568592025605302
-0.6568592025605302
-0.6316689779744491
-0.6316689779744491
-0.09285196416965544
1.1662208857495024
0.2894227610118268
0.2894227610118268
0.2894227610118268
-0.059414793428586556
-0.11289565163779779
0.047446444963469614
0.047446444963469614
-0.0330424491050528
-7.861008997690524E-4
-0.022836462034413873
-0.48326083820043025
-0.48326083820043025
-0.8062034660423568
-0.8062034660423568
-0.4110949417277715
-0.38664511541797403
0.33042580330017546
-0.10844865458121603
-0.012142533961388015
-0.4554601078176202
-1.2518420211909642
-1.2518420211909642
0.625584435574803
0.03309117635979936
1.2588289212697232
-0.742695099446672
-0.603142979283988
-0.30839660870168406
-0.30839660870168406
-0.30839660870168406
-0.30839660870168406
0.21763029269449982
-0.22988664319149954
-0.22988664319149954
-0.06318900936061225
-0.06318900936061225
0.26185871546322953
-0.026488991808479606
-1.8429270840624579
-1.8429270840624579
-1.1300402147379494
-1.1300402147379494
0.5799940409080062
0.47181612808813267
-0.03399701725385759
-0.4478613022684077
-1.0283581222905935
-0.10085262023902
-0.7974454549430815
0.32551786143762795
-0.4422025765687821
0.5904128131154994
0.5904128131154994
-0.4422025765687821
-0.11414206973108461
-0.11414206973108461
-0.11414206973108461
-0.11414206973108461
0.014725273326683143
-0.5886541336385831
-0.24309180383666923
0.1988807930065845
-0.18015633589916683
-0.4485281001255611
0.5140393248951074
0.3357148833560126
0.7326237610653047
-1.4193342131103646
-0.564985875405529
-0.17047579705204902
-0.17047579705204902
-0.0938416242914684
-0.2497355806534221
-0.9199327131070385
-0.011395986782716873
-0.011395986782716873
-0.02889778951809812
0.21084786684874973
-7.861008997656233E-4
0.29647795379330816
-0.09809134953066176
-0.07107987319535548
0.650343777188203
-0.8197559788971145
-0.3047635901298615
-0.3047635901298615
-0.8197559788971145
-0.2184845168515841
-0.6701248324538428
-0.9774400768416899
-0.9774400768416899
-0.9774400768416899
-0.9774400768416899
-0.9994943204787318
0.5380185382971403
0.7410363672407152
-5.089628278674325E-4
0.038291475533234816
-0.566693143210259
-0.028699605841685103
0.37575177384636893
0.37575177384636893
-1.1130710468909468
-1.1130710468909468
-0.47746707936160665
-0.49771185981514754
-0.5360912929574556
0.10531840698483283
-1.0168444793548526
0.3554692792125547
-1.0949923167900075
0.706897445602416
0.3855810747033714
0.3855810747033714
-0.7321402247720903
-0.1995058057092105
-0.18588889131293662
-0.18588889131293662
-0.3418629881259557
0.9208779593244372
0.17690512488113846
-0.4774670793616054
-0.07107987319535548
0.20885409777380498
-0.3167914838121578
-0.3167914838121578
-0.4448639125970278
0.5248110462570589
-0.6933019904370269
-1.1281574388428495
-0.6019498313778467
0.6166048298206033
0.02765565967885433
0.02765565967885433
0.5211006986727649
0.4137382043140085
0.43002220845879696
0.43002220845879696
1.8540790908765914
0.45548156777613863
0.45548156777613863
0.711884340023407
-0.009401710602891267
0.5243678453994639
0.6311783946503917
1.1128968932918704
-1.3491355100668345
0.5479865940249179
1.1653934596955569
0.6425678836477217
0.5072728505400047
-1.308368099664362
0.14225303775520567
0.6940946457504662
-0.361063914597552
0.7478570189619128
0.20877870815381167
1.5834705859146103
-0.5450594746405434
1.0223699585985877
1.5641153506749286
0.3233779743146088
1.5865212727578428
-0.45229293499409123
0.5986147507924828
-0.012120745975715271
-1.9013640910055083
-0.7349091757914574
1.0876449048600838
0.5730293951494996
1.323952176203112
0.32300365424625543
1.258371346242544
-0.347332823284854
-1.4364809621515027
-0.49554702631282593
-0.49554702631282593
0.9326556070757122
0.3612444625601102
0.9732232151701309
-1.3252908980839249
0.41781712454907655
-0.9039687788195578
-0.9039687788195578
-2.6509726291661995
-2.6509726291661995
-0.12019507434823544
-0.4436762474093944
0.35091731500115825
-0.28952481794550294
-0.07394819966845216
0.1290410464102363
0.6059583876526012
-0.616138075891288
0.19603565933878409
-0.4795033629021036
0.4816480289927121
0.3673056549635406
0.4237798692347767
-0.7601593099206067
0.5943265808866339
-0.8496644800239349
-1.1286332980992562
-0.28947573608771154
-0.6251101923927734
0.43924886312553096
-0.37370752382564265
-0.5675464283061643
0.4056432226560914
0.4056432226560914
-1.7199361455138784
1.0025820560487317
-1.633205986527772
-1.843268246941332
-1.633205986527772
-1.843268246941332
0.12328168251863265
-0.12244900698198793
-0.282096488199993
0.1966157627858715
-0.3452274803540659
-0.06535425267843825
-1.7313297889895582
-0.5204783213688974
0.34932625242020293
0.34932625242020293
-0.9050965661611826
-0.9050965661611826
-0.9050965661611826
-0.9050965661611826
-0.35384831550898577
0.19557533680559763
-0.6729248017348499
-0.1580130040126433
-1.0842522089947755
-0.23144001212982854
-0.23144001212982854
-0.14891949038787802
-0.14891949038787802
-0.11997730279843724
-0.2944199496394939
0.3152597138002042
-0.8970656369255429
-0.34999216567597924
0.5830290264925124
0.1685548893958908
-0.09381602769597788
-1.7788682309383366
-0.92461105490096
-0.2772237191994234
-1.3693250623830382
-1.320933707690607
-0.9254695909310875
-0.6835563411283317
-0.6835563411283317
-0.09998978937832112
-0.7401784416037727
-0.13959119267184494
-0.3902718189121597
-0.5646694620997664
-1.4309264021837773
0.11778625323935933
-0.027470864172147953
-0.10943404896322424
-0.2104680636490879
-0.13972934842241982
-0.8281704897585725
-1.1478171158627268
-0.26839393357112507
0.10934929100696004
-1.7221302965777294
-0.396810671347887
-0.5276094645974546
-1.3313438659194305
1.8353685923566865
-0.10415387877194066
0.09577552920482552
-0.8831985536325943
-0.8179675659146596
-0.2891703889771016
-0.2891703889771016
-1.5839805500259716
-0.717278156617542
-0.717278156617542
-1.3861305870701097
-1.3861305870701097
-0.8794234897060903
-0.8794234897060903
-0.19359924738198525
-0.7389148733605159
-0.7389148733605159
0.16541456753460795
-1.6553208609515362
-1.0898810422873404
0.08642181752506425
-1.3252908980839266
-1.4309264021837764
-0.5606629834226743
-1.7344875009063723
-1.325303620946051
-1.325303620946051
-1.9206350001857988
-0.7582330675376336
-0.3611179138751324
-0.29422670415481506
-0.0786956205359193
-1.284626387531417
-1.4331046266067577
-1.4331046266067577
-1.4331046266067577
-1.4331046266067577
0.07288575046241118
-1.5977791560999792
-0.0038307461694660366
-1.0077546108609383
-1.6858901753080648
0.3991625354920305
-0.6047597827523219
-1.9877464926340251
-1.9877464926340251
-1.4762771629284042
-0.4087609886163834
-1.022008359496134
-0.5193612373454256
-1.5625181986304597
-0.92461105490096
0.16479491833000143
-1.8780869987938338
-1.059553960094379
-1.0279356843875562
-0.5606629834226743
-1.8754397358616743
-1.8754397358616743
-0.14312127930283502
0.6149536714675522
-1.4309264021837773
-1.4309264021837769
-1.5402829541718728
-1.55110760199227
-1.433801037253441
-1.433801037253441
-2.4214895300171158
1.0054692530085905
-2.5949069417039046
-2.5949069417039046
-2.5949069417039046
-2.5949069417039046
-2.5949069417039046
-2.5949069417039046
-1.8669619548393994
-1.3886886646716665
-1.3886886646716665
-1.3886886646716665
-1.3886886646716665
-1.3886886646716665
-1.3886886646716665
-0.6791222671509503
-0.6791222671509503
-1.5481512111237679
-1.5481512111237679
-1.745484056500957
-0.7793468252407498
-1.4309264021837762
-0.604812126939876
-0.8479470852909354
0.5312949081329671
-1.7763360628241278
-1.7763360628241278
-1.380561575065332
-3.3286214349874483
-3.3286214349874483
-3.3286214349874483
-3.3286214349874483
-0.2354503288243948
-0.2354503288243948
-0.2354503288243948
-0.2354503288243948
-0.2354503288243948
-0.2354503288243948
-1.3209337076906078
-1.1250720408455832
-1.430926402183777
-0.2891703889771016
-2.53880320141119
-0.7721181638535601
-2.7030687134923608
-2.7030687134923608
-2.7030687134923608
-2.7030687134923608
-2.9064748838339245
-2.9064748838339245
-0.8281704897585717
-1.3743551056499164
-0.45007890891262686
-1.3103950834785636
-1.3103950834785636
-1.3103950834785636
-0.883198553632595
-1.078342769285577
-2.0285216952789122
-2.0285216952789122
-1.130778872524608
-1.0397719998675212
-1.0397719998675212
-1.3624401039974865
-1.3639223995485386
-1.3639223995485386
-0.6031411633310308
-0.3324029477773714
-2.250500035330492
-2.250500035330492
-0.27295020539410575
-0.490575826880094
-0.858513800221949
-0.12404481591650339
-0.35295788091082114
-0.8124324030978233
-0.8124324030978233
-1.370606519268506
-1.370606519268506
-1.0921566125147626
-1.6059312466195224
-1.1094629546920316
-1.1094629546920316
-1.1094629546920316
-0.5525297887954193
-0.5722954753093678
-1.2245729735684512
-1.2245729735684512
-0.07091508034143085
-0.8281704897585725
-0.45518659174677106
-1.4354982253297814
-1.4354982253297814
-0.4834919016573806
-0.4834919016573806
-1.4483005827458932
-0.5157737749952003
-1.4433971021386325
-0.8145199956059186
-1.4456116866338966
-1.0584913844984378
-1.6489493064102376
-1.6489493064102376
-2.4358705786221524
-0.21164100512760892
-2.8268506989611133
-0.3692449403955947
-0.8087627395327858
-1.5094276228956502
-1.5094276228956502
-1.5094276228956502
-1.5094276228956502
-0.6552161191671115
-1.0590906017581965
-1.0590906017581965
-1.109864700283583
-1.109864700283583
-2.0673475792497613
-1.4172279197972162
-2.693644711057236
-2.693644711057236
-0.5276145999342785
-0.5276145999342785
0.10338220576358327
-0.8643019844659269
-0.5826852330978701
-0.4477245471036617
-1.295241606597105
-0.4681700188070932
-1.2969303104338443
-0.8806696439597111
-0.6215503228483612
-0.4117351525532142
-0.4117351525532142
-0.6215503228483612
-0.33548475228355124
-0.33548475228355124
-0.33548475228355124
-0.33548475228355124
-0.43735777659836983
-1.3805615750653337
-0.6895860834246798
-2.4720743444789357
0.9986451444399421
-1.0176809515018503
-0.8783507383862492
-1.378648662278147
0.05528804362925899
-1.1151608273719709
-1.737249459083303
-1.5415908355715569
-1.5415908355715569
-0.3076262334797434
-0.614071288146645
-1.1010998953981126
-1.1985499622336935
-1.1985499622336935
-1.2211260621039293
-0.5450594746405427
-0.8281704897585717
-2.069296759182057
-2.297703940385328
-0.33784541849513233
-1.887863308969332
-1.3258137839129795
-1.1818878119836853
-1.1818878119836853
-1.3258137839129795
-0.7500395875111414
-1.5804010253169802
-1.3948158826997386
-1.3948158826997386
-1.3948158826997386
-1.3948158826997386
0.38002337518809914
-1.7804151830877806
-0.38389937268592533
-1.98005631063245
-0.518363358758536
-0.7847086080829858
-1.907149503105456
-0.6548814182472034
-0.6548814182472034
-1.3042941819634921
-1.3042941819634921
-1.430926402183775
0.2003142714498796
-0.9396027635056915
-1.3983157157521164
-0.9658881298754578
-1.8485134556649023
-2.9046174559376072
-1.485967798293446
-1.4373365582890352
-1.4373365582890352
-1.3252908980839269
-1.5128837985815384
-1.9806802709567435
-1.9806802709567435
-0.46176674584178534
-0.5898813578354597
-2.56105968088709
-1.4309264021837755
-0.33784541849513233
-2.018250797294023
-0.7664717760086708
-0.7664717760086708
-1.2252100587740287
-1.3704263254391125
-1.4481704861067928
-1.3926219047192805
-1.8800473521158045
-0.9750043387738286
-1.1781039681027712
-1.1781039681027712
-0.7401784416037727
-0.11829025176041086
-3.7090176928312433
-3.7090176928312433
2.023148197960216
-0.2813672629816808
-0.2813672629816808
0.3893225839252264
-0.7305618610739154
0.5377236196182453
0.8676096131931834
1.804151872432721
-1.740197946882271
-0.2892616734889603
0.924368782279839
0.22041505407571574
0.7435221801550165
-1.6213372732708518
0.3220840366263064
1.1900299970709878
-0.5089330705679035
-0.05673462776754026
-0.4570371589332092
1.494985911363769
-0.7235311014400889
1.7041402468733018
1.5020906970786447
0.8066063339494179
2.209240671558006
-1.6498123027633562
1.1341392005970181
0.20753451819167507
-1.239024952885876
0.254915395217454
1.7215508581600354
0.6185499852332004
1.9377774098722265
-0.5096410222290739
1.2441574301884055
0.050266527571945115
-1.735314063074487
-0.493990720811829
-0.493990720811829
1.5525378748164131
0.8074853103287631
1.5591985752706854
-2.022030217707826
0.6950808194107286
-2.825166609264358
-2.825166609264358
-2.379257751273768
-2.379257751273768
0.8948545559939205
-1.2972444235930196
-0.03705587214960553
-0.5137255081777548
0.044703348937531126
0.5527424165066569
1.2122413880962042
-0.022416737076843208
-0.2429457005772854
-0.6024311096535575
0.8321644996194872
-0.07094108477162044
0.48010893819840356
-0.9267526811488004
0.9007947041071772
-0.298961596943689
-0.7745786439667783
0.3777042685768465
-1.9363843818828002
1.0008390530237121
-0.07008312186409114
-2.1019599806330884
-1.885797236330716
-1.885797236330716
-2.193766970692037
0.934830080391805
-2.1793665766455885
-2.482067476167477
-2.1793665766455885
-2.482067476167477
0.37656437120119707
-0.18781008085777331
-0.6351368451972543
-0.7861213050097177
-1.0750018297647734
-0.40375431674694906
-1.2973663386626626
-0.5642015866334025
0.20974476630232006
0.20974476630232006
-2.6982993754805307
-2.6982993754805307
-2.6982993754805307
-2.6982993754805307
-0.6108432691171043
-0.9539032282522042
-2.3214190895064446
-0.8923707159008901
-2.072209704784032
-3.8839095952104703
-3.8839095952104703
-3.235329512423435
-3.235329512423435
-1.628525019889585
-2.3381745720949874
0.8924262485974688
-1.4592803883644032
-0.39665915166826204
0.34192027477048753
-0.479278050006459
-1.4786642996430421
-0.5379106616643976
-1.168624929506375
-2.0132893354921193
-1.8352172597775864
-2.0388769617930707
-1.674224517862756
-2.4008024109732817
-2.4008024109732817
-0.4429613553485961
-0.9128476862508726
-0.16735465696432728
-0.9123502738749234
-1.0001855370388812
-1.4697897131472195
0.08435621069896351
-0.008065877087709311
-1.403507453441365
-1.687504144821635
-0.3844746419883294
-1.0091306289417408
-0.9063664634970771
-0.6430882871989468
-0.7847712578960977
-1.597512740497511
-0.6634103142376
-1.232582219830066
-2.1689706914022224
-1.910298819469778
-0.1772028735899858
0.632425487495932
-2.5115574457472483
-1.2613281721553025
-0.5544813879540307
-0.5544813879540307
-1.1363174942531804
-0.009838400122230247
-0.009838400122230247
-2.100249973680463
-2.100249973680463
-2.4971672115279566
-2.4971672115279566
-0.8060368288582669
-1.3847980845134313
-1.3847980845134313
0.19808397997124283
-2.4078790424434553
-2.314053818196121
0.2536152107302228
-2.022030217707825
-1.4697897131472193
-2.0233850964655153
-2.205868481366853
-2.101199487730509
-2.101199487730509
-1.9532235754074039
-0.4934919861413032
-0.939583094405876
-1.4542003256234537
-2.319444846955244
-2.1744794364296065
-1.751856071774901
-1.751856071774901
-1.751856071774901
-1.751856071774901
0.12887107702549003
-2.131312834971801
-0.7400219816812794
-1.2827514601126822
-1.894648800544092
-2.6249286208039853
-0.67839967864924
-2.168298386709177
-2.168298386709177
-2.2236266952798482
0.13894960950099164
-0.0819130357668812
-0.6637499041239707
-1.6030250188469723
-1.168624929506375
-0.2883325844697479
-2.240567455394778
-1.1728994188467419
-1.664124268837479
-2.0233850964655153
-3.0891514086294833
-3.0891514086294833
-0.1784479271479387
-3.9368152975428585
-1.46978971314722
-1.4697897131472204
-3.38335228220402
-1.8922939966354322
-2.6260554554359397
-2.6260554554359397
-3.2437920244968934
-2.249730980514321
-2.8349297256708055
-2.8349297256708055
-2.8349297256708055
-2.8349297256708055
-2.8349297256708055
-2.8349297256708055
-1.7867510880228636
-3.784185402597743
-3.784185402597743
-3.784185402597743
-3.784185402597743
-3.784185402597743
-3.784185402597743
-1.9307120499423918
-1.9307120499423918
-2.6618631956863434
-2.6618631956863434
-2.0987920433823883
-2.1208743616727723
-1.4697897131472195
-0.7349507714191138
-1.3374869695894473
-1.2829619653301945
-4.3688431328156385
-4.3688431328156385
-2.109528731237273
-3.0089490323064996
-3.0089490323064996
-3.0089490323064996
-3.0089490323064996
-2.55826905197745
-2.55826905197745
-2.55826905197745
-2.55826905197745
-2.55826905197745
-2.55826905197745
-2.0388769617930693
-2.2903180298357118
-1.4697897131472188
-0.5544813879540307
-1.0356511074954087
-0.39777829937901205
-4.330831115522439
-4.330831115522439
-4.330831115522439
-4.330831115522439
-1.4320985421067083
-1.4320985421067083
-1.0091306289417394
-2.3277513902459948
-2.0332887920146763
-2.6434169753221974
-2.6434169753221974
-2.6434169753221974
-2.511557445747246
-2.051978249447909
-1.2217189496387053
-1.2217189496387053
-1.358449174430078
-1.4804301644967433
-1.4804301644967433
-2.03324730429108
-2.0517661724333345
-2.0517661724333345
-1.0650852836297555
-0.3270442948197727
-1.7968910803743188
-1.7968910803743188
-1.510693841279185
-3.081760794023198
-1.505231515666829
-0.7143054088722856
-1.7669395770829162
-0.5172258853189481
-0.5172258853189481
-1.9754621500619438
-1.9754621500619438
-1.6604045844340785
-2.3907935466278314
-1.236546625180541
-1.236546625180541
-1.236546625180541
-1.456921761705629
-0.8820202590946556
-2.991172916241016
-2.991172916241016
-0.06414343226612026
-1.0091306289417412
-1.1052680851574166
-1.4746148629523945
-1.4746148629523945
-0.5190249251861444
-0.5190249251861444
-1.6025516694667288
-1.6888667900733303
-1.1021661155305784
-0.10483186731003535
-2.0538958886360374
-2.4605647438572458
-1.940671338386651
-1.940671338386651
-2.018394705236232
-0.47438336001648285
-2.1668918629842526
-1.399088685795101
-1.5656560168933273
-2.298290913755553
-2.298290913755553
-2.298290913755553
-2.298290913755553
-1.3997744702207244
-2.403749339610141
-2.403749339610141
-2.080637838029651
-2.080637838029651
-3.746616021356075
-1.7353473438116305
-1.9775777260741576
-1.9775777260741576
-0.7049177674030311
-0.7049177674030311
-1.1274619306823586
-0.9564577223439282
-2.3258291159719358
-2.1859255809184335
0.4394232077822244
-1.0603356143525722
-1.6767797185351925
-1.3762766806951636
-2.190565715354612
-2.3639116976523282
-2.3639116976523282
-2.190565715354612
-2.33222063952627
-2.33222063952627
-2.33222063952627
-2.33222063952627
-0.3615120826858414
-2.1095287312372735
-1.4990261391232544
-2.2831564268045366
-1.91246939927904
-2.434884587371491
-1.5027090599153865
-1.7999385365636171
-1.9017129125855017
-0.43455881854592887
-1.0201371866751958
-1.5096940627334121
-1.5096940627334121
-3.2113480789657487
-2.290158325423987
-2.2347424157726956
-2.81162878418011
-2.81162878418011
-1.254273661189626
-0.7235311014400875
-1.0091306289417432
-2.0820120452432884
-1.962296084024219
-0.5697786654748301
-1.0873810700439128
-1.8245023619642007
-2.104696455980314
-2.104696455980314
-1.8245023619642007
-1.583790872626858
-3.529684908717465
-4.200091055520016
-4.200091055520016
-4.200091055520016
-4.200091055520016
-1.9430517206926747
-2.238704426108962
-0.7698016736828377
-3.67352978476698
-2.6662317759843597
-1.1860017528670188
-1.3977142165633796
-2.962831530231216
-2.962831530231216
-2.0134021466183127
-2.0134021466183127
-1.4697897131472195
-1.0915984202701816
-2.3747069929611238
-2.986772365610619
-3.2277165197884945
-1.7924968540889612
-1.1647955371862677
-2.3584364150777923
-2.232891652915361
-2.232891652915361
-2.0220302177078224
-2.8958646978590106
-1.734378852705886
-1.734378852705886
-1.449141402590989
-0.4649511039935483
-1.2312069433797508
-1.4697897131472193
-0.5697786654748301
-2.387606166480331
-2.1888524170962786
-2.1888524170962786
-2.280421974831997
-2.410353452254659
-1.4478099036880612
-2.9024582041883966
-0.9825037630823653
-2.3844447993153435
-0.6296783663207334
-0.6296783663207334
-0.9128476862508726
-1.5740514453876315
-4.5388648948223205
-4.5388648948223205
3.9069278612699936
5.094044324635196
4.437960544743726
2.4415467927686008
5.205810660793374
4.659867460496842
4.146070936297447
1.3259906084258217
4.556102635183598
5.595983791208389
5.297434048939649
5.317086340394035
3.747342092764546
5.796679129361421
5.679692193978965
2.896715654366838
4.012437230455632
5.112338980865027
0.33762409718699615
2.5477688332733543
4.395154398732959
5.393374811133414
5.4630080620634835
6.228581990747578
7.131312054242148
8.41843626580534
6.835042169874835
3.3489135575242486
4.020641955606282
4.790699805492488
3.2997419328802873
4.105035476462394
5.165768658647735
2.6299421228287923
3.5792817981016722
3.7942643155107585
3.590884791475036
5.058660911630855
3.9527309667032164
6.1400863697343775
6.869688824356673
8.341381661954188
0.9875825121769723
0.7511138938397434
2.3903613447475394
1.671328909750634
1.0735123441863286
5.4960633020337015
3.405946839648655
3.5272472846808394
3.8533570021428685
4.829856099162496
4.829856099162496
3.020160170267302
2.7288101527006527
2.7288101527006527
2.7288101527006527
3.016197487782563
2.971122421628833
2.36255019276117
2.376946639564971
2.376946639564971
2.376946639564971
2.376946639564971
0.139676437918486
5.175411194751619
4.8480486573020976
2.880624731636393
3.746887930803864
3.9901456343572637
4.891271143826276
3.577569481964445
3.774426733450938
2.9357458016448232
2.9357458016448232
5.923965746888226
3.8929903872979192
3.8929903872979192
3.8929903872979192
4.500987733263878
5.569680580685038
4.334763992489167
3.366048446477355
3.366048446477355
3.366048446477355
3.366048446477355
-1.435192238360648
4.891469109767933
3.256715280541652
3.028188825167748
3.875296043899956
4.421400998175384
5.059987365355115
5.543079266177739
4.824045226852931
4.641166287169104
4.641166287169104
6.4556585136678075
4.607887108990761
4.607887108990761
4.607887108990761
6.394581440967731
6.678219439690169
6.1414248584611455
6.484915145846071
6.484915145846071
6.484915145846071
6.484915145846071
5.552638688192498
2.1267589410967696
1.6684857905555344
2.9095873856019936
3.795674862796184
2.328185711054018
6.417498040861839
6.417498040861839
3.3384092676765564
1.9134900142676678
5.1073103958005595
0.8700476672977264
4.878542749284575
2.0952260314804683
2.307009262448145
0.8447843692973226
6.4892721492636465
4.6209652572357305
3.087779833619187
4.290640123764945
4.290640123764945
5.983836713525274
5.99924676219053
6.942752258923995
4.891672943374449
5.9895078100979084
5.571840166939787
6.904804712331641
1.6525219422081265
2.53772063059793
3.173593921252257
2.0117202979167064
4.973223678376591
4.365632997547687
3.3256848859092494
3.3256848859092494
4.531046335902192
3.2657331891878805
5.117485091983374
3.01274889867085
6.660544468851567
4.6290298769161975
2.8359931805953704
4.187805416733288
2.6895281838851863
2.068384755248943
5.289779940929611
2.715788005080228
2.715788005080228
6.427347446828614
6.082800700374445
2.7658842182460504
6.3995854574860385
2.6789887494936524
6.361641137468426
3.110951322283822
5.414895372797633
4.653369846422725
4.614669069449151
3.0152656574446874
5.459600184765012
5.491386236378137
2.4655984603935184
2.4655984603935184
5.466778215441261
5.170848854475617
5.630570578300507
4.116005647451212
5.783283410746201
4.421658866110114
4.607867675068581
3.7663032059020676
2.3718067647104997
1.6448702754833837
4.8673091312098204
1.182480614517009
1.182480614517009
5.726325771584137
4.851327367770346
3.0047574978219544
6.528302372174369
2.7111436061001477
4.591204227530239
3.421114006478186
4.012584905243622
2.032197869063613
2.49896755587123
3.8679623729440675
0.9956325705909711
1.679919927076175
0.527776513560441
3.6060974904982537
3.8635944046642487
2.656040189400762
4.423644787341848
3.6892387805168587
1.8135932941064308
1.940831485686875
3.5166403625011364
1.4718938984614347
1.5054801873087973
1.7965125409451976
3.204285614505795
2.5277075948473136
1.2622580155632424
1.9470236979098945
3.5009560988824666
2.538358672336127
2.893807361697676
3.0668401303241666
2.376582932270513
2.4140078407516423
1.5404132968069224
2.7305381444996066
2.202378092400636
0.30517722998150765
1.4005872152236347
4.506696203515559
2.9127144390460535
3.1200131284187687
2.8302908644607165
3.780194877327114
3.7582078764807587
3.328529410484723
2.0040657060998917
3.41510712705825
1.937261411885398
3.4621824312991585
2.710131003122812
1.9820591042005236
3.483923779338931
3.4061196751433997
2.6514005953545716
2.9001236773553267
2.2769740589337277
3.1340610576536556
2.548795757777552
3.4888146652193885
3.231620538079165
3.2444321856424563
4.497861392921554
5.11775188333542
3.2549419473420986
4.103933483669694
3.1114653416217424
2.7162952541091188
2.985234619827424
3.2502622291400503
2.9763741214754305
5.024855759111247
2.3480850862439615
2.9572043929232117
3.775047144467786
2.8038309983980945
2.3277432122846746
3.4463810853667174
4.392925536405454
2.690765659770062
3.2366369050732917
2.0840053927585362
5.17476582621594
4.40109061500917
3.8904440272451826
5.662612866189993
6.020048310334776
4.487679394730655
4.037590253270793
6.3242219192538
4.133418452070552
3.1161345981936552
6.347695996875077
7.175934335937675
6.460249742740716
4.174725280111097
5.830773585663158
3.729310469795356
4.2687543583396685
4.971037687781361
7.326315566267366
5.214674443966686
5.188325214106436
6.6270784546243835
5.0046120175085544
6.825364028786419
5.068446886908698
5.904443093499103
3.8513901440124836
2.9752780058384625
5.662267697418518
5.743018302219893
5.169007214093556
0.8405064819656937
5.737909058275076
3.101646284882574
2.8215562722638547
6.523367795744505
7.226773090651547
3.316217129412245
4.232999721211029
2.7898724208990924
2.350684815473315
1.9008115212258017
4.706416020258534
3.2047864518162266
3.95312996387443
5.420406933722276
0.9365573534109422
1.5769699623352105
2.6231867518260956
4.055489023805332
4.133138515544381
4.14120908760121
2.5227252462700434
2.3199823461380746
2.9705243499036023
2.345121283640749
4.658107822644474
2.5885104244424415
3.94055327762547
3.0802408909121795
3.409276361520988
0.47973601765827606
6.408622442747737
3.5525888253361804
4.9402517757392825
4.9402517757392825
5.488070075511053
2.5005582938819657
2.5005582938819657
4.878993525177777
4.078946278153246
0.16220356017035537
4.57084766140943
3.8327399946517855
4.181449245312406
4.181449245312406
4.017935014790135
5.460611825025234
5.460611825025234
4.497024083336274
5.063543671534156
2.1526928382992288
4.822467968533444
1.336239811279133
4.451997983072894
-0.8678259795196851
-0.8678259795196851
3.718364730047378
3.8877597756356645
3.515748398665808
2.926171172729215
4.220776289739779
4.1548947844233055
3.613705078780877
2.2855808538628346
3.5483796955800777
3.4921464793288117
2.814875517129584
2.11675820309998
1.266205923532925
3.868149081582866
0.1952615454131722
1.0257164076612797
6.1983252644395535
5.903824578771377
1.9489045252643025
6.396968630343443
5.120478200596148
0.901713172087877
2.7020356719085936
2.7020356719085936
4.128627920401378
3.011641601760641
3.223621728231293
3.223621728231293
1.679964695504498
2.107273253081128
5.379404023952502
3.45237416124658
3.45237416124658
6.960890854784697
3.223621728231293
3.6561064762725297
3.775420194678992
2.0427187620090725
2.7611964267189637
4.285502771888807
4.133950992443518
3.3515192558207882
1.508092829942972
3.834232758689183
1.455457116880147
0.3955627545870704
4.924404371057544
5.502608413068899
1.9698029461148792
5.520819294978325
4.762275784649525
2.5131846517972964
5.005872160543693
5.005872160543693
3.696070604468839
3.119252694567141
2.9938497087413602
2.9938497087413602
0.5055407228580281
3.465616616864258
4.823061430333767
2.324184982042341
2.324184982042341
6.121252218815817
2.9938497087413602
1.5519676335301045
3.390914123346754
0.4550239656014613
2.6678020634779873
3.8863375973432515
2.3030827273458967
2.496197940307005
1.85116304688785
4.292293080432924
1.4685670055962994
1.2242335768433328
5.699655798052506
4.473154034474842
-0.13629254006219327
5.844508082947155
4.990609838383743
-0.7254724483015242
0.9962425497400944
0.9962425497400944
3.4594274301793115
2.7465498861758038
0.8607242296824471
2.436402032536627
4.899629685420967
4.478450999235465
3.1610856630317152
1.1160571959013694
2.909754856787849
5.438785219243527
4.812565957820527
4.215801091401738
6.686301786389581
4.4341286717043555
4.137777361415179
3.8223185375352515
4.091373964470882
4.588219505137292
2.9227191942067376
3.5613890397626746
5.089194359833506
3.288439067096836
6.109112713113233
4.2140545318902545
3.3068977115282085
6.036655214780557
6.036655214780557
3.0933877236012104
6.181720426521391
3.9708916972698396
5.547933012225754
5.547933012225754
5.547933012225754
5.547933012225754
5.547933012225754
5.547933012225754
6.693107224016143
4.36248629415338
2.875948678330099
4.7098760308924295
4.7098760308924295
4.117510835349452
7.9751172496721585
6.862314510905964
7.5206706181874985
7.5206706181874985
7.5206706181874985
7.5206706181874985
7.5206706181874985
7.5206706181874985
8.08569202198857
6.974524376063401
2.8854739440434356
5.58747965975769
5.58747965975769
3.2481922093755764
5.676716269265608
2.513406794382745
4.868733602972659
4.868733602972659
4.868733602972659
4.868733602972659
4.868733602972659
4.868733602972659
5.508458532621496
3.2949986635688635
3.8029215088215627
4.028256789423565
3.1216883028838973
3.0862324073927514
4.144068370128564
3.7895363700987925
3.4715013354061894
2.010483667222286
2.7959712292562515
3.42556482487437
4.005686914507284
1.8633268099782392
6.015271457396094
3.5501369912671836
4.466988982528634
3.4917011447412305
3.957352560639884
4.485440870386379
4.236245640639222
2.6871507924729596
1.3732281768218868
4.187179137775262
3.989066777118885
3.989066777118885
3.989066777118885
3.989066777118885
3.989066777118885
3.989066777118885
4.916067879361642
4.985683024645751
4.709428424225834
4.709428424225834
4.709428424225834
4.709428424225834
3.953108736029848
7.214899197207257
6.200911010076282
2.5915978728638702
3.963269022309775
3.3165781509222283
8.712106997486861
10.026446024369662
10.026446024369662
10.026446024369662
10.026446024369662
10.026446024369662
10.026446024369662
5.368774147615069
4.883748471486177
7.999989082831343
7.999989082831343
7.999989082831343
7.999989082831343
5.8291929088382535
10.07968679888295
8.633395367287104
5.216930927767217
4.719191573708827
4.737882763115546
5.316897043393507
6.62198502154061
6.62198502154061
6.62198502154061
6.62198502154061
6.62198502154061
6.62198502154061
3.34458071502425
3.05331713685322
4.97003997873996
4.97003997873996
4.97003997873996
4.97003997873996
5.048233384071086
7.51489252526051
6.501031117115643
4.394744725446283
3.988859126320545
4.169823313045245
4.848903037111239
4.659328994666259
1.9889046944789481
3.501767703708003
5.868907219154939
5.868907219154939
3.9500894358483523
6.451031181136553
6.451031181136553
4.649063567774988
5.927836726767301
5.927836726767301
7.631928002912073
7.631928002912073
2.0885991921782217
2.0885991921782217
3.163564128890015
2.666122570936014
2.97638153936738
2.7170371235379505
-0.021517173975726982
-0.021517173975726982
3.332711557082857
3.332711557082857
2.8864323979251854
2.7601650375672384
2.5118754485191337
1.0975019173885883
3.0689443048252856
2.7022118744223147
2.7022118744223147
2.7022118744223147
2.7022118744223147
3.975399517450006
1.893281330759813
1.778010311501914
1.778010311501914
0.9926962208548015
0.9926962208548015
2.44971943441325
2.715267015944393
2.715267015944393
0.5935228279003856
3.9040064423264393
3.2277185049821133
3.409069063410543
3.098062661220936
0.3476532128832008
2.2323988405355326
2.2323988405355326
1.8895866943388353
2.63531459175669
1.2177624648752936
1.493793966790556
2.1141578481736394
5.914030247378475
4.43150281321202
3.0175363182598463
1.5618217850515588
3.359660691406159
3.359660691406159
3.359660691406159
3.359660691406159
3.359660691406159
3.359660691406159
1.8516757443859206
1.9619801753225228
1.9619801753225228
1.9619801753225228
1.9619801753225228
1.9619801753225228
1.9619801753225228
1.827631812582558
2.035530690771698
1.3821507407479094
2.2051637867623928
2.2051637867623928
2.7950266653714566
2.7950266653714566
2.7950266653714566
2.7950266653714566
2.65473091956982
2.65473091956982
2.65473091956982
2.65473091956982
2.65473091956982
2.65473091956982
1.670013934270362
1.8326073752133032
1.8326073752133032
1.8326073752133032
0.3476532128831783
3.464157723189295
3.464157723189295
1.8320636837829205
0.29605498778914874
2.9629256601770955
1.7589315346791472
1.7589315346791472
0.6920873637030909
1.3320964750442204
1.536238417947317
1.536238417947317
2.9366769533905415
2.9366769533905415
1.4735761418709281
-1.3395198656254594
-0.5071435749088707
-0.5071435749088707
-1.3395198656254594
1.8843863992623726
1.8843863992623726
1.8843863992623726
1.8843863992623726
3.0875862227830693
2.3054494520799382
3.2471653210437528
0.4839917042467912
0.06579015230505808
0.6408237248533146
1.4622287635830022
1.4622287635830022
1.7295377757882713
1.779400039166772
1.4368337733952377
1.4368337733952377
1.4368337733952377
1.4368337733952377
4.400114303070147
3.1051483955963737
2.58554374711164
0.3206575329056776
0.3206575329056776
0.7350907729534757
1.745895344927501
3.2088886557755254
1.7844615008145182
1.7844615008145182
3.6005333238658244
2.4913409050950377
4.181500194173918
4.181500194173918
3.828752865536465
4.0110915904339715
2.3240769791929226
2.345448830262508
3.1360855046645586
3.1360855046645586
4.212802171004046
4.212802171004046
2.157546870893659
4.347559098919328
4.663080001806705
3.383276439798793
3.447599319010736
3.8183140902391948
3.8183140902391948
3.8183140902391948
3.8183140902391948
2.657238878869881
3.817311433234022
2.6857577115140776
2.6857577115140776
3.784808795349132
3.784808795349132
5.097311134160455
0.4045051785475379
0.4045051785475379
3.7919478915169584
3.7192157621256237
4.017090736670417
4.47743602348023
1.8811278100799393
3.5677471280288864
3.7503453678494543
3.7503453678494543
3.1461455944043824
3.600672765207917
3.0583330950292447
3.561210055987087
1.0044493676269566
4.842589512015432
4.432287928638731
4.109235927121631
3.3287001066118718
0.9437019061344746
0.9437019061344746
0.9437019061344746
0.9437019061344746
0.9437019061344746
0.9437019061344746
2.3007128624105415
2.9019386461233045
2.9019386461233045
2.9019386461233045
2.9019386461233045
2.9019386461233045
2.9019386461233045
3.977009991626936
2.635412987988
4.784180560078759
2.303619158470509
2.303619158470509
2.1198438938367827
2.1198438938367827
2.1198438938367827
2.1198438938367827
2.6497227935803704
2.6497227935803704
2.6497227935803704
2.6497227935803704
2.6497227935803704
2.6497227935803704
4.664087797746686
2.0416873103004085
2.0416873103004085
2.0416873103004085
3.567747128028886
2.3779208064692834
2.3779208064692834
3.920570373762366
2.8603006731378016
3.5399616425563982
2.880689123766128
2.880689123766128
2.586960953002619
4.1138462320601015
0.5675570006847359
0.5675570006847359
0.5880778412328577
0.5880778412328577
3.78452757733571
2.5340513474236555
2.8615886879981667
2.8615886879981667
2.5340513474236555
1.044874020319665
1.044874020319665
1.044874020319665
1.044874020319665
3.8809559170116064
2.666328988402254
2.6472052992950452
5.172329206736765
4.276395799988976
4.0185854763908635
3.434708616356924
3.434708616356924
2.1721540348146284
2.3918508152161837
3.290672487321299
3.290672487321299
3.290672487321299
3.290672487321299
4.4857040183400265
3.9421080415807435
2.451307042604383
3.2271622109600258
3.2271622109600258
4.134387429657915
3.525904498264635
2.027823954138804
3.072318960661067
3.072318960661067
2.3762754076252683
2.135776551205249
3.408154929087225
3.408154929087225
3.447267541216733
3.896518371448277
4.114562837272225
4.145851746353141
1.5518522996878414
1.5518522996878414
2.4500734861393627
2.4500734861393627
1.1579024681259147
3.3718345909737475
1.9028516558839512
3.1289390712890928
3.9716355922299402
2.7223697018733817
2.7223697018733817
2.7223697018733817
2.7223697018733817
4.4952876696139015
3.4458887274795122
3.127707836253427
3.127707836253427
1.6516555369403523
1.6516555369403523
1.9043041899212079
4.582046511468883
4.582046511468883
2.656634757496764
4.401021149881138
3.8098079420737605
4.044649593139194
3.174137248849646
1.6059631273922372
1.5279309128966514
1.5279309128966514
2.7608422846070355
2.5346615670624764
2.9239116358862045
3.1858709193465025
4.147510355503383
6.813788054385758
5.688568223220085
6.157924498280407
2.9054312821033017
5.21239320357102
5.21239320357102
5.21239320357102
5.21239320357102
5.21239320357102
5.21239320357102
2.645918987908778
1.9275939751343327
1.9275939751343327
1.9275939751343327
1.9275939751343327
1.9275939751343327
1.9275939751343327
4.788587293844426
4.0319361109610625
2.2524851524130445
3.577332748214589
3.577332748214589
4.787315818307891
4.787315818307891
4.787315818307891
4.787315818307891
3.0383467975688774
3.0383467975688774
3.0383467975688774
3.0383467975688774
3.0383467975688774
3.0383467975688774
1.691065213095873
2.3229832893306983
2.3229832893306983
2.3229832893306983
1.6059631273922346
3.705261697848358
3.705261697848358
2.0027510551863466
2.574266277228601
3.256918567681663
2.989044114718279
2.989044114718279
2.745212489003717
2.1415227838740676
3.422569711557384
3.422569711557384
3.955988731768736
3.955988731768736
2.971256651647486
1.0835393830248963
1.677699985510565
1.677699985510565
1.0835393830248963
3.280947937088887
3.280947937088887
3.280947937088887
3.280947937088887
3.0120816958956205
3.1968212337535054
3.9792344477521224
3.568767368219687
1.641522776109848
1.7525390835421826
1.3896305299504237
1.3896305299504237
2.4639926992861922
2.0036293960989893
4.181071572811329
4.181071572811329
4.181071572811329
4.181071572811329
4.3473356991310235
2.822245930439917
3.6084701555750534
1.4572580577859457
1.4572580577859457
0.96432878382901
3.338201788173321
3.9311786235977877
3.0665090814613074
3.0665090814613074
4.364622979166485
3.5978492789624847
4.091180544823203
4.091180544823203
6.0364348588507175
6.544638641824082
6.544638641824082
6.158582849568598
6.158582849568598
5.841401248939849
6.1531516892467195
6.1531516892467195
6.1531516892467195
6.1531516892467195
7.3120527318918205
7.3120527318918205
6.880239706396997
6.880239706396997
6.804263716964338
8.215742186633175
8.215742186633175
6.553096910382031
6.837485274562492
5.300324241370646
5.300324241370646
3.9730130602083777
7.233545137300543
6.637706572714235
6.637706572714235
4.623211958109389
4.623211958109389
4.623211958109389
4.623211958109389
5.566522105445354
5.566522105445354
5.277000028205288
4.539412969242903
7.5701568342394125
7.5701568342394125
6.60158539892164
6.60158539892164
6.25164598113783
6.25164598113783
5.826096199116113
4.985811573660513
4.985811573660513
4.206995072235289
4.206995072235289
6.776198469614105
3.413091788266249
3.413091788266249
3.413091788266249
3.413091788266249
6.607800926113593
6.607800926113593
5.406956303389758
5.406956303389758
5.9211908144877645
5.39154093326822
5.39154093326822
6.1410960059216935
5.823805944158277
3.917405904833055
3.917405904833055
5.143461865657575
6.560848371676184
4.0730347901078625
4.0730347901078625
4.2512767898167505
4.2512767898167505
4.2512767898167505
4.2512767898167505
4.290240715025076
4.290240715025076
3.905216487947537
5.353290122885074
5.062055380222684
5.062055380222684
4.9605643185584825
4.9605643185584825
2.540253950864974
2.540253950864974
3.8618993504337107
5.495333989424364
5.495333989424364
5.522346838823423
5.522346838823423
5.262795166908811
1.8834723952708106
1.8834723952708106
1.8834723952708106
1.8834723952708106
7.404543194611062
7.404543194611062
4.1249735241214776
4.1249735241214776
4.600823416716353
5.761264509679251
5.761264509679251
4.189179429622528
4.127993782297814
5.5955036186842495
5.5955036186842495
4.988686398797407
5.6100943303761115
5.6100943303761115
3.266285330877609
3.266285330877609
3.266285330877609
3.266285330877609
4.439025647034001
4.439025647034001
1.5371588974983061
5.171330420370033
5.171330420370033
5.960352869579941
5.960352869579941
7.20513604027353
7.20513604027353
6.4481118649494515
6.4481118649494515
7.680998601806078
7.680998601806078
5.903648954648258
5.903648954648258
3.4068561604579863
4.695796886373933
3.050656410256365
2.3431695335577905
3.343305509390799
3.343305509390799
3.343305509390799
3.56898958713853
4.176424057505264
4.379333337598715
4.29882305497426
4.778138473485277
5.0319074570472475
4.185738282939599
2.7509840268881307
3.2101771109999704
3.2101771109999704
3.2101771109999704
2.497852694187604
3.5058332697430536
3.897738891417305
3.8371354268081626
4.7764532584329755
4.8855675893701465
5.211434477888849
6.265274781344383
6.581373586052371
6.581373586052371
6.581373586052371
6.2797091947841395
5.004775634600677
4.6622815414287695
5.141898282863957
5.502683624054589
4.514774840663918
4.451055055877857
4.359465092523049
4.245189486033601
3.964197007340651
3.6146813114938223
2.927737604484376
4.4251596313945605
4.328213755633017
4.195983582597804
4.2809422772916985
5.412145103015384
4.984049864932121
4.12496477020709
5.255360726871258
5.436073798552576
3.8668844533579216
3.8511963801003892
3.501042478608132
2.8163773087619806
5.256727325502106
6.395009377143802
3.8490180346896046
3.7287127454766904
4.685658662732401
4.25159128766561
3.2825136175713636
2.8888062851571656
3.3022246018990224
2.9044850805722082
2.9044850805722082
2.9044850805722082
2.9044850805722082
1.6328586199758526
1.6328586199758526
1.6328586199758526
1.6328586199758526
1.6328586199758526
1.6328586199758526
4.494105903100738
2.3917961306355835
3.738079997697145
4.028703170110703
3.871875110877907
3.6003560384764626
3.471733802686987
3.2909873879373914
3.186075634400116
3.186075634400116
3.186075634400116
3.186075634400116
3.595780817251238
3.595780817251238
3.595780817251238
3.595780817251238
3.595780817251238
3.595780817251238
4.038243577029759
3.550125891089207
3.4606549795599655
5.26310214931085
4.621904682916498
2.3503871991308207
-0.3031432053274726
2.094687477047548
2.094687477047548
2.094687477047548
2.094687477047548
4.757469588343743
7.398583573069201
8.02889190237165
6.284279666488516
6.295418874600115
6.300062154398925
6.1897551549688865
5.1992377923076365
3.325755858085173
5.16672077343394
4.411106480012835
3.3174016931797223
3.7511934667419045
4.103339094386135
4.078554865015893
4.441180965689609
2.2558266998492247
4.708063960072964
4.560049489706086
4.494540146352006
4.4621693326251055
4.380819111845097
4.395640352923127
5.436117481905816
3.6094858635805216
5.106527085634981
3.6503078515146923
3.0844275216681165
4.372870122384664
3.6179768689409557
2.2718865208187666
3.5803371748447295
4.504853536439242
0.40622356596695647
4.535901974571449
3.2562399423571984
6.21453385359203
6.21453385359203
2.4810110191447294
2.4810110191447294
2.4810110191447294
5.083141920895093
6.679913930786129
3.312940119480836
4.55843067211034
3.6382715237498116
5.6563081732458755
7.6243095934245515
5.127142487620028
6.592508518803975
6.592508518803975
8.15953742001091
8.15953742001091
8.15953742001091
6.973011878164994
9.585431952549113
5.803695997665058
6.180824908671406
6.103320634634346
5.435508468980487
6.453759407728334
5.066214990513289
7.960069969382157
7.960069969382157
6.030039462889071
6.030039462889071
6.030039462889071
5.254387057188113
6.064419363369741
6.140611727960227
3.9817833459552565
2.900816874681241
3.9405303233603384
3.6003384019515483
3.397509130532857
2.91334843644685
3.977399002734629
3.24370545972934
6.034814643161552
5.473396976401742
5.345498643162112
2.687570162255573
6.280596190346819
6.977259457349115
5.225997806538002
5.173881093522078
4.335469186351747
8.182560727305697
4.8841652576438355
3.7800598274317725
3.432096805943609
6.327045903875756
4.0601143931852715
3.546328979374367
4.428442227318543
2.727207582957639
0.4788689149921362
3.380480194446272
7.851008436315237
7.426349424921346
4.82904495035393
7.756099056957843
6.186340980856967
1.5025888199453044
0.4606592809006839
6.520802295105476
4.2675497325600045
4.776531771027308
3.8470246181318415
6.08034070248047
2.1219723789641036
4.177161016994797
1.1458926839540267
3.6819422155502477
4.189396514426336
3.005701204695663
3.005701204695663
6.724388072986236
5.305210802663564
6.754326353652418
6.754326353652418
5.129994183660044
5.129994183660044
5.129994183660044
5.129994183660044
6.827135195644416
6.725279083894064
7.197954780133989
6.292267579417791
6.472157004289659
6.056777897279128
6.056777897279128
6.733609382027708
3.87441663704551
3.6013908318092738
3.3910923918669407
2.9398004290422857
3.5307233444185906
3.4160967009801624
3.4160967009801624
3.516683536265659
3.652528538167312
3.523442585700877
3.523442585700877
1.534124897762949
1.534124897762949
1.534124897762949
1.534124897762949
2.1867600163227388
2.1349113903211214
3.444087192406446
2.2527064207240577
2.1780783381871878
1.738012351292364
1.738012351292364
3.5527960986930283
2.903893165716965
4.757668057189676
1.323077478044392
1.964588154567422
2.419233692500177
1.4008492870557374
1.4008492870557374
2.2901774235132213
2.4345584215163667
2.2613952750880686
2.2613952750880686
1.3950198937275642
1.3950198937275642
1.3950198937275642
1.3950198937275642
1.7131709652393095
2.0347624667119573
2.3776728485930527
1.7401790492302844
1.99856492386012
3.3502369610269804
3.3502369610269804
2.206408549216084
4.726183189734738
5.872129107887918
4.557137486765354
4.557137486765354
6.252764537946445
5.9735177756889835
6.231489223485742
6.231489223485742
6.353438582868905
6.212175007727961
7.496590458487724
4.293057089261915
2.2226104914724565
5.133027710869962
5.133027710869962
4.518564304687093
4.996435478619966
4.484045867967584
4.484045867967584
4.520072177783556
4.489474185355353
6.91843765189552
2.5801319715354767
1.6208001695928924
5.666037135585822
5.666037135585822
5.796363578060835
5.7133089262270405
6.958475285594224
6.958475285594224
4.91808355555092
4.468951173057252
5.350811899846551
6.39389453856061
6.5571933352442064
5.4926891128118704
3.6126890735392836
5.490619739761684
4.546345540342637
5.061963301530957
4.5399850883500665
4.691594366593659
4.673930352878772
4.145981466407585
1.4282112371798272
3.521255414364521
4.3655456216359365
4.710042426620522
4.554038031916981
2.47199896009646
2.496841196929337
4.071938831886121
2.2920698446740575
4.22624532751249
6.634806534535922
5.038097234864486
5.684003489104524
5.704405960318783
10.003576103962684
4.529276817850513
5.461638098029153
7.64553236532274
3.918407110993056
5.9671678911066985
5.99206571238141
5.99206571238141
4.19994955704264
4.25788382229716
3.809834483587181
6.05666660583152
3.675345333278164
3.675345333278164
3.675345333278164
3.675345333278164
3.176666072236
3.176666072236
3.176666072236
3.176666072236
3.176666072236
3.176666072236
5.707292192324882
5.707292192324882
3.602383022366572
4.7093384213506155
6.459283907258428
5.555243830478428
5.991201295980937
5.991201295980937
6.660443716851634
7.310044785752552
5.665239586804385
6.713829027239915
6.988803871262194
6.988803871262194
6.988803871262194
6.988803871262194
4.964141390068142
4.964141390068142
4.964141390068142
4.964141390068142
4.964141390068142
4.964141390068142
6.788400521587016
6.788400521587016
5.683433442522415
7.194501089176981
4.98556007656633
4.908286539187887
6.553166758467997
6.16637129539307
6.16637129539307
4.791821239128302
4.486116877837387
6.683407185721185
6.337012245629861
5.537604908685457
5.537604908685457
5.537604908685457
5.537604908685457
3.362463812177239
3.362463812177239
3.362463812177239
3.362463812177239
3.362463812177239
3.362463812177239
5.415467375806772
5.415467375806772
4.965509236909213
5.532964667296077
5.565148800096964
8.384533763386669
8.157041402850021
8.157041402850021
6.805102018510909
9.73829760415612
9.73829760415612
6.939607279113176
8.574431901620565
8.574431901620565
5.2294945863423825
6.384487648495092
6.7200353584924075
3.6301074717934236
7.348951981295495
5.224467785024644
5.224467785024644
5.224467785024644
5.224467785024644
4.039912013368487
4.039912013368487
4.039912013368487
4.039912013368487
4.039912013368487
4.039912013368487
6.720035358492409
4.057466796959826
7.012539464231157
6.416109401751355
6.799686268546981
5.443713805833987
5.443713805833987
6.799686268546981
4.445871252078994
3.621694661360001
3.621694661360001
5.806439928980115
5.707286848451683
5.070593353453372
5.379625604492713
5.988961154321573
5.228595220725321
5.228595220725321
5.228595220725321
5.228595220725321
3.8726971027525754
3.8726971027525754
3.8726971027525754
3.8726971027525754
3.8726971027525754
3.8726971027525754
5.070593353453374
5.571094955428738
5.546601341737869
4.350807334407975
6.5869382323503824
5.011716470381424
5.011716470381424
6.5869382323503824
4.86335233333327
4.014652645036087
4.014652645036087
6.148853949288848
5.669913195073705
4.20937443012199
6.5680720851058965
1.8828256022382175
1.8828256022382175
1.8828256022382175
1.8828256022382175
1.8828256022382175
1.8828256022382175
4.209374430121964
5.0026661897334606
2.649581372794713
6.497014462027202
3.7590238413336023
3.7590238413336023
6.497014462027202
5.687266881632695
5.687266881632695
4.870292944876784
4.483252527663416
3.8181499519779667
3.4087252738040847
3.4087252738040847
3.4087252738040847
3.4087252738040847
1.9138101877361475
1.9138101877361475
1.9138101877361475
1.9138101877361475
1.9138101877361475
1.9138101877361475
3.0234174365775277
4.6980941056880265
4.87037598701326
6.474850713513287
7.8865139061906016
7.8865139061906016
7.8865139061906016
7.8865139061906016
2.570319844183942
2.570319844183942
2.570319844183942
2.570319844183942
2.570319844183942
2.570319844183942
6.606882935319819
4.22321476504724
4.102128625461807
3.7430283778118207
3.4846525218538655
3.4846525218538655
3.4846525218538655
3.4846525218538655
3.9607326489744867
3.9607326489744867
3.9607326489744867
3.9607326489744867
3.9607326489744867
3.9607326489744867
3.9871372220942978
4.512493179415325
4.638916240270673
3.989741455647664
4.930833305327673
4.449751645049138
4.731250161945219
4.744289501199601
6.704220834742916
4.018433956379773
3.6737889767076215
5.469042439013063
7.141543384061569
5.26713607568341
4.370129786286539
0.31164752017908554
4.5549789528042215
5.53168169851143
4.4936220734052545
4.569438152362463
6.513532252300351
7.186337936356688
5.509034707128447
7.95163753925303
7.068882347573379
6.171239805158585
3.6651987170020126
4.254209517422978
2.249051780232773
4.2788004378751525
4.2336438461847505
3.9320193833149464
3.933813897757654
3.792514715290787
4.824427618742019
2.7827125866219053
5.661714278905068
8.470947194044227
4.5940180749657955
6.303775156456974
6.6285388185459
7.069653788900579
3.8628506456607723
7.335407554506833
6.557080903994153
3.692104243300092
4.396565237407091
4.437855095121246
4.468371520868868
8.018664998774907
7.416472822585931
7.891485435649346
3.098719493867605
6.653368224108484
9.555286042010644
8.782705911795858
9.223492466196864
8.570788299219632
8.570788299219632
9.223492466196864
5.670594358811863
6.562339540383364
7.994711068231927
6.792390045820621
6.792390045820621
7.994711068231927
8.466322082970091
9.456597134832576
7.246232310021111
6.2703720858865495
6.2703720858865495
7.246232310021111
7.926901600175346
8.073320529452124
6.662796445390569
10.313466147698701
7.574404859660239
6.514096257681236
7.84364674145753
7.84364674145753
6.911038500832446
6.567879350535142
7.251633355210093
7.251633355210093
7.394517915864529
8.914773056863918
7.756829377954969
7.509555428020895
5.927991257374049
10.872951754764347
5.022740460750116
4.614968954039587
4.614968954039587
7.238319763757387
4.871748801361374
3.6640609869833525
5.0084846007202355
-1.549862808309591
0.7787873226114295
4.574357108256645
6.797869319847615
2.7302818568988023
7.692455301179793
4.1307246653006775
9.492726342807103
5.81958071430989
4.974234124767264
4.082190967744412
3.9805337213822902
4.836249963588824
3.3407476298729364
4.974234124767263
4.836249963588824
3.3407476298729364
3.824193800379043
3.6071545767471487
3.1581635882045456
2.491133243060954
3.216735432716713
4.673611936390203
5.126868360422958
3.685107783957236
2.354367333737949
4.801041579592286
3.632537634258222
2.82415145730727
2.3514339217131526
3.43226242933141
4.783147209284985
5.087992086569836
2.6740241071630098
3.1972577868557748
2.6820488616903537
2.5544348827793044
6.165479624152193
5.252956290768385
3.3566931949988685
3.2450036750603775
2.9676382268092096
4.688150116311772
5.753772386791768
3.5706787295637454
4.36167196227587
2.7493370088859446
3.1670107997918433
3.2179284834555353
2.5371990046645148
0.9336334631186146
2.555778019874273
2.7349860569522266
3.998021224514056
4.205825665507689
4.656990284072084
2.572875162146909
2.868650815748037
2.386098982540934
5.24542394576555
2.1690454194550814
4.235697990493234
4.800935524638878
3.839002791116575
6.937778050812092
3.07930559594142
2.2252041425823315
3.3004761461252823
2.660244677321856
3.748254684469411
2.817584055225905
4.764780320806528
-0.49561702954088643
3.4671123213888526
3.4329031145851925
3.6368444783080904
3.8811221102545583
0.4904613439455873
4.2172565463164835
3.5794026478196366
2.225630989045865
3.389814045657804
3.625748517836274
3.273455298263807
3.791204526242317
3.2658793487554956
2.59879914165796
5.730347388334998
5.674964087704025
4.508209571079614
3.8482611860555145
2.209079954538789
2.7337085883378194
5.28752929183899
7.786004813784847
4.3379052938840355
3.0064593445143952
3.2541923368470744
3.7695360868513834
5.413957527256343
6.393263367139809
5.439962103441783
4.676108260629957
6.597896303813555
3.9481101036303614
6.051068496022101
5.954540487922271
4.138970714907975
4.982970155020325
4.982970155020325
4.212939256879982
3.509802858226255
4.6238894416586716
7.727148697802143
7.727148697802143
6.376934218579256
2.8078630393226156
5.263540007575605
6.099919101085387
2.824699280630718
5.656851445826001
4.929577457215589
1.6150359696821566
4.967060429400791
2.901701791367367
6.0492211826591324
6.483687347795688
4.728702564315857
3.10760376291506
3.10760376291506
8.107406515959665
4.938359050767016
8.194395986798282
7.03375783986985
7.03375783986985
2.1144000751386343
1.7002400429239466
3.410043212833078
2.3585464575929644
3.8373327957385666
6.232863292560323
5.36867851298743
4.401575762021813
6.623385716609994
6.1275320849381805
8.030664756519755
7.942722556705383
4.6875724979092315
6.551574198975586
6.551574198975586
4.665390849504889
4.572452164780487
4.609326386709447
7.983475104246339
7.983475104246339
3.3388815833523418
4.309517450429515
1.3842363606796524
5.498677395211561
8.354699476529607
8.863939980219119
5.459585800110414
4.245148062514495
7.387908648292447
8.249279178906955
8.398606182344654
8.694085936580649
4.023478943607306
4.558429713397203
4.871004180289619
5.495036793258915
3.7739661667832056
5.457299635551642
4.12392037478364
2.2656977773988527
3.5655845706448797
1.7752125802411283
2.5151715088663025
1.9723349741958156
2.292695601428854
2.82144419849371
1.2758648467545
4.9152538461699455
1.6530941064016222
1.5429455063175839
3.1536847148149656
2.8337956149477197
2.1632379771026087
2.974927074694613
4.275230054606324
1.9071705996927026
2.337196811859141
2.3502612285579323
2.473203333143986
1.3355344587647922
2.7213483529032563
5.038787626053755
2.3318723098945355
3.147232395130804
2.9827408640297155
-0.6874255472649101
2.354658922618239
3.642899667566456
1.0864095590714062
2.4801404147431785
3.0799955247134907
3.301586447636913
1.4267440218392604
4.586287507292511
2.3543871664422853
4.04908313402261
6.565811426449486
3.79484911304881
2.7180103043572403
4.006184818624541
6.8817827536845
3.561203289247255
2.7610719757473325
4.75001946318989
3.3162106724777147
3.8604160089927975
2.5797670403725586
4.373961786329511
4.896307865162956
4.31548013678975
3.4446291833620317
3.636128118923991
3.315446461764023
3.8085033464978078
4.641648821921739
4.442715077703886
5.682003201078303
4.26985823782604
4.0377890815073725
4.0377890815073725
5.70795515451021
3.0910395724014443
2.740328738648679
2.740328738648679
2.740328738648679
2.740328738648679
2.740328738648679
2.740328738648679
3.073174349688033
3.1726933435877753
5.189607929835833
2.905550473016957
4.815659080080287
2.900839928123742
2.5688577123156455
2.5688577123156455
5.009511055841347
3.1118197519139343
5.025402633410392
5.025402633410392
5.025402633410392
5.025402633410392
5.025402633410392
5.025402633410392
3.6007853847699898
2.877708385216631
6.292539173054661
4.32403613394559
3.4954638829159554
2.404734888759705
5.730452364983047
5.730452364983047
6.519017438427947
6.517529288458137
4.409471271689294
4.409471271689294
4.409471271689294
4.409471271689294
4.409471271689294
4.409471271689294
4.22081626184466
2.3771371082912727
2.5410735777320954
3.575345062151526
4.2614438750775285
2.9058142616716762
4.684730701753536
3.869727219249876
3.009107205859409
2.9390437663803524
3.5783741608659447
2.5347126298128684
3.1769804344600963
2.1681644539531657
2.5772124996913464
3.5253720630472656
4.976494713856182
4.104876537071015
0.533689577866941
4.085037936023085
3.4666024031810334
4.2582561400416505
3.6094484946125696
3.7667896087168513
4.5565827302528685
3.0968688837590155
1.6917201053717532
2.6526889036042274
4.372703608589238
3.8957124442556106
3.183589606601823
2.5211835943197474
2.649344275528062
2.9621243378633784
3.3557404902167733
3.464921781790936
3.9417736130180883
4.514868307817493
2.6638580122229403
2.7399150936639947
2.589839327436524
3.0620260949270524
0.011534135589711184
3.9558167096148056
4.425928116894177
4.3043352846083565
4.7507557426604
5.198658881238585
4.5063631280150105
3.242248095642427
3.4343253764359503
4.462418203223633
4.506154976804636
3.7875074309415755
4.410924230320274
5.048899789313914
3.520526816581711
5.043137046804347
3.107851837900681
3.695042855085034
2.6198524364522537
5.017997908811295
3.695807429132427
3.235172074701052
4.3539406004816374
4.3539406004816374
4.195119424063234
3.8528423753326773
2.031714120463721
2.031714120463721
4.729622675946947
4.244659351744769
4.227249130290655
4.643339669880916
2.401094202100834
2.401094202100834
5.36989380553898
4.827259125872221
4.453599290948369
4.453599290948369
2.851228151609876
3.7191441385928092
3.7284181111242707
3.667074512496232
1.8484857461152295
1.8484857461152295
3.0738266947831083
2.51122768366405
2.6360213277506213
2.6360213277506213
2.8833924871840377
5.4676479570258225
3.7951222915374245
2.7851152433985327
3.8207011079020976
5.62968321675324
4.340530660085021
5.121578536736141
2.98219987583388
4.3954787693183075
3.2964078034848754
4.392655221532049
2.2660002605866123
2.1477966962335935
8.555890344760122
3.6158144617475005
5.072764820304283
4.3373421705391735
2.890447245133605
4.682591556615056
4.330338216710805
4.330338216710805
4.548144669433768
3.0493849879498662
2.9026972035222753
6.532626349625361
3.1989483003478276
3.0751258440213727
3.4478884407458863
4.0006140953244005
3.1953025361928034
2.358507003569153
2.358507003569153
2.1219733521372404
1.9877375676794913
2.2609956294583724
7.454291392493763
5.0198833591708585
8.91221364252034
7.47739849586697
4.881304028424236
7.010690533844256
7.7562666226894175
7.7562666226894175
8.03756342400004
3.5848132755060593
3.4438507393078863
4.2223405992301055
5.742113646011995
5.898667097055703
4.854439605508791
4.038545782978041
3.9729346267615986
3.9729346267615986
3.9349829297583923
3.7393955546106445
4.1202583024752375
3.7962248296941454
5.429251974998826
5.224250206070104
3.4581031921410745
5.223022504217697
4.750258756279324
4.750258756279324
4.90095185219508
6.1628100936211325
5.421584249546358
4.074170301175949
6.987990999008304
6.978798415570172
5.764004287473028
5.51866622144743
5.51866622144743
4.760162505831484
2.6152363119991273
3.443776450911201
4.432058708492942
4.143810012248332
3.24951981739945
4.26689627566236
2.7337314756251514
3.5504554621516413
5.731913269185804
4.678168643851861
3.945175228513645
2.841614843395093
3.768338391606845
4.01975196617536
5.016098115646633
3.5220183839446375
2.516447673060746
4.966291933151885
7.957042126907309
8.2571703940741
7.4438499188475955
3.615243862219649
4.2102907601833985
3.789871478232638
5.083571395704653
4.767564104869179
3.615243862219649
3.3972268504982726
4.090619767912808
5.149511490859799
3.1862103454145325
3.789871478232638
4.100492173984317
3.80131094785191
4.767564104869175
4.100492173984317
3.0960357803191068
3.1862103454145325
4.895905325773523
4.2102907601833985
3.1579567189451394
3.0960357803191036
5.149511490859799
4.773169350204472
4.090619767912808
9.815758734234015
4.0228283889997245
8.300077604286262
4.702387189873627
4.1329315997646505
3.959368107969738
2.5508392661974804
5.262284560917742
2.4326608860823975
3.493014259650296
1.7321475010617515
3.6382715729649378
4.3653896699762695
2.0300036960657537
4.793368051969014
3.1139886960065097
4.428431790727812
2.3655154802114446
2.004963450735796
2.3982983037747285
2.3155611590054224
4.793524337577952
3.334805371962751
4.28135428284156
3.0240425982942467
2.796862283496663
2.8984846595652662
5.12650712200309
4.905142632438117
4.905142632438117
1.5050176813489549
4.593706814273149
4.646736740789969
4.646736740789969
0.30831683513246194
6.258731623539676
5.096293997719084
5.096293997719084
2.147702963544072
4.966654982577788
4.560841992884081
4.560841992884081
7.933063681372083
6.200904535352628
6.200904535352628
1.284695693888804
4.498599652532612
4.498859774167948
4.498859774167948
5.098689404587355
5.321172707656743
5.321172707656743
1.8899286847484276
6.117569245068028
2.6046662725247303
2.6046662725247303
6.231750730351594
6.231750730351594
3.737923073029744
4.3118877381277425
5.008064322369503
3.2479000058276584
3.0405899889937618
3.361779676396167
4.710221776223344
3.6410068280696697
1.5970492765779567
3.498548529574442
4.09513465659485
4.348180398043326
3.009203204106427
6.587664977544968
3.446142764601864
3.004701607969276
4.219335230541444
2.906779087707228
5.136776357008689
5.228962655634926
4.008249304334774
3.619107433827898
4.940060967679862
3.8721121470135453
5.917755834105067
7.2503887968680765
5.8008387798286885
3.322853766975304
3.795043180704804
3.9945394521144966
3.6067830406770165
3.2646573065841373
5.892019657419453
3.986814875114199
6.250459640781273
2.8384085601066897
5.110780886553401
5.110780886553401
5.008619066717506
6.625098799701699
6.625098799701699
3.858727878985001
4.268818722658635
4.268818722658635
6.603237168462284
2.7742316757339034
5.557207752526664
3.432709181084689
3.432709181084689
4.010015791541309
4.010015791541309
4.9401768835716835
5.359075565704837
5.268594560849582
4.364250807078438
5.336794712446682
6.067580049439583
4.155591864549153
5.676292243792417
6.911940066622223
6.911940066622223
3.801607863169852
3.801607863169852
7.847452866218897
6.136986155167211
6.809547142504147
3.9468021607222554
4.415456746152118
6.131596874716951
3.6726003374261
5.591165415932951
5.02354393737236
5.02354393737236
5.9330366955864156
5.9330366955864156
4.95719356340245
5.78045701848334
6.786084441517633
6.787962414321403
5.828679144577779
3.9448699203442876
3.57192346747982
5.247174334929663
2.9053167921353023
5.732589767536129
7.3084092170351935
6.056336513653868
3.7504124470087588
3.231053984785273
9.27915045952209
7.256788911754477
6.4207850286474235
6.289487415241297
4.5504845749773
4.474162695908851
4.678888244271689
4.512289365655091
3.1487818641845102
4.635124216013606
1.0472450492955407
4.53806462527994
5.099733389225835
3.9223010110622436
0.694593237088239
4.011559014650743
4.011559014650743
4.850197112082384
2.5875284765578583
4.011559014650743
4.244588884489051
4.244588884489051
3.4965212858657355
3.881619428310485
4.526117098604256
4.526117098604256
6.0986084568856676
5.6291037198213605
3.211081916679796
4.508988521683285
1.5565604485320592
4.9003446498391
3.326637286632749
3.94715286289554
4.203053363833695
2.989101295785954
2.989101295785954
5.593738450221139
1.3403208041149592
2.989101295785954
5.380794504857692
5.380794504857692
5.046179828950137
2.7438386560658348
4.522541142022615
4.522541142022615
5.214253695165734
3.975515748639273
1.455683482085449
2.5828116038384024
-0.4716474704761038
3.6590172096462568
0.03141671489579969
2.915335804540812
4.3031692392366745
2.087341264373254
2.087341264373254
3.2851464328502438
1.4904821654059688
2.087341264373254
3.2697059169572746
3.2697059169572746
3.0516801934527655
2.351112667023987
6.43742299597529
2.6666752747582096
4.410476146955206
3.9547014858978096
4.15670849017249
8.286358280661567
7.588459219340542
6.138644125437309
4.901251957414455
4.791740503327987
5.676735453000648
5.765231593429251
5.848978685444665
6.925495860644556
6.2750298981785875
11.283352889660561
8.676085168199087
5.400626254337893
9.009462416743677
7.839929245613371
8.429607530757544
8.009949549728598
4.81821660879202
9.170990676743893
8.620312642414254
6.537788689496724
4.90914816178197
3.2443747116873114
5.978757364531601
5.978757364531601
4.304607958337899
4.304607958337899
3.9576986523481774
4.88900682996457
4.88900682996457
3.886044606584341
3.886044606584341
4.309000381730822
4.37503975043184
4.37503975043184
4.57730100724135
4.57730100724135
4.57730100724135
4.57730100724135
4.57730100724135
4.57730100724135
4.595528351072785
4.595528351072785
3.935027796814327
4.870996431167396
4.6534258042174566
4.618818972699542
4.618818972699542
4.844552417429111
3.0380082855084116
3.9350277968143272
4.08113080182035
4.70569226451575
4.393408660111819
4.226844402486469
5.694066193184124
5.694066193184124
5.614145956557466
3.9072979598995943
6.15325858698485
4.367355726822043
5.378649206261857
5.378649206261857
4.7365770753271415
4.7365770753271415
4.240472164984987
3.955371233274853
3.955371233274853
4.081478726880428
4.081478726880428
2.6998031985688806
3.667299982365429
3.667299982365429
1.9028268500596686
1.9028268500596686
1.9028268500596686
1.9028268500596686
1.9028268500596686
1.9028268500596686
3.444071053149269
3.444071053149269
4.1302948573778
5.14984749726532
3.671181894426651
4.324044063952197
4.324044063952197
4.527604283206536
4.599824882983048
4.130294857377796
4.417479464404501
5.65184082460856
5.034717443219692
4.6748808584305745
5.660452828270427
5.660452828270427
4.842068249774159
3.9050060243959
8.351665623021669
7.434573258156098
4.09913923584243
4.09913923584243
4.513214441069348
4.513214441069348
5.745726483571847
5.745726483571847
6.707235128263371
5.237538033351224
5.237538033351224
5.237538033351224
5.237538033351224
5.237538033351224
5.237538033351224
5.971150105243145
5.971150105243145
3.5150167261206486
6.155686931521431
6.155686931521431
9.213832913695972
5.528708614201131
6.757882108504689
8.948444668717197
8.948444668717197
8.948444668717197
8.948444668717197
8.90707085836833
5.923316717075095
6.9030360208843025
7.290945720504552
7.235067789036452
7.235067789036452
7.235067789036452
7.235067789036452
6.518926354012036
7.280300645384828
4.896529749189323
5.18998739021234
7.3092086582012605
7.3092086582012605
7.3092086582012605
7.3092086582012605
7.034406325176655
7.285821808761767
6.175810835587514
7.426392165837789
7.426392165837789
5.461119713785341
4.954716941128483
3.521562572364654
7.267180120246697
7.267180120246697
2.2373999998668053
4.695725389192233
0.6090823516740506
0.6090823516740506
2.5766267360288526
4.277933318366924
4.368852964619687
4.290603417986278
4.548739398093391
6.622808530933926
6.667530044874789
3.8995141028358162
5.424781358476292
4.176976648146334
3.2331879865077924
3.0134589041222357
4.12129395407589
3.5830855125462526
3.7491472706656244
3.87224935597811
2.8818359463705336
4.126859472625947
2.589159715219268
4.700350933809393
4.6140962022528775
5.801792898943648
5.85183152939193
4.945039919321538
6.754452087192521
7.2818004619338526
7.234056793497248
5.190860056265714
6.264898860363858
6.249524228447356
8.420708578738676
4.088269985161962
4.272288269077362
5.791392979534636
4.914371383223665
4.651389405302178
3.8547456220591303
3.8547456220591303
2.5419429509357863
5.359941441239619
4.3105821384080745
6.230777883280671
6.210941753478279
5.032547695599592
5.032547695599592
3.714262123419213
3.535785213100202
4.098005457888467
3.8416409647533944
3.535192297636704
2.8373783672027817
2.8373783672027817
5.159766116822878
4.280328354500674
5.275341398462717
5.275341398462717
4.918746167443277
4.994517890187321
4.96316599728038
5.004979222975318
4.3435967031689175
4.0451694752311145
4.9319775726323
4.9319775726323
5.2150167828302285
5.162755225009286
4.3432606030076775
5.793870863731708
5.379817159353473
5.732827936801461
4.462280974226101
4.462280974226101
6.501796289279593
6.498953679638082
6.446212460916836
6.475397189997404
6.675265098017139
5.717626946341301
6.262561190080568
4.67563089137891
4.074416389190056
4.67563089137891
4.074416389190056
4.979959195573133
5.9780712567581284
4.556853767078111
4.556853767078111
4.556853767078111
4.556853767078111
5.288031527342722
5.288031527342722
5.439382286619756
4.902344774934316
4.5245989575114836
4.649914743832729
